svm_type c_svc
kernel_type linear
nr_class 3
total_sv 1745
rho 0.44594023464767274 1.6898351815921837 1.434145552778142
label 1 -1 0
probA -1.3447502096318418 -1.3174590586863029 -1.1645870494026431
probB -0.05593010256065227 -0.014017205412931954 -0.10478030936805058
nr_sv 527 593 625
SV
1.0 1.0 1:5.419550195669677E-4 2:5.999421925869225E-9 3:0.9994580389810112 4:0.935233365413 5:0.663761217973 6:0.81817348658 7:0.7523115763315323 8:0.19503802118977823 9:0.0 10:0.0 11:0.0 12:0.0 13:0.003281804769589712 14:0.07055873095629588 15:0.9261594642741144 16:0.411628137477 17:0.556516293 18:0.81817348658 19:0.3333333333333333 20:0.3333333333333333 21:0.3333333333333333 22:0.0 23:0.0 24:0.0 25:0.0 26:0.0 27:0.0 28:0.0 29:0.0 30:0.0 31:0.0 32:0.0 33:2.0 34:0.0 35:0.0 36:0.0 37:0.0 38:0.0 39:0.0 40:0.0 41:0.0 42:0.0 43:0.0 44:0.0 
1.0 1.0 1:0.08708871403020475 2:1.0379157479842786E-6 3:0.9129102480540472 4:0.708260496272 5:0.634346997856 6:0.81817348658 7:0.9620968346459453 8:0.014591244607693222 9:0.0 10:0.0 11:0.0 12:0.0 13:0.4142531168781387 14:0.29290692143044283 15:0.29283996169141835 16:0.411628137477 17:0.520902710501 18:0.81817348658 19:0.3333333333333333 20:0.3333333333333333 21:0.3333333333333333 22:0.0 23:0.0 24:0.0 25:0.0 26:0.0 27:0.0 28:0.0 29:0.0 30:0.0 31:1.0 32:0.0 33:0.0 34:0.0 35:0.0 36:0.0 37:0.0 38:0.0 39:0.0 40:0.0 41:0.0 42:0.0 43:0.0 44:0.0 
1.0 1.0 1:0.9544991731706132 2:3.019413149696451E-4 3:0.04519888551441722 4:0.552632667699 5:0.557632406508 6:0.621202894539 7:0.1028548113948444 8:0.02809836285977126 9:0.0 10:0.0 11:0.0 12:0.0 13:0.25750511970914675 14:0.7399471036652616 15:0.0025477766255915146 16:0.471155960318 17:0.51519302917 18:0.594427361696 19:0.3333333333333333 20:0.3333333333333333 21:0.3333333333333333 22:0.0 23:0.0 24:0.0 25:0.0 26:0.0 27:0.0 28:0.0 29:0.0 30:0.0 31:4.0 32:0.0 33:0.0 34:0.0 35:0.0 36:0.0 37:1.0 38:0.0 39:0.0 40:0.0 41:0.0 42:0.0 43:0.0 44:0.0 
1.0 1.0 1:0.001071584806702517 2:4.303591527130535E-6 3:0.9989241116017703 4:0.565803509985 5:0.439909044354 6:0.767153710168 7:0.3333333333333333 8:0.3333333333333333 9:0.0 10:0.0 11:0.0 12:0.0 13:0.07990310394487078 14:0.09329444371441852 15:0.8268024523407107 16:0.424017903081 17:0.439909044354 18:0.597236739391 19:0.3333333333333333 20:0.3333333333333333 21:0.3333333333333333 22:0.0 23:0.0 24:0.0 25:0.0 26:0.0 27:0.0 28:0.0 29:0.0 30:0.0 31:1.0 32:0.0 33:0.0 34:0.0 35:0.0 36:0.0 37:1.0 38:0.0 39:0.0 40:0.0 41:0.0 42:0.0 43:0.0 44:0.0 
1.0 0.0 1:0.013655502889847125 2:0.9860007357750881 3:3.4376133506476266E-4 4:0.603387768261 5:0.927923153522 6:0.426053311123 7:0.07866627724007035 8:0.8937669954722745 9:0.0 10:0.0 11:0.0 12:0.0 13:0.10496477957201283 14:0.878275278216904 15:0.016759942211083144 16:0.603387768261 17:0.608336247228 18:0.426053311123 19:0.3333333333333333 20:0.3333333333333333 21:0.3333333333333333 22:0.0 23:0.0 24:0.0 25:0.0 26:0.0 27:0.0 28:0.0 29:0.0 30:0.0 31:12.0 32:0.0 33:0.0 34:0.0 35:0.0 36:0.0 37:0.0 38:0.0 39:0.0 40:0.0 41:0.0 42:0.0 43:0.0 44:0.0 
0.0 1.0 1:0.7996067166923763 2:2.4114916331218087E-5 3:0.2003691683912926 4:0.874049302044 5:0.52723522288 6:0.678781130416 7:0.5538841792676793 8:0.14598198697103376 9:0.0 10:0.0 11:0.0 12:0.0 13:0.40772341361899433 14:0.5331706820686758 15:0.05910590431232995 16:0.411628137477 17:0.52723522288 18:0.462968894018 19:0.3333333333333333 20:0.3333333333333333 21:0.3333333333333333 22:0.0 23:0.0 24:0.0 25:0.0 26:0.0 27:0.0 28:0.0 29:0.0 30:0.0 31:0.0 32:0.0 33:0.0 34:0.0 35:0.0 36:0.0 37:0.0 38:0.0 39:0.0 40:0.0 41:0.0 42:0.0 43:0.0 44:0.0 
1.0 1.0 1:0.8274530460224868 2:2.4580646646771333E-6 3:0.1725444959128485 4:0.514024313272 5:0.515564278968 6:0.845393858259 7:0.3333333333333333 8:0.3333333333333333 9:0.0 10:0.0 11:0.0 12:0.0 13:0.9159884343026264 14:0.08216903425194962 15:0.001842531445424036 16:0.514024313272 17:0.452984225716 18:0.598801436633 19:0.3333333333333333 20:0.3333333333333333 21:0.3333333333333333 22:0.0 23:0.0 24:0.0 25:0.0 26:0.0 27:0.0 28:0.0 29:0.0 30:0.0 31:2.0 32:5.0 33:0.0 34:0.0 35:0.0 36:0.0 37:0.0 38:0.0 39:0.0 40:0.0 41:0.0 42:0.0 43:0.0 44:0.0 
1.0 1.0 1:0.15864332565228026 2:7.637258610544163E-6 3:0.8413490370891092 4:0.596960967068 5:0.421994111781 6:0.691648301245 7:0.10419679650920356 8:0.003181959100423151 9:0.0 10:0.0 11:0.0 12:0.0 13:0.9090433108944662 14:0.062066719756186425 15:0.02888996934934734 16:0.596960967068 17:0.421994111781 18:0.615175684944 19:0.3333333333333333 20:0.3333333333333333 21:0.3333333333333333 22:0.0 23:0.0 24:0.0 25:0.0 26:0.0 27:0.0 28:0.0 29:0.0 30:0.0 31:0.0 32:0.0 33:0.0 34:0.0 35:0.0 36:0.0 37:0.0 38:0.0 39:0.0 40:0.0 41:0.0 42:0.0 43:0.0 44:0.0 
1.0 1.0 1:0.005829516575883504 2:3.6997199968207267E-6 3:0.9941667837041197 4:0.640211564286 5:0.556083349103 6:0.844293073598 7:0.732954806194618 8:0.05470768488372349 9:0.0 10:0.0 11:0.0 12:0.0 13:0.023982007629277557 14:0.9756747967241253 15:3.4319564659720614E-4 16:0.411628137477 17:0.531663155652 18:0.598801436633 19:0.3333333333333333 20:0.3333333333333333 21:0.3333333333333333 22:0.0 23:0.0 24:0.0 25:0.0 26:0.0 27:0.0 28:0.0 29:0.0 30:0.0 31:0.0 32:1.0 33:0.0 34:0.0 35:0.0 36:0.0 37:2.0 38:0.0 39:0.0 40:0.0 41:0.0 42:1.0 43:0.0 44:0.0 
1.0 1.0 1:0.010144591547191979 2:0.989137066059133 3:7.183423936748969E-4 4:0.560978417827 5:0.746532312127 6:0.63019404578 7:0.3333333333333333 8:0.3333333333333333 9:0.0 10:0.0 11:0.0 12:0.0 13:0.12658615510428922 14:0.6532116549369902 15:0.2202021899587206 16:0.41269052995 17:0.611136780231 18:0.63019404578 19:0.3333333333333333 20:0.3333333333333333 21:0.3333333333333333 22:0.0 23:0.0 24:0.0 25:0.0 26:0.0 27:0.0 28:0.0 29:0.0 30:0.0 31:0.0 32:0.0 33:0.0 34:0.0 35:0.0 36:0.0 37:0.0 38:0.0 39:0.0 40:0.0 41:0.0 42:0.0 43:0.0 44:0.0 
1.0 1.0 1:0.008087389773670297 2:0.0015216076523589229 3:0.9903910025739707 4:0.604548666566 5:0.929136346555 6:0.74019301529 7:0.05948879452524932 8:0.9102139578761245 9:0.0 10:0.0 11:0.0 12:0.0 13:0.46034878839097515 14:0.5377703648793909 15:0.0018808467296340297 16:0.482397407092 17:0.508865512749 18:0.665179581389 19:0.3333333333333333 20:0.3333333333333333 21:0.3333333333333333 22:0.0 23:0.0 24:0.0 25:0.0 26:0.0 27:0.0 28:0.0 29:0.0 30:0.0 31:2.0 32:0.0 33:0.0 34:0.0 35:0.0 36:0.0 37:1.0 38:0.0 39:0.0 40:0.0 41:0.0 42:0.0 43:0.0 44:0.0 
1.0 1.0 1:0.133876466786551 2:0.859957272921267 3:0.006166260292181951 4:0.689693708067 5:0.59032124889 6:0.744723481066 7:0.6815587914536205 8:0.13592953790533327 9:0.0 10:0.0 11:0.0 12:0.0 13:0.001921919583091408 14:0.984526710089253 15:0.013551370327655599 16:0.521270564503 17:0.59032124889 18:0.744723481066 19:0.3333333333333333 20:0.3333333333333333 21:0.3333333333333333 22:0.0 23:0.0 24:0.0 25:0.0 26:0.0 27:0.0 28:0.0 29:0.0 30:0.0 31:0.0 32:3.0 33:0.0 34:0.0 35:0.0 36:0.0 37:0.0 38:0.0 39:0.0 40:0.0 41:0.0 42:2.0 43:0.0 44:0.0 
0.0 1.0 1:0.979291913246684 2:2.543288252812061E-7 3:0.02070783242449085 4:0.650822948392 5:0.403532354249 6:0.735932117845 7:0.7968302707453168 8:0.0913300116848762 9:0.0 10:0.0 11:0.0 12:0.0 13:0.06981543761318171 14:0.14970406775634604 15:0.7804804946304723 16:0.411628137477 17:0.403532354249 18:0.735932117845 19:0.3333333333333333 20:0.3333333333333333 21:0.3333333333333333 22:0.0 23:0.0 24:0.0 25:0.0 26:0.0 27:0.0 28:0.0 29:0.0 30:0.0 31:0.0 32:0.0 33:0.0 34:0.0 35:0.0 36:0.0 37:1.0 38:0.0 39:0.0 40:0.0 41:0.0 42:0.0 43:0.0 44:0.0 
0.0 1.0 1:0.998325948350333 2:0.0016543775982334145 3:1.967405143355658E-5 4:0.743162592056 5:0.568037180118 6:0.661459887847 7:0.7976489590568301 8:0.038126770735458726 9:0.0 10:0.0 11:0.0 12:0.0 13:0.19727463698834874 14:0.7984424594714494 15:0.004282903540201879 16:0.399008260431 17:0.51519302917 18:0.363152257415 19:0.3333333333333333 20:0.3333333333333333 21:0.3333333333333333 22:0.0 23:0.0 24:0.0 25:0.0 26:0.0 27:0.0 28:0.0 29:0.0 30:0.0 31:0.0 32:1.0 33:0.0 34:0.0 35:0.0 36:0.0 37:0.0 38:0.0 39:0.0 40:0.0 41:0.0 42:0.0 43:0.0 44:0.0 
1.0 0.0 1:0.05569941299624413 2:0.9443005870037539 3:1.928229739297797E-15 4:0.872584862823 5:0.936508208382 6:0.500445500139 7:0.45685154216227547 8:0.53769180541223 9:0.0 10:0.0 11:0.0 12:0.0 13:0.05026076111118203 14:0.9497392143955664 15:2.4493251611647253E-8 16:0.728952388601 17:0.685429846134 18:0.500445500139 19:0.977049879053778 20:0.022731177634304572 21:2.1894331191734924E-4 22:0.896337057898 23:0.765741921953 24:0.0334731954099 25:0.0 26:0.0 27:0.0 28:0.0 29:0.0 30:0.0 31:2.0 32:0.0 33:0.0 34:0.0 35:0.0 36:0.0 37:0.0 38:0.0 39:0.0 40:0.0 41:0.0 42:0.0 43:0.0 44:0.0 
1.0 1.0 1:0.8814466557471791 2:6.75858678369677E-5 3:0.11848575838498412 4:0.605115989121 5:0.544731215388 6:0.673344573285 7:0.567492673944493 8:0.15917909228746077 9:0.0 10:0.0 11:0.0 12:0.0 13:0.7077034625596089 14:0.19831180408880672 15:0.0939847333515844 16:0.519579335248 17:0.544731215388 18:0.532999017767 19:0.3333333333333333 20:0.3333333333333333 21:0.3333333333333333 22:0.0 23:0.0 24:0.0 25:0.0 26:0.0 27:0.0 28:0.0 29:0.0 30:0.0 31:0.0 32:2.0 33:0.0 34:0.0 35:0.0 36:0.0 37:0.0 38:0.0 39:0.0 40:0.0 41:0.0 42:0.0 43:0.0 44:0.0 
1.0 1.0 1:0.34388896111236433 2:0.6561092379462812 3:1.8009413546505417E-6 4:0.874049302044 5:0.65356726918 6:0.505357659379 7:0.17055490717345426 8:0.6153195212385172 9:0.0 10:0.0 11:0.0 12:0.0 13:0.20917743765202257 14:0.7906208583504718 15:2.0170399750558648E-4 16:0.463334894019 17:0.534739513576 18:0.413365483192 19:0.3333333333333333 20:0.3333333333333333 21:0.3333333333333333 22:0.0 23:0.0 24:0.0 25:0.0 26:0.0 27:0.0 28:0.0 29:0.0 30:0.0 31:0.0 32:0.0 33:0.0 34:0.0 35:0.0 36:0.0 37:0.0 38:0.0 39:0.0 40:0.0 41:0.0 42:0.0 43:0.0 44:0.0 
1.0 1.0 1:0.18604872606837705 2:0.8139497073213124 3:1.566610310538571E-6 4:0.464802640811 5:0.531663155652 6:0.548688698745 7:0.46480264081146483 8:0.2656199324932656 9:0.0 10:0.0 11:0.0 12:0.0 13:0.11534213150180705 14:0.8846529842469765 15:4.884251216460353E-6 16:0.438309046749 17:0.531663155652 18:0.374189092856 19:0.6199181083968139 20:0.3183992137449045 21:0.061682677858281486 22:0.619918108397 23:0.318399213745 24:0.0616826778583 25:0.0 26:0.0 27:0.0 28:0.0 29:0.0 30:0.0 31:0.0 32:0.0 33:0.0 34:0.0 35:0.0 36:0.0 37:0.0 38:0.0 39:0.0 40:0.0 41:0.0 42:0.0 43:0.0 44:0.0 
0.493556727307231 0.0 1:0.32351339945885094 2:0.6571117404815657 3:0.01937486005958324 4:0.704070529837 5:0.611496946345 6:0.589859412845 7:0.293068130344 8:0.36500468708600003 9:0.0 10:0.0 11:0.0 12:0.0 13:0.10313045282962884 14:0.8946982053057553 15:0.00217134186461586 16:0.479221400939 17:0.559305498599 18:0.380836646906 19:0.886319003728422 20:0.09763086193191735 21:0.016050134339660686 22:0.69708528476 23:0.260458745101 24:0.107752991308 25:0.0 26:0.0 27:0.0 28:0.0 29:0.0 30:0.0 31:0.0 32:1.0 33:0.0 34:0.0 35:0.0 36:0.0 37:0.0 38:0.0 39:0.0 40:0.0 41:0.0 42:0.0 43:0.0 44:0.0 
0.0 1.0 1:0.9956296462424171 2:0.0013619410359980595 3:0.0030084127215848295 4:0.628575774535 5:0.547103877647 6:0.660962862848 7:0.8752652351187611 8:0.04110196259995802 9:0.0 10:0.0 11:0.0 12:0.0 13:0.4510273032072339 14:0.5365070544941344 15:0.012465642298631702 16:0.597563469902 17:0.431138493517 18:0.39071944324 19:0.3333333333333333 20:0.3333333333333333 21:0.3333333333333333 22:0.0 23:0.0 24:0.0 25:0.0 26:0.0 27:0.0 28:0.0 29:0.0 30:0.0 31:0.0 32:0.0 33:0.0 34:0.0 35:0.0 36:0.0 37:0.0 38:0.0 39:0.0 40:0.0 41:0.0 42:0.0 43:0.0 44:0.0 
1.0 1.0 1:0.4316628406352759 2:1.2858085498714926E-9 3:0.5683371580789155 4:0.615564171287 5:0.51519302917 6:0.870495045468 7:0.6286667023756911 8:0.04435228248966182 9:0.0 10:0.0 11:0.0 12:0.0 13:0.8783729322142584 14:0.12147861835937655 15:1.4844942636498457E-4 16:0.603387768261 17:0.51519302917 18:0.68953570522 19:0.3333333333333333 20:0.3333333333333333 21:0.3333333333333333 22:0.0 23:0.0 24:0.0 25:0.0 26:0.0 27:0.0 28:0.0 29:0.0 30:0.0 31:0.0 32:0.0 33:0.0 34:0.0 35:0.0 36:0.0 37:1.0 38:0.0 39:0.0 40:0.0 41:0.0 42:1.0 43:0.0 44:0.0 
1.0 0.0 1:0.9999412812945234 2:4.872785538866123E-6 3:5.384591993780142E-5 4:0.805342632431 5:0.74487445084 6:0.697919410374 7:0.984912008435677 8:0.0018469870684067985 9:0.0 10:0.0 11:0.0 12:0.0 13:0.10481438017969127 14:0.8948575138670656 15:3.28105953243246E-4 16:0.603387768261 17:0.51519302917 18:0.697919410374 19:0.3333333333333333 20:0.3333333333333333 21:0.3333333333333333 22:0.0 23:0.0 24:0.0 25:0.0 26:0.0 27:0.0 28:0.0 29:0.0 30:0.0 31:0.0 32:0.0 33:0.0 34:0.0 35:0.0 36:0.0 37:0.0 38:0.0 39:0.0 40:0.0 41:0.0 42:0.0 43:0.0 44:0.0 
0.0 1.0 1:0.9968010849079787 2:0.003198903872414382 3:1.1219606926746673E-8 4:0.689693708067 5:0.531663155652 6:0.635137449839 7:0.9657110742704288 8:2.4228783641104036E-5 9:0.0 10:0.0 11:0.0 12:0.0 13:0.019726830471403948 14:0.9802731690313528 15:4.972433404141246E-10 16:0.603387768261 17:0.531663155652 18:0.469678926891 19:0.3333333333333333 20:0.3333333333333333 21:0.3333333333333333 22:0.0 23:0.0 24:0.0 25:0.0 26:0.0 27:0.0 28:0.0 29:0.0 30:0.0 31:0.0 32:0.0 33:4.0 34:0.0 35:2.0 36:0.0 37:0.0 38:0.0 39:0.0 40:0.0 41:0.0 42:2.0 43:0.0 44:0.0 
1.0 1.0 1:0.9999575773808014 2:4.024687593718194E-5 3:2.1757432613266272E-6 4:0.684934013294 5:0.537877091049 6:0.713966766846 7:0.6659051120883132 8:0.09416029707964231 9:0.0 10:0.0 11:0.0 12:0.0 13:0.1197038404350039 14:0.8789608261588358 15:0.0013353334061603284 16:0.411628137477 17:0.537877091049 18:0.323396373683 19:0.3333333333333333 20:0.3333333333333333 21:0.3333333333333333 22:0.0 23:0.0 24:0.0 25:0.0 26:0.0 27:0.0 28:0.0 29:0.0 30:0.0 31:0.0 32:0.0 33:0.0 34:0.0 35:0.0 36:0.0 37:0.0 38:0.0 39:0.0 40:0.0 41:0.0 42:0.0 43:0.0 44:0.0 
1.0 1.0 1:0.2539839997623634 2:0.7447128683833556 3:0.0013031318542810256 4:0.603387768261 5:0.704830740818 6:0.681217416242 7:0.5309633208338178 8:0.18744539490540124 9:0.0 10:0.0 11:0.0 12:0.0 13:0.23292197396845493 14:0.7670560326521635 15:2.1993379381609814E-5 16:0.603387768261 17:0.550295492601 18:0.519373277217 19:0.3333333333333333 20:0.3333333333333333 21:0.3333333333333333 22:0.0 23:0.0 24:0.0 25:0.0 26:0.0 27:0.0 28:0.0 29:0.0 30:0.0 31:2.0 32:0.0 33:0.0 34:0.0 35:0.0 36:2.0 37:1.0 38:0.0 39:0.0 40:0.0 41:0.0 42:1.0 43:0.0 44:2.0 
1.0 1.0 1:0.9999994106279069 2:5.876013042169569E-7 3:1.7707887493150637E-9 4:0.689693708067 5:0.680251668082 6:0.794882024608 7:0.9999907715875598 8:3.183661063572366E-8 9:0.0 10:0.0 11:0.0 12:0.0 13:0.0016853120383779061 14:0.9983146582852731 15:2.9676349003144593E-8 16:0.597563469902 17:0.531663155652 18:0.553667314195 19:0.3333333333333333 20:0.3333333333333333 21:0.3333333333333333 22:0.0 23:0.0 24:0.0 25:0.0 26:0.0 27:0.0 28:0.0 29:0.0 30:0.0 31:0.0 32:0.0 33:0.0 34:0.0 35:0.0 36:0.0 37:0.0 38:0.0 39:0.0 40:0.0 41:0.0 42:0.0 43:0.0 44:0.0 
1.0 1.0 1:0.04628394242702553 2:0.9537160322416451 3:2.5331329397243566E-8 4:0.91730648783 5:0.672065764641 6:0.642784527818 7:0.9376113171580633 8:0.05590671230947849 9:0.0 10:0.0 11:0.0 12:0.0 13:0.025074137757088135 14:0.9749231530359705 15:2.709206941301845E-6 16:0.438840406599 17:0.534739513576 18:0.408567935823 19:0.3333333333333333 20:0.3333333333333333 21:0.3333333333333333 22:0.0 23:0.0 24:0.0 25:0.0 26:0.0 27:0.0 28:0.0 29:0.0 30:0.0 31:2.0 32:0.0 33:0.0 34:0.0 35:0.0 36:0.0 37:0.0 38:0.0 39:0.0 40:0.0 41:0.0 42:0.0 43:0.0 44:0.0 
1.0 1.0 1:0.0014105318478311894 2:0.998589468151275 3:8.937147073187922E-13 4:0.780759342646 5:0.872313465816 6:0.779143508983 7:0.253864205777 8:0.239103862487 9:0.0 10:0.0 11:0.0 12:0.0 13:0.011939022901639024 14:0.9880605803025586 15:3.9679580244357625E-7 16:0.619273230486 17:0.65509232138 18:0.434046736966 19:0.3333333333333333 20:0.3333333333333333 21:0.3333333333333333 22:0.0 23:0.0 24:0.0 25:0.0 26:0.0 27:0.0 28:0.0 29:0.0 30:0.0 31:2.0 32:0.0 33:0.0 34:0.0 35:0.0 36:0.0 37:0.0 38:0.0 39:0.0 40:0.0 41:0.0 42:0.0 43:0.0 44:0.0 
1.0 0.0 1:0.9646099168977547 2:0.03538628390303598 3:3.7991992093727775E-6 4:0.795935856362 5:0.57429236427 6:0.650585234834 7:0.8235656337598736 8:0.1753545565028445 9:0.0 10:0.0 11:0.0 12:0.0 13:0.0018376977742770796 14:0.9972998009653157 15:8.625012604071859E-4 16:0.411628137477 17:0.550295492601 18:0.650585234834 19:0.3333333333333333 20:0.3333333333333333 21:0.3333333333333333 22:0.0 23:0.0 24:0.0 25:0.0 26:0.0 27:0.0 28:0.0 29:0.0 30:0.0 31:7.0 32:2.0 33:0.0 34:0.0 35:0.0 36:0.0 37:0.0 38:0.0 39:0.0 40:0.0 41:0.0 42:1.0 43:0.0 44:0.0 
0.0 1.0 1:7.394576206437054E-5 2:1.149301538953411E-9 3:0.9999260530886341 4:0.873190215237 5:0.536513393024 6:0.840727496332 7:0.9760692186580692 8:0.00537713417656586 9:0.0 10:0.0 11:0.0 12:0.0 13:0.012691773309655879 14:0.007915426009831911 15:0.9793928006805122 16:0.411628137477 17:0.536513393024 18:0.697919410374 19:0.3333333333333333 20:0.3333333333333333 21:0.3333333333333333 22:0.0 23:0.0 24:0.0 25:0.0 26:0.0 27:0.0 28:0.0 29:0.0 30:0.0 31:0.0 32:0.0 33:5.0 34:0.0 35:0.0 36:0.0 37:0.0 38:0.0 39:0.0 40:0.0 41:0.0 42:0.0 43:0.0 44:0.0 
1.0 0.0 1:0.9970171694946169 2:0.002982810247024078 3:2.0258358984368302E-8 4:0.790184636115 5:0.808451908966 6:0.668106723605 7:0.8645994742726983 8:0.03651325919632397 9:0.0 10:0.0 11:0.0 12:0.0 13:0.0747513807824115 14:0.9252484460666474 15:1.7315094113718584E-7 16:0.729992445481 17:0.808451908966 18:0.376012518383 19:0.3333333333333333 20:0.3333333333333333 21:0.3333333333333333 22:0.0 23:0.0 24:0.0 25:0.0 26:0.0 27:0.0 28:0.0 29:0.0 30:0.0 31:3.0 32:0.0 33:0.0 34:0.0 35:0.0 36:0.0 37:0.0 38:0.0 39:0.0 40:0.0 41:0.0 42:0.0 43:0.0 44:0.0 
1.0 1.0 1:0.4584038842686802 2:3.1471706281075085E-9 3:0.5415961125841491 4:0.550507832549 5:0.616605579671 6:0.73152966283 7:0.4642358718182515 8:0.025300305493738018 9:0.0 10:0.0 11:0.0 12:0.0 13:0.23643629355252585 14:0.7562976256984596 15:0.0072660807490145425 16:0.424017903081 17:0.608336247228 18:0.73152966283 19:0.3333333333333333 20:0.3333333333333333 21:0.3333333333333333 22:0.0 23:0.0 24:0.0 25:0.0 26:0.0 27:0.0 28:0.0 29:0.0 30:0.0 31:0.0 32:0.0 33:2.0 34:0.0 35:0.0 36:0.0 37:0.0 38:0.0 39:0.0 40:0.0 41:0.0 42:0.0 43:0.0 44:0.0 
1.0 1.0 1:0.999737568338152 2:2.597678655337252E-4 3:2.6637963142786465E-6 4:0.603387768261 5:0.68804552247 6:0.730999083871 7:0.9402630067943815 8:0.021463717708131658 9:0.0 10:0.0 11:0.0 12:0.0 13:0.2495562092553953 14:0.7504411177683787 15:2.672976225945333E-6 16:0.603387768261 17:0.585323236404 18:0.443966307463 19:0.3333333333333333 20:0.3333333333333333 21:0.3333333333333333 22:0.0 23:0.0 24:0.0 25:0.0 26:0.0 27:0.0 28:0.0 29:0.0 30:0.0 31:0.0 32:0.0 33:0.0 34:0.0 35:0.0 36:0.0 37:0.0 38:0.0 39:0.0 40:0.0 41:0.0 42:0.0 43:0.0 44:0.0 
1.0 1.0 1:0.3083068140717424 2:1.0604562982834437E-7 3:0.6916930798826277 4:0.632370843397 5:0.608336247228 6:0.723223743343 7:0.30946182013513923 8:0.0016643022734375622 9:0.0 10:0.0 11:0.0 12:0.0 13:0.4803562730291632 14:0.5196156161898962 15:2.811078094064728E-5 16:0.603387768261 17:0.608336247228 18:0.421718657531 19:0.3333333333333333 20:0.3333333333333333 21:0.3333333333333333 22:0.0 23:0.0 24:0.0 25:0.0 26:0.0 27:0.0 28:0.0 29:0.0 30:0.0 31:1.0 32:0.0 33:1.0 34:0.0 35:0.0 36:0.0 37:0.0 38:0.0 39:0.0 40:0.0 41:0.0 42:0.0 43:0.0 44:0.0 
1.0 1.0 1:0.8244625519194927 2:0.17553403232440895 3:3.4157560982821252E-6 4:0.647866384177 5:0.613529828866 6:0.581807742196 7:0.18619987685800002 8:0.300280912732 9:0.0 10:0.0 11:0.0 12:0.0 13:0.6100174913607034 14:0.3899588217578815 15:2.368688141529349E-5 16:0.521998764708 17:0.520902710501 18:0.485832523315 19:0.3333333333333333 20:0.3333333333333333 21:0.3333333333333333 22:0.0 23:0.0 24:0.0 25:0.0 26:0.0 27:0.0 28:0.0 29:0.0 30:0.0 31:0.0 32:0.0 33:0.0 34:0.0 35:0.0 36:0.0 37:1.0 38:0.0 39:1.0 40:0.0 41:0.0 42:1.0 43:0.0 44:0.0 
1.0 1.0 1:0.023021962371279542 2:0.0024758768469212928 3:0.9745021607817992 4:0.509856514645 5:0.678311205299 6:0.736678826049 7:0.3333333333333333 8:0.3333333333333333 9:0.0 10:0.0 11:0.0 12:0.0 13:0.11886004605291113 14:0.3356177816211801 15:0.5455221723259088 16:0.438309046749 17:0.678311205299 18:0.736678826049 19:0.3333333333333333 20:0.3333333333333333 21:0.3333333333333333 22:0.0 23:0.0 24:0.0 25:0.0 26:0.0 27:0.0 28:0.0 29:0.0 30:0.0 31:0.0 32:0.0 33:0.0 34:0.0 35:0.0 36:0.0 37:0.0 38:0.0 39:0.0 40:0.0 41:0.0 42:0.0 43:0.0 44:0.0 
0.0 0.41975241159924354 1:1.2923538697117264E-7 2:2.58900342862207E-10 3:0.9999998705057126 4:0.524012932679 5:0.531430034602 6:0.791698779457 7:0.293068130344 8:0.365004687086 9:0.0 10:0.0 11:0.0 12:0.0 13:0.2560208651563338 14:0.3036579278549739 15:0.4403212069886922 16:0.424017903081 17:0.531430034602 18:0.681906192896 19:0.9999533039397152 20:4.6643549505090865E-5 21:5.251077969559152E-8 22:0.992265709804 23:0.667743063073 24:0.122617816084 25:0.0 26:0.0 27:0.0 28:0.0 29:0.0 30:0.0 31:0.0 32:0.0 33:0.0 34:0.0 35:0.0 36:0.0 37:0.0 38:0.0 39:0.0 40:0.0 41:0.0 42:0.0 43:0.0 44:0.0 
0.0 1.0 1:0.7337737202018135 2:0.152804142887645 3:0.11342213691054158 4:0.652850727594 5:0.300632680403 6:0.275349416516 7:0.3333333333333333 8:0.3333333333333333 9:0.0 10:0.0 11:0.0 12:0.0 13:0.42401790308099996 14:0.300632680403 15:0.275349416516 16:0.424017903081 17:0.300632680403 18:0.275349416516 19:0.3333333333333333 20:0.3333333333333333 21:0.3333333333333333 22:0.0 23:0.0 24:0.0 25:0.0 26:1.0 27:0.0 28:0.0 29:0.0 30:0.0 31:1.0 32:0.0 33:0.0 34:0.0 35:0.0 36:0.0 37:0.0 38:0.0 39:0.0 40:0.0 41:0.0 42:0.0 43:0.0 44:0.0 
1.0 1.0 1:0.003274422272730981 2:4.5615630206777344E-5 3:0.9966799620970623 4:0.7143194348 5:0.611496946345 6:0.775579630202 7:0.5335886629350084 8:0.012473751968449898 9:0.0 10:0.0 11:0.0 12:0.0 13:0.6209170228792126 14:0.37864974283260167 15:4.332342881857637E-4 16:0.603387768261 17:0.550295492601 18:0.539649648209 19:0.3333333333333333 20:0.3333333333333333 21:0.3333333333333333 22:0.0 23:0.0 24:0.0 25:0.0 26:0.0 27:0.0 28:0.0 29:0.0 30:0.0 31:1.0 32:0.0 33:1.0 34:0.0 35:0.0 36:0.0 37:0.0 38:0.0 39:0.0 40:0.0 41:0.0 42:1.0 43:0.0 44:0.0 
1.0 1.0 1:0.031941953908074104 2:0.2906775794085617 3:0.6773804666833642 4:0.79193877634 5:0.812351918466 6:0.71226217402 7:0.8737845040750714 8:0.01708644501699459 9:0.0 10:0.0 11:0.0 12:0.0 13:0.0036704278984278325 14:0.9938390006396428 15:0.002490571461929282 16:0.478101320911 17:0.702768754933 18:0.57138240934 19:0.3333333333333333 20:0.3333333333333333 21:0.3333333333333333 22:0.0 23:0.0 24:0.0 25:0.0 26:0.0 27:0.0 28:0.0 29:0.0 30:0.0 31:3.0 32:2.0 33:0.0 34:0.0 35:0.0 36:0.0 37:0.0 38:0.0 39:0.0 40:0.0 41:0.0 42:4.0 43:0.0 44:0.0 
1.0 1.0 1:0.9971811150570299 2:8.17373468647354E-5 3:0.0027371475961052477 4:0.651130764106 5:0.598757261795 6:0.644312881406 7:0.22883980189 8:0.163844186181 9:0.0 10:0.0 11:0.0 12:0.0 13:0.3277729065813397 14:0.46575151217720456 15:0.20647558124145587 16:0.452734703297 17:0.531663155652 18:0.603435570291 19:0.3333333333333333 20:0.3333333333333333 21:0.3333333333333333 22:0.0 23:0.0 24:0.0 25:0.0 26:0.0 27:0.0 28:0.0 29:0.0 30:0.0 31:1.0 32:0.0 33:0.0 34:0.0 35:0.0 36:0.0 37:0.0 38:0.0 39:0.0 40:0.0 41:0.0 42:0.0 43:0.0 44:0.0 
1.0 1.0 1:0.005576556596727636 2:2.8770697315166035E-7 3:0.9944231556962992 4:0.807711449875 5:0.65947372274 6:0.742522174052 7:0.9415461188161923 8:0.01820173810162836 9:0.0 10:0.0 11:0.0 12:0.0 13:0.3195571040474692 14:0.6723987682180068 15:0.008044127734524079 16:0.597563469902 17:0.556516293 18:0.650585234834 19:0.3333333333333333 20:0.3333333333333333 21:0.3333333333333333 22:0.0 23:0.0 24:0.0 25:0.0 26:0.0 27:0.0 28:0.0 29:0.0 30:0.0 31:0.0 32:0.0 33:0.0 34:0.0 35:0.0 36:0.0 37:0.0 38:0.0 39:0.0 40:0.0 41:0.0 42:0.0 43:0.0 44:0.0 
1.0 1.0 1:0.002104999722652678 2:0.9978947444079234 3:2.5586942388898914E-7 4:0.604548666566 5:0.716493435492 6:0.612241163775 7:0.480348341308 8:0.11298591858700001 9:0.0 10:0.0 11:0.0 12:0.0 13:0.0012829946430065406 14:0.9986975843330631 15:1.9421023930342333E-5 16:0.41269052995 17:0.689910917823 18:0.612241163775 19:0.3333333333333333 20:0.3333333333333333 21:0.3333333333333333 22:0.0 23:0.0 24:0.0 25:0.0 26:0.0 27:0.0 28:0.0 29:0.0 30:0.0 31:0.0 32:0.0 33:0.0 34:0.0 35:0.0 36:0.0 37:0.0 38:0.0 39:0.0 40:0.0 41:0.0 42:0.0 43:0.0 44:0.0 
1.0 1.0 1:6.177162819469311E-4 2:0.9993822720597443 3:1.16583088442455E-8 4:0.692409603491 5:0.723112504112 6:0.870860304031 7:0.3301144618393827 8:0.6374290583346772 9:0.0 10:0.0 11:0.0 12:0.0 13:6.011716764270454E-4 14:0.9993987735227169 15:5.480085621222068E-8 16:0.548140680039 17:0.723112504112 18:0.552168497402 19:0.3333333333333333 20:0.3333333333333333 21:0.3333333333333333 22:0.0 23:0.0 24:0.0 25:0.0 26:0.0 27:0.0 28:0.0 29:0.0 30:0.0 31:1.0 32:0.0 33:0.0 34:0.0 35:0.0 36:0.0 37:0.0 38:0.0 39:0.0 40:0.0 41:0.0 42:0.0 43:0.0 44:0.0 
1.0 1.0 1:0.325886457448816 2:5.676423513850887E-6 3:0.67410786612767 4:0.752153162766 5:0.531663155652 6:0.738620904274 7:0.9450031016095577 8:4.387829360901358E-6 9:0.0 10:0.0 11:0.0 12:0.0 13:7.972137436324757E-4 14:0.9989751017402083 15:2.2768451615924238E-4 16:0.487645324925 17:0.531663155652 18:0.727596748135 19:0.3333333333333333 20:0.3333333333333333 21:0.3333333333333333 22:0.0 23:0.0 24:0.0 25:0.0 26:0.0 27:0.0 28:0.0 29:0.0 30:0.0 31:1.0 32:0.0 33:0.0 34:0.0 35:4.0 36:0.0 37:0.0 38:0.0 39:0.0 40:0.0 41:0.0 42:0.0 43:0.0 44:0.0 
0.8955070753409553 1.0 1:0.9999946537194478 2:5.028798445966798E-6 3:3.174821061963863E-7 4:0.780834882107 5:0.719256605613 6:0.742413558154 7:0.8906049480382755 8:0.06282994087044123 9:0.0 10:0.0 11:0.0 12:0.0 13:0.003267193274578628 14:0.9967324753913326 15:3.313340887538973E-7 16:0.582581223898 17:0.719256605613 18:0.642266261227 19:0.3333333333333333 20:0.3333333333333333 21:0.3333333333333333 22:0.0 23:0.0 24:0.0 25:0.0 26:0.0 27:0.0 28:0.0 29:0.0 30:0.0 31:0.0 32:0.0 33:0.0 34:0.0 35:0.0 36:0.0 37:0.0 38:0.0 39:0.0 40:0.0 41:0.0 42:2.0 43:0.0 44:0.0 
1.0 1.0 1:0.857828362355355 2:0.1421715864712028 3:5.117344229911969E-8 4:0.872584862823 5:0.841099949725 6:0.740071266856 7:0.9962614387316973 8:0.002459198546492117 9:0.0 10:0.0 11:0.0 12:0.0 13:1.0847039051159331E-4 14:0.9998894697655422 15:2.0598439461011443E-6 16:0.555857447643 17:0.595804102947 18:0.661897931897 19:0.3333333333333333 20:0.3333333333333333 21:0.3333333333333333 22:0.0 23:0.0 24:0.0 25:0.0 26:0.0 27:0.0 28:0.0 29:0.0 30:0.0 31:0.0 32:0.0 33:0.0 34:0.0 35:1.0 36:0.0 37:0.0 38:0.0 39:0.0 40:0.0 41:0.0 42:0.0 43:0.0 44:0.0 
1.0 1.0 1:0.1263596822845935 2:0.8736314832195746 3:8.834495831933614E-6 4:0.595003902918 5:0.839279285022 6:0.631869703272 7:0.5910791689814026 8:0.3591631960964038 9:0.0 10:0.0 11:0.0 12:0.0 13:0.3524348639585316 14:0.6389618741223682 15:0.008603261919100148 16:0.548140680039 17:0.531663155652 18:0.603033231706 19:0.3333333333333333 20:0.3333333333333333 21:0.3333333333333333 22:0.0 23:0.0 24:0.0 25:0.0 26:0.0 27:0.0 28:0.0 29:0.0 30:0.0 31:0.0 32:0.0 33:0.0 34:0.0 35:0.0 36:0.0 37:0.0 38:0.0 39:0.0 40:0.0 41:0.0 42:0.0 43:0.0 44:0.0 
1.0 1.0 1:0.007003998677127769 2:3.2037707519055045E-6 3:0.9929927975521203 4:0.678171072007 5:0.808225471555 6:0.834944095104 7:0.3238089194247927 8:0.003231395555117611 9:0.0 10:0.0 11:0.0 12:0.0 13:0.7364211376861526 14:0.24525011682222594 15:0.01832874549162146 16:0.424017903081 17:0.51519302917 18:0.585608888532 19:0.3333333333333333 20:0.3333333333333333 21:0.3333333333333333 22:0.0 23:0.0 24:0.0 25:0.0 26:0.0 27:0.0 28:0.0 29:0.0 30:0.0 31:0.0 32:0.0 33:0.0 34:0.0 35:0.0 36:0.0 37:0.0 38:0.0 39:0.0 40:0.0 41:0.0 42:1.0 43:0.0 44:0.0 
1.0 1.0 1:0.9999889889815903 2:9.775205821347438E-6 3:1.235812588401656E-6 4:0.729992445481 5:0.797732287806 6:0.798558468945 7:0.6825671827040001 8:0.16179877037299997 9:0.0 10:0.0 11:0.0 12:0.0 13:0.9440093647374393 14:0.05591558697652156 15:7.504828603900286E-5 16:0.729992445481 17:0.520902710501 18:0.640681502298 19:0.3333333333333333 20:0.3333333333333333 21:0.3333333333333333 22:0.0 23:0.0 24:0.0 25:0.0 26:0.0 27:0.0 28:0.0 29:0.0 30:0.0 31:0.0 32:0.0 33:0.0 34:0.0 35:0.0 36:0.0 37:0.0 38:0.0 39:0.0 40:0.0 41:0.0 42:0.0 43:0.0 44:0.0 
0.0 1.0 1:0.8491742499010131 2:4.307255238332162E-6 3:0.15082144284374854 4:0.747855518602 5:0.467217124521 6:0.7039318245 7:0.3393723741881356 8:0.06803993116162721 9:0.0 10:0.0 11:0.0 12:0.0 13:0.4446529928865553 14:0.1649476402568351 15:0.3903993668566096 16:0.444652992887 17:0.164947640257 18:0.390399366857 19:0.3333333333333333 20:0.3333333333333333 21:0.3333333333333333 22:0.0 23:0.0 24:0.0 25:0.0 26:0.0 27:0.0 28:0.0 29:0.0 30:0.0 31:0.0 32:0.0 33:0.0 34:0.0 35:0.0 36:0.0 37:0.0 38:0.0 39:0.0 40:0.0 41:0.0 42:0.0 43:0.0 44:0.0 
1.0 1.0 1:3.293567518628704E-5 2:0.9999670274798259 3:3.6844987672916937E-8 4:0.729992445481 5:0.853414899573 6:0.744723481066 7:0.06267625451209137 8:0.8930905280749003 9:0.0 10:0.0 11:0.0 12:0.0 13:0.016703310585143207 14:0.9830822772069125 15:2.144122079441929E-4 16:0.729992445481 17:0.59032124889 18:0.744723481066 19:0.3333333333333333 20:0.3333333333333333 21:0.3333333333333333 22:0.0 23:0.0 24:0.0 25:0.0 26:0.0 27:0.0 28:0.0 29:0.0 30:0.0 31:1.0 32:2.0 33:0.0 34:0.0 35:0.0 36:0.0 37:0.0 38:0.0 39:0.0 40:0.0 41:0.0 42:0.0 43:0.0 44:0.0 
0.0 1.0 1:0.9999995388813044 2:6.807049413357948E-12 3:4.611118884522651E-7 4:0.689693708067 5:0.689693708067 6:0.668704296998 7:0.9022489620516101 8:0.03522669460940718 9:0.0 10:0.0 11:0.0 12:0.0 13:0.949759351063054 14:0.04978323935983028 15:4.574095771158212E-4 16:0.623120478806 17:0.51519302917 18:0.413365483192 19:0.3333333333333333 20:0.3333333333333333 21:0.3333333333333333 22:0.0 23:0.0 24:0.0 25:0.0 26:0.0 27:0.0 28:0.0 29:0.0 30:0.0 31:0.0 32:0.0 33:0.0 34:0.0 35:0.0 36:0.0 37:0.0 38:0.0 39:0.0 40:0.0 41:0.0 42:1.0 43:0.0 44:0.0 
1.0 0.0 1:0.9448766670757751 2:1.232917922626233E-4 3:0.055000041131962246 4:0.789413822102 5:0.769866161009 6:0.714684972173 7:0.33333333333333337 8:0.33333333333333337 9:0.0 10:0.0 11:0.0 12:0.0 13:0.08127914372645982 14:0.2992150169523402 15:0.6195058393212 16:0.568594764342 17:0.769866161009 18:0.714684972173 19:0.3333333333333333 20:0.3333333333333333 21:0.3333333333333333 22:0.0 23:0.0 24:0.0 25:0.0 26:0.0 27:0.0 28:0.0 29:0.0 30:0.0 31:2.0 32:0.0 33:0.0 34:0.0 35:0.0 36:0.0 37:0.0 38:0.0 39:0.0 40:0.0 41:0.0 42:1.0 43:0.0 44:0.0 
1.0 1.0 1:0.9688445302255307 2:2.693992676832568E-8 3:0.031155442834542534 4:0.72658215121 5:0.715191420303 6:0.74590990376 7:0.8249371255898331 8:6.958635064468529E-4 9:0.0 10:0.0 11:0.0 12:0.0 13:0.2834783375029234 14:0.6041622732116471 15:0.11235938928542956 16:0.411628137477 17:0.51519302917 18:0.704636445309 19:0.3333333333333333 20:0.3333333333333333 21:0.3333333333333333 22:0.0 23:0.0 24:0.0 25:0.0 26:0.0 27:0.0 28:0.0 29:0.0 30:0.0 31:0.0 32:0.0 33:0.0 34:0.0 35:0.0 36:0.0 37:0.0 38:0.0 39:0.0 40:0.0 41:0.0 42:0.0 43:0.0 44:0.0 
1.0 1.0 1:0.5558160427882377 2:2.9654856314484003E-5 3:0.44415430235544784 4:0.716214652689 5:0.526215043165 6:0.693899081196 7:0.9304165925117157 8:0.019656021893845375 9:0.0 10:0.0 11:0.0 12:0.0 13:0.1651654158934857 14:0.6627810951081314 15:0.17205348899838271 16:0.385761725578 17:0.520902710501 18:0.693899081196 19:0.3333333333333333 20:0.3333333333333333 21:0.3333333333333333 22:0.0 23:0.0 24:0.0 25:0.0 26:0.0 27:1.0 28:0.0 29:0.0 30:0.0 31:1.0 32:0.0 33:0.0 34:0.0 35:3.0 36:0.0 37:0.0 38:0.0 39:0.0 40:0.0 41:0.0 42:0.0 43:0.0 44:0.0 
1.0 0.0 1:0.8517406330786956 2:0.14812855539065564 3:1.3081153064887447E-4 4:0.692409603491 5:0.692072768104 6:0.392852895921 7:0.4443968356446924 8:0.2560472661374421 9:0.0 10:0.0 11:0.0 12:0.0 13:0.5616893178068776 14:0.39820870918888474 15:0.04010197300423748 16:0.424017903081 17:0.445716040481 18:0.357243269888 19:0.3333333333333333 20:0.3333333333333333 21:0.3333333333333333 22:0.0 23:0.0 24:0.0 25:0.0 26:0.0 27:0.0 28:0.0 29:0.0 30:0.0 31:13.0 32:3.0 33:0.0 34:0.0 35:0.0 36:0.0 37:0.0 38:0.0 39:0.0 40:0.0 41:0.0 42:0.0 43:0.0 44:0.0 
0.0 0.8761509123999012 1:1.6700084897426622E-7 2:8.435549285241785E-10 3:0.9999998321555962 4:0.729992445481 5:0.442936025919 6:0.901565438253 7:0.5833577204875344 8:0.0959480640212225 9:0.0 10:0.0 11:0.0 12:0.0 13:0.5689351292908038 14:0.008682496078845947 15:0.42238237463035017 16:0.729992445481 17:0.378920735745 18:0.901565438253 19:0.8295534844797512 20:0.09240369784567229 21:0.07804281767457659 22:0.82955348448 23:0.0924036978457 24:0.0780428176746 25:0.0 26:0.0 27:0.0 28:0.0 29:0.0 30:0.0 31:1.0 32:0.0 33:0.0 34:0.0 35:0.0 36:0.0 37:0.0 38:0.0 39:0.0 40:0.0 41:0.0 42:0.0 43:0.0 44:0.0 
0.0 1.0 1:0.9985238068577966 2:0.0011902858584889294 3:2.859072837144329E-4 4:0.73418395054 5:0.559305498599 6:0.59258769465 7:0.6079059418622266 8:0.04975477391721644 9:0.0 10:0.0 11:0.0 12:0.0 13:0.3896948047864937 14:0.6079996572998166 15:0.0023055379136896056 16:0.603387768261 17:0.559305498599 18:0.496093354828 19:0.3333333333333333 20:0.3333333333333333 21:0.3333333333333333 22:0.0 23:0.0 24:0.0 25:0.0 26:0.0 27:0.0 28:0.0 29:0.0 30:0.0 31:1.0 32:0.0 33:0.0 34:0.0 35:3.0 36:0.0 37:0.0 38:0.0 39:0.0 40:0.0 41:0.0 42:0.0 43:0.0 44:0.0 
1.0 1.0 1:0.29725731331372074 2:0.049846208165265804 3:0.6528964785210134 4:0.414562717758 5:0.412899439923 6:0.593803130541 7:0.3333333333333333 8:0.3333333333333333 9:0.0 10:0.0 11:0.0 12:0.0 13:0.2588938289971888 14:0.21837641343908049 15:0.5227297575637305 16:0.319892242694 17:0.412899439923 18:0.593803130541 19:0.3333333333333333 20:0.3333333333333333 21:0.3333333333333333 22:0.0 23:0.0 24:0.0 25:0.0 26:0.0 27:0.0 28:0.0 29:0.0 30:0.0 31:0.0 32:0.0 33:0.0 34:0.0 35:0.0 36:0.0 37:0.0 38:0.0 39:0.0 40:0.0 41:0.0 42:0.0 43:0.0 44:0.0 
0.0 0.5078055454008306 1:0.9719649185577187 2:0.011939969125438998 3:0.01609511231684226 4:0.648694783676 5:0.664158752274 6:0.553667314195 7:0.9239417062504833 8:0.021126856502721635 9:0.0 10:0.0 11:0.0 12:0.0 13:0.8420917905661434 14:0.15088765825646872 15:0.007020551177387817 16:0.619273230486 17:0.476782442094 18:0.553667314195 19:0.3333333333333333 20:0.3333333333333333 21:0.3333333333333333 22:0.0 23:0.0 24:0.0 25:0.0 26:0.0 27:0.0 28:0.0 29:0.0 30:0.0 31:0.0 32:0.0 33:0.0 34:0.0 35:0.0 36:0.0 37:0.0 38:0.0 39:0.0 40:0.0 41:0.0 42:0.0 43:0.0 44:0.0 
1.0 0.0 1:0.9999670032374868 2:3.2381425633470527E-5 3:6.153368797433557E-7 4:0.872584862823 5:0.685348325441 6:0.692903991345 7:0.36303332216063694 8:0.4249193896425752 9:0.0 10:0.0 11:0.0 12:0.0 13:0.01444417741526792 14:0.9855494180811473 15:6.404503584749858E-6 16:0.424017903081 17:0.608336247228 18:0.448737402153 19:0.3333333333333333 20:0.3333333333333333 21:0.3333333333333333 22:0.0 23:0.0 24:0.0 25:0.0 26:0.0 27:0.0 28:0.0 29:0.0 30:0.0 31:4.0 32:1.0 33:0.0 34:0.0 35:0.0 36:0.0 37:0.0 38:0.0 39:0.0 40:0.0 41:0.0 42:0.0 43:0.0 44:0.0 
1.0 1.0 1:9.08922448119418E-6 2:0.9999909107753194 3:1.9933596924995703E-13 4:0.70276986903 5:0.710779858212 6:0.649656203026 7:0.24219272448276163 8:0.31557460794385794 9:0.0 10:0.0 11:0.0 12:0.0 13:4.032024378145498E-5 14:0.9999596797521821 15:4.03646573339245E-12 16:0.41269052995 17:0.608336247228 18:0.380836646906 19:0.941163624132523 20:0.05732316063557887 21:0.0015132152318981674 22:0.661988754884 23:0.260458745101 24:0.0775525000145 25:0.0 26:0.0 27:0.0 28:0.0 29:0.0 30:0.0 31:1.0 32:0.0 33:0.0 34:0.0 35:0.0 36:0.0 37:0.0 38:0.0 39:0.0 40:0.0 41:0.0 42:0.0 43:0.0 44:0.0 
1.0 1.0 1:5.906654544716933E-23 2:8.689659180055966E-25 3:1.0 4:0.755683474994 5:0.709308663386 6:0.888017519798 7:0.8538777686315957 8:0.10260196457145983 9:0.0 10:0.0 11:0.0 12:0.0 13:4.645489735026124E-5 14:2.4729713270164703E-4 15:0.9997062479699481 16:0.424017903081 17:0.63279149336 18:0.745600797576 19:0.3333333333333333 20:0.3333333333333333 21:0.3333333333333333 22:0.0 23:0.0 24:0.0 25:0.0 26:0.0 27:0.0 28:0.0 29:0.0 30:0.0 31:0.0 32:1.0 33:1.0 34:3.0 35:0.0 36:0.0 37:0.0 38:0.0 39:0.0 40:0.0 41:0.0 42:1.0 43:0.0 44:0.0 
1.0 1.0 1:0.001068319608226987 2:0.13470424138201167 3:0.8642274390097614 4:0.689693708067 5:0.657735238038 6:0.719729853008 7:0.023098696183036907 8:0.6444252254924472 9:0.0 10:0.0 11:0.0 12:0.0 13:0.737644865508848 14:0.2620458772194872 15:3.092572716647417E-4 16:0.623120478806 17:0.571199005887 18:0.598801436633 19:0.3333333333333333 20:0.3333333333333333 21:0.3333333333333333 22:0.0 23:0.0 24:0.0 25:0.0 26:0.0 27:0.0 28:0.0 29:0.0 30:0.0 31:0.0 32:0.0 33:0.0 34:0.0 35:0.0 36:0.0 37:0.0 38:0.0 39:0.0 40:0.0 41:0.0 42:0.0 43:0.0 44:0.0 
1.0 1.0 1:0.37230266803362005 2:0.5771411311980793 3:0.050556200768300474 4:0.465319703518 5:0.736881248804 6:0.44128984941 7:0.3333333333333333 8:0.3333333333333333 9:0.0 10:0.0 11:0.0 12:0.0 13:0.41538985871637146 14:0.47596924472845764 15:0.10864089655517077 16:0.389630171755 17:0.445716040481 18:0.310246389412 19:0.9952932154900243 20:0.004294250142136583 21:4.125343678391106E-4 22:0.714808504856 23:0.18319928945 24:0.101992205694 25:0.0 26:0.0 27:0.0 28:0.0 29:0.0 30:0.0 31:0.0 32:0.0 33:0.0 34:0.0 35:0.0 36:0.0 37:0.0 38:0.0 39:0.0 40:0.0 41:0.0 42:0.0 43:0.0 44:0.0 
1.0 1.0 1:0.014303760584123668 2:1.0629950899500988E-7 3:0.9856961331163673 4:0.755683474994 5:0.513799842224 6:0.877830583379 7:0.840420178391481 8:0.10058584395413595 9:0.0 10:0.0 11:0.0 12:0.0 13:0.10731689808715503 14:0.07551287300985761 15:0.8171702289029873 16:0.424017903081 17:0.513799842224 18:0.835590228762 19:0.3333333333333333 20:0.3333333333333333 21:0.3333333333333333 22:0.0 23:0.0 24:0.0 25:0.0 26:0.0 27:0.0 28:0.0 29:0.0 30:0.0 31:1.0 32:0.0 33:0.0 34:0.0 35:0.0 36:0.0 37:0.0 38:0.0 39:0.0 40:0.0 41:0.0 42:0.0 43:0.0 44:0.0 
1.0 1.0 1:0.0015309509575184134 2:0.8882181171335887 3:0.11025093190889286 4:0.689693708067 5:0.719256605613 6:0.751541433951 7:0.55760790006985 8:0.06383358778501622 9:0.0 10:0.0 11:0.0 12:0.0 13:0.0025026550036874352 14:0.9974819153196883 15:1.542967662436314E-5 16:0.603387768261 17:0.719256605613 18:0.57138240934 19:0.3333333333333333 20:0.3333333333333333 21:0.3333333333333333 22:0.0 23:0.0 24:0.0 25:0.0 26:0.0 27:0.0 28:0.0 29:0.0 30:0.0 31:6.0 32:1.0 33:0.0 34:0.0 35:0.0 36:0.0 37:0.0 38:0.0 39:0.0 40:0.0 41:0.0 42:4.0 43:0.0 44:0.0 
0.23444189333875715 1.0 1:0.886634621972152 2:0.0012139360566074135 3:0.1121514419712406 4:0.737544024561 5:0.606762777098 6:0.756363027899 7:0.4889091828109586 8:0.46478269174029146 9:0.0 10:0.0 11:0.0 12:0.0 13:0.2804545013715224 14:0.18071289642701877 15:0.5388326022014589 16:0.41269052995 17:0.508865512749 18:0.650585234834 19:0.3333333333333333 20:0.3333333333333333 21:0.3333333333333333 22:0.0 23:0.0 24:0.0 25:0.0 26:0.0 27:0.0 28:0.0 29:0.0 30:0.0 31:0.0 32:1.0 33:5.0 34:0.0 35:0.0 36:0.0 37:0.0 38:0.0 39:0.0 40:0.0 41:0.0 42:0.0 43:0.0 44:0.0 
1.0 1.0 1:0.9992608898521348 2:7.351132642426124E-4 3:3.99688362245898E-6 4:0.611479879677 5:0.68429351471 6:0.80511302186 7:0.35421922320378046 8:0.6136347692345873 9:0.0 10:0.0 11:0.0 12:0.0 13:0.004919367851556326 14:0.9950804986817443 15:1.3346669942650783E-7 16:0.603387768261 17:0.68429351471 18:0.481994816343 19:0.3333333333333333 20:0.3333333333333333 21:0.3333333333333333 22:0.0 23:0.0 24:0.0 25:0.0 26:0.0 27:0.0 28:0.0 29:0.0 30:0.0 31:0.0 32:0.0 33:0.0 34:0.0 35:0.0 36:0.0 37:0.0 38:0.0 39:0.0 40:0.0 41:0.0 42:0.0 43:0.0 44:0.0 
1.0 1.0 1:6.365621900082841E-10 2:3.140483835203517E-7 3:0.9999996853150542 4:0.603387768261 5:0.601862959543 6:0.879006340986 7:0.4648026408114649 8:0.2656199324932656 9:0.0 10:0.0 11:0.0 12:0.0 13:0.0020912441895079834 14:0.04740857716848305 15:0.950500178642009 16:0.603387768261 17:0.550295492601 18:0.830890869427 19:0.3333333333333333 20:0.3333333333333333 21:0.3333333333333333 22:0.0 23:0.0 24:0.0 25:0.0 26:0.0 27:0.0 28:0.0 29:0.0 30:0.0 31:0.0 32:0.0 33:2.0 34:0.0 35:0.0 36:0.0 37:0.0 38:0.0 39:0.0 40:0.0 41:0.0 42:0.0 43:0.0 44:0.0 
1.0 1.0 1:0.2808893556635955 2:0.7191084359791071 3:2.208357297434604E-6 4:0.637613616834 5:0.743684461204 6:0.500134789973 7:0.7394191366446793 8:0.15838930708259344 9:0.0 10:0.0 11:0.0 12:0.0 13:0.3024559112448963 14:0.6965001613114719 15:0.0010439274436318446 16:0.424017903081 17:0.531663155652 18:0.500134789973 19:0.3333333333333333 20:0.3333333333333333 21:0.3333333333333333 22:0.0 23:0.0 24:0.0 25:0.0 26:0.0 27:0.0 28:0.0 29:0.0 30:0.0 31:0.0 32:0.0 33:0.0 34:0.0 35:0.0 36:0.0 37:0.0 38:0.0 39:0.0 40:0.0 41:0.0 42:0.0 43:0.0 44:0.0 
1.0 1.0 1:0.06743912531362646 2:0.9325608746652925 3:2.1081017910294117E-11 4:0.689693708067 5:0.710437579884 6:0.647912887299 7:0.9600221957401334 8:0.02963906245408962 9:0.0 10:0.0 11:0.0 12:0.0 13:9.633621299528595E-6 14:0.9999903662773914 15:1.013090546212362E-10 16:0.430217609087 17:0.65552931626 18:0.640406171696 19:0.3333333333333333 20:0.3333333333333333 21:0.3333333333333333 22:0.0 23:0.0 24:0.0 25:0.0 26:0.0 27:0.0 28:0.0 29:0.0 30:0.0 31:0.0 32:1.0 33:0.0 34:0.0 35:0.0 36:0.0 37:0.0 38:0.0 39:0.0 40:0.0 41:0.0 42:0.0 43:0.0 44:0.0 
1.0 1.0 1:1.3332966263805346E-9 2:1.5744414253636542E-15 3:0.9999999986667019 4:0.57686017979 5:0.533603259902 6:0.867521597047 7:0.07491223641367419 8:0.00891325816162714 9:0.0 10:0.0 11:0.0 12:0.0 13:0.4632671416302548 14:0.025859035351713314 15:0.5108738230180319 16:0.519579335248 17:0.51519302917 18:0.697919410374 19:0.3333333333333333 20:0.3333333333333333 21:0.3333333333333333 22:0.0 23:0.0 24:0.0 25:0.0 26:0.0 27:0.0 28:0.0 29:0.0 30:0.0 31:0.0 32:0.0 33:0.0 34:0.0 35:0.0 36:0.0 37:0.0 38:0.0 39:0.0 40:0.0 41:0.0 42:0.0 43:0.0 44:0.0 
1.0 1.0 1:1.0545186290544905E-8 2:7.215665401241647E-15 3:0.9999999894548065 4:0.603387768261 5:0.369702557004 6:0.798305506225 7:0.6166836647610646 8:0.08032049695201221 9:0.0 10:0.0 11:0.0 12:0.0 13:0.2737777361169862 14:0.06691024889308188 15:0.6593120149899319 16:0.603387768261 17:0.369702557004 18:0.693899081196 19:0.3333333333333333 20:0.3333333333333333 21:0.3333333333333333 22:0.0 23:0.0 24:0.0 25:0.0 26:0.0 27:0.0 28:0.0 29:0.0 30:0.0 31:3.0 32:0.0 33:0.0 34:0.0 35:0.0 36:0.0 37:0.0 38:0.0 39:0.0 40:0.0 41:0.0 42:0.0 43:0.0 44:0.0 
1.0 0.0 1:0.999998874271162 2:1.1237128842618328E-6 3:2.015953832912285E-9 4:0.817554821142 5:0.727988578649 6:0.708185239359 7:0.7840129965860265 8:0.12749634671702195 9:0.0 10:0.0 11:0.0 12:0.0 13:0.19667912366481846 14:0.8029503470789264 15:3.7052925625511996E-4 16:0.424017903081 17:0.682739186552 18:0.413365483192 19:0.3333333333333333 20:0.3333333333333333 21:0.3333333333333333 22:0.0 23:0.0 24:0.0 25:0.0 26:0.0 27:0.0 28:0.0 29:0.0 30:0.0 31:0.0 32:0.0 33:0.0 34:0.0 35:0.0 36:0.0 37:0.0 38:0.0 39:0.0 40:0.0 41:0.0 42:0.0 43:0.0 44:0.0 
1.0 1.0 1:0.49437137243492746 2:0.2202696789376428 3:0.2853589486274297 4:0.874049302044 5:0.550295492601 6:0.769510604921 7:0.13463526111 8:0.095854133969 9:0.0 10:0.0 11:0.0 12:0.0 13:0.2264602118037362 14:0.7400594236457423 15:0.03348036455052156 16:0.411628137477 17:0.550295492601 18:0.273184374238 19:0.3333333333333333 20:0.3333333333333333 21:0.3333333333333333 22:0.0 23:0.0 24:0.0 25:0.0 26:0.0 27:0.0 28:0.0 29:0.0 30:0.0 31:0.0 32:0.0 33:0.0 34:0.0 35:0.0 36:0.0 37:0.0 38:0.0 39:0.0 40:0.0 41:0.0 42:0.0 43:0.0 44:0.0 
1.0 1.0 1:1.984186842319521E-5 2:0.9999801576042268 3:5.273499780542229E-10 4:0.64189327515 5:0.682204386419 6:0.744723481066 7:0.25301282961594007 8:0.46376091361631 9:0.0 10:0.0 11:0.0 12:0.0 13:0.026903246237769313 14:0.9730961675512649 15:5.862109658050435E-7 16:0.521998764708 17:0.631551084504 18:0.744723481066 19:0.3333333333333333 20:0.3333333333333333 21:0.3333333333333333 22:0.0 23:0.0 24:0.0 25:0.0 26:0.0 27:0.0 28:0.0 29:0.0 30:0.0 31:0.0 32:0.0 33:0.0 34:0.0 35:0.0 36:0.0 37:0.0 38:0.0 39:0.0 40:0.0 41:0.0 42:0.0 43:0.0 44:0.0 
1.0 1.0 1:0.8743415298133841 2:3.674031241196209E-5 3:0.125621729874204 4:0.563540121174 5:0.604881466767 6:0.81817348658 7:0.12186327073940371 8:0.6022056171602945 9:0.0 10:0.0 11:0.0 12:0.0 13:0.002491733530513335 14:0.9975045711289703 15:3.6953405164291357E-6 16:0.424017903081 17:0.571199005887 18:0.81817348658 19:0.3333333333333333 20:0.3333333333333333 21:0.3333333333333333 22:0.0 23:0.0 24:0.0 25:0.0 26:0.0 27:0.0 28:0.0 29:0.0 30:0.0 31:1.0 32:0.0 33:0.0 34:0.0 35:0.0 36:0.0 37:0.0 38:0.0 39:0.0 40:0.0 41:0.0 42:0.0 43:0.0 44:0.0 
1.0 0.0 1:0.8626810849512914 2:0.1373121971302957 3:6.71791841301627E-6 4:0.803182998713 5:0.796300046749 6:0.692933321937 7:0.871613597400226 8:0.08946422901332152 9:0.0 10:0.0 11:0.0 12:0.0 13:0.4124302054150549 14:0.5875332641772575 15:3.653040768768529E-5 16:0.632249214701 17:0.796300046749 18:0.495402997101 19:0.3333333333333333 20:0.3333333333333333 21:0.3333333333333333 22:0.0 23:0.0 24:0.0 25:0.0 26:0.0 27:0.0 28:0.0 29:0.0 30:0.0 31:0.0 32:1.0 33:0.0 34:0.0 35:0.0 36:0.0 37:0.0 38:0.0 39:0.0 40:0.0 41:0.0 42:0.0 43:0.0 44:0.0 
1.0 1.0 1:0.4965323470287577 2:0.503463535789544 3:4.117181698444484E-6 4:0.603387768261 5:0.71137774996 6:0.634586811648 7:0.2832263283125495 8:0.6615320019178251 9:0.0 10:0.0 11:0.0 12:0.0 13:0.16558205789476366 14:0.8326988216840989 15:0.0017191204211374615 16:0.603387768261 17:0.660254659265 18:0.338709934467 19:0.3333333333333333 20:0.3333333333333333 21:0.3333333333333333 22:0.0 23:0.0 24:0.0 25:0.0 26:0.0 27:0.0 28:0.0 29:0.0 30:0.0 31:0.0 32:0.0 33:0.0 34:0.0 35:0.0 36:2.0 37:0.0 38:0.0 39:0.0 40:0.0 41:0.0 42:0.0 43:0.0 44:2.0 
1.0 1.0 1:0.942540660864773 2:0.053475273594832805 3:0.003984065540394237 4:0.615564171287 5:0.598366518582 6:0.710188078786 7:0.6867875170658446 8:0.09581273584154905 9:0.0 10:0.0 11:0.0 12:0.0 13:0.6144893367658943 14:0.3839733636158249 15:0.0015372996182806667 16:0.457591004111 17:0.51519302917 18:0.413365483192 19:0.3333333333333333 20:0.3333333333333333 21:0.3333333333333333 22:0.0 23:0.0 24:0.0 25:0.0 26:0.0 27:0.0 28:0.0 29:0.0 30:0.0 31:1.0 32:0.0 33:0.0 34:0.0 35:0.0 36:0.0 37:0.0 38:0.0 39:0.0 40:0.0 41:0.0 42:0.0 43:0.0 44:0.0 
0.0 1.0 1:1.1079934685235258E-7 2:1.1263831038492003E-19 3:0.9999998892006532 4:0.876975553199 5:0.383826338619 6:0.838078465539 7:0.8714360022136555 8:0.048765767816394474 9:0.0 10:0.0 11:0.0 12:0.0 13:0.034962870317147114 14:5.199642438249924E-4 15:0.9645171654390279 16:0.411628137477 17:0.383826338619 18:0.499095870179 19:0.3333333333333333 20:0.3333333333333333 21:0.3333333333333333 22:0.0 23:0.0 24:0.0 25:0.0 26:0.0 27:0.0 28:0.0 29:0.0 30:0.0 31:5.0 32:0.0 33:0.0 34:0.0 35:0.0 36:0.0 37:0.0 38:0.0 39:0.0 40:0.0 41:0.0 42:0.0 43:0.0 44:0.0 
1.0 1.0 1:0.9789104201928693 2:2.9989973238329736E-4 3:0.020789680074747366 4:0.597563469902 5:0.550295492601 6:0.685545020015 7:0.019266292498189553 8:0.020323950726626988 9:0.0 10:0.0 11:0.0 12:0.0 13:0.5705574972400455 14:0.4289774470342733 15:4.6505572568137016E-4 16:0.597563469902 17:0.550295492601 18:0.413365483192 19:0.3333333333333333 20:0.3333333333333333 21:0.3333333333333333 22:0.0 23:0.0 24:0.0 25:0.0 26:0.0 27:0.0 28:0.0 29:0.0 30:0.0 31:0.0 32:0.0 33:0.0 34:0.0 35:1.0 36:0.0 37:0.0 38:0.0 39:0.0 40:0.0 41:0.0 42:0.0 43:0.0 44:0.0 
0.0 1.0 1:0.8126155917196177 2:4.796885267382166E-8 3:0.18738436031152952 4:0.77008975542 5:0.521551176392 6:0.906546623486 7:0.8937318158221115 8:0.0019286204084969743 9:0.0 10:0.0 11:0.0 12:0.0 13:0.05454987085483332 14:0.9384517943800817 15:0.006998334765084953 16:0.411628137477 17:0.521551176392 18:0.650585234834 19:0.3333333333333333 20:0.3333333333333333 21:0.3333333333333333 22:0.0 23:0.0 24:0.0 25:0.0 26:0.0 27:0.0 28:0.0 29:0.0 30:0.0 31:2.0 32:0.0 33:0.0 34:0.0 35:0.0 36:0.0 37:0.0 38:0.0 39:0.0 40:0.0 41:0.0 42:0.0 43:0.0 44:0.0 
1.0 1.0 1:1.0829368395327583E-8 2:3.5980965355067E-13 3:0.9999999891702719 4:0.861780888433 5:0.715191420303 6:0.925799519879 7:0.3114012287147581 8:0.0016452685130744656 9:0.0 10:0.0 11:0.0 12:0.0 13:0.05303944734307228 14:0.9462037589450859 15:7.567937118418453E-4 16:0.411628137477 17:0.556516293 18:0.553667314195 19:0.3333333333333333 20:0.3333333333333333 21:0.3333333333333333 22:0.0 23:0.0 24:0.0 25:0.0 26:0.0 27:0.0 28:0.0 29:0.0 30:0.0 31:0.0 32:0.0 33:0.0 34:0.0 35:0.0 36:0.0 37:0.0 38:0.0 39:0.0 40:0.0 41:0.0 42:0.0 43:0.0 44:0.0 
0.0 1.0 1:0.0022683451415141027 2:2.2991944482143233E-7 3:0.9977314249390411 4:0.844764812591 5:0.430065558219 6:0.756363027899 7:0.8167753072290599 8:0.1282753967567868 9:0.0 10:0.0 11:0.0 12:0.0 13:0.07220919509275207 14:0.05961009379702135 15:0.8681807111102265 16:0.279841794308 17:0.430065558219 18:0.697919410374 19:0.3333333333333333 20:0.3333333333333333 21:0.3333333333333333 22:0.0 23:0.0 24:0.0 25:0.0 26:0.0 27:0.0 28:0.0 29:0.0 30:0.0 31:2.0 32:0.0 33:0.0 34:0.0 35:0.0 36:0.0 37:0.0 38:0.0 39:0.0 40:0.0 41:0.0 42:0.0 43:0.0 44:0.0 
1.0 1.0 1:0.06178283116632269 2:0.9382171688283701 3:5.307278236754328E-12 4:0.663883078206 5:0.685348325441 6:0.749149430965 7:0.1732931143698686 8:0.8010575622528117 9:0.0 10:0.0 11:0.0 12:0.0 13:0.009074308292107116 14:0.9909256423450026 15:4.9362890335505755E-8 16:0.555857447643 17:0.631551084504 18:0.284702404049 19:0.661988754884331 20:0.2604587451011302 21:0.07755250001453877 22:0.661988754884 23:0.260458745101 24:0.0775525000145 25:0.0 26:0.0 27:0.0 28:0.0 29:0.0 30:0.0 31:1.0 32:3.0 33:0.0 34:0.0 35:0.0 36:0.0 37:0.0 38:0.0 39:0.0 40:0.0 41:0.0 42:0.0 43:0.0 44:0.0 
1.0 1.0 1:0.9909683534210602 2:0.009030428468647371 3:1.2181102923327208E-6 4:0.769461885264 5:0.680096478383 6:0.823046083798 7:0.8841827607019725 8:0.1071275588904521 9:0.0 10:0.0 11:0.0 12:0.0 13:0.029533574866770634 14:0.970452167001584 15:1.4258131645250237E-5 16:0.536718704295 17:0.554316345203 18:0.578032250519 19:0.3333333333333333 20:0.3333333333333333 21:0.3333333333333333 22:0.0 23:0.0 24:0.0 25:0.0 26:0.0 27:0.0 28:0.0 29:0.0 30:0.0 31:0.0 32:0.0 33:0.0 34:0.0 35:0.0 36:0.0 37:0.0 38:0.0 39:0.0 40:0.0 41:0.0 42:1.0 43:0.0 44:0.0 
1.0 1.0 1:2.1223741446781157E-4 2:1.9999209017007174E-7 3:0.999787562593442 4:0.795935856362 5:0.653313011815 6:0.758342813276 7:0.987409111764889 8:0.004919226129099137 9:0.0 10:0.0 11:0.0 12:0.0 13:0.009386362026541641 14:0.13008926982760066 15:0.8605243681458576 16:0.468948595078 17:0.597804785989 18:0.752291920268 19:0.3333333333333333 20:0.3333333333333333 21:0.3333333333333333 22:0.0 23:0.0 24:0.0 25:0.0 26:0.0 27:0.0 28:0.0 29:0.0 30:0.0 31:0.0 32:0.0 33:1.0 34:0.0 35:0.0 36:0.0 37:0.0 38:0.0 39:0.0 40:0.0 41:0.0 42:0.0 43:0.0 44:0.0 
0.0 1.0 1:0.7957861410779583 2:6.24203553763681E-7 3:0.204213234718488 4:0.665038390991 5:0.550295492601 6:0.777448977454 7:0.3333333333333333 8:0.3333333333333333 9:0.0 10:0.0 11:0.0 12:0.0 13:0.8388936439505396 14:0.15722540742868468 15:0.00388094862077578 16:0.619273230486 17:0.550295492601 18:0.665486461997 19:0.3333333333333333 20:0.3333333333333333 21:0.3333333333333333 22:0.0 23:0.0 24:0.0 25:0.0 26:0.0 27:0.0 28:0.0 29:0.0 30:0.0 31:1.0 32:0.0 33:5.0 34:0.0 35:0.0 36:0.0 37:0.0 38:0.0 39:0.0 40:0.0 41:0.0 42:0.0 43:0.0 44:0.0 
1.0 0.0 1:0.8538359179603099 2:0.14616287878813136 3:1.203251558813405E-6 4:0.807711449875 5:0.731504138204 6:0.626194382325 7:0.9506149938122151 8:0.027325577074342015 9:0.0 10:0.0 11:0.0 12:0.0 13:0.018714701951938504 14:0.9726926978156945 15:0.00859260023236706 16:0.673857318349 17:0.59032124889 18:0.532383528203 19:0.3333333333333333 20:0.3333333333333333 21:0.3333333333333333 22:0.0 23:0.0 24:0.0 25:0.0 26:0.0 27:0.0 28:0.0 29:0.0 30:0.0 31:0.0 32:0.0 33:0.0 34:0.0 35:0.0 36:0.0 37:0.0 38:0.0 39:0.0 40:0.0 41:0.0 42:0.0 43:0.0 44:0.0 
1.0 1.0 1:0.6681197437191577 2:0.01308799160418216 3:0.3187922646766602 4:0.720103429118 5:0.619869568938 6:0.81817348658 7:0.38971832924600003 8:0.18612677626900004 9:0.0 10:0.0 11:0.0 12:0.0 13:0.04131119359834451 14:0.9454806752828565 15:0.013208131118798988 16:0.411628137477 17:0.520902710501 18:0.81817348658 19:0.3333333333333333 20:0.3333333333333333 21:0.3333333333333333 22:0.0 23:0.0 24:0.0 25:0.0 26:0.0 27:0.0 28:0.0 29:0.0 30:0.0 31:0.0 32:0.0 33:0.0 34:0.0 35:0.0 36:0.0 37:0.0 38:0.0 39:0.0 40:0.0 41:0.0 42:0.0 43:0.0 44:0.0 
1.0 1.0 1:3.033440030719533E-6 2:3.700884640590367E-15 3:0.9999969665599655 4:0.581761921002 5:0.439909044354 6:0.872185105065 7:0.6606351643023958 8:0.004764758929366545 9:0.0 10:0.0 11:0.0 12:0.0 13:0.6409141257304942 14:0.055550187570633326 15:0.3035356866988725 16:0.424017903081 17:0.439909044354 18:0.650585234834 19:0.3333333333333333 20:0.3333333333333333 21:0.3333333333333333 22:0.0 23:0.0 24:0.0 25:0.0 26:0.0 27:0.0 28:0.0 29:0.0 30:0.0 31:0.0 32:0.0 33:4.0 34:0.0 35:0.0 36:0.0 37:0.0 38:0.0 39:0.0 40:0.0 41:0.0 42:1.0 43:0.0 44:0.0 
0.0 1.0 1:0.2157932730006476 2:2.457830662437498E-4 3:0.7839609439331087 4:0.91730648783 5:0.378920735745 6:0.741782815493 7:0.9173064878298166 8:0.05138995895008972 9:0.0 10:0.0 11:0.0 12:0.0 13:0.6301957762810312 14:0.3097425024873981 15:0.06006172123157059 16:0.614045615247 17:0.378920735745 18:0.552120146579 19:0.3333333333333333 20:0.3333333333333333 21:0.3333333333333333 22:0.0 23:0.0 24:0.0 25:0.0 26:0.0 27:0.0 28:0.0 29:0.0 30:0.0 31:0.0 32:0.0 33:0.0 34:0.0 35:0.0 36:0.0 37:2.0 38:0.0 39:0.0 40:0.0 41:0.0 42:0.0 43:0.0 44:0.0 
0.0 1.0 1:0.792487191261952 2:0.06056159611818648 3:0.1469512126198616 4:0.876975553199 5:0.438489451608 6:0.583926565207 7:0.3333333333333333 8:0.3333333333333333 9:0.0 10:0.0 11:0.0 12:0.0 13:0.3333333333333333 14:0.3333333333333333 15:0.3333333333333333 16:0.0 17:0.0 18:0.0 19:0.3333333333333333 20:0.3333333333333333 21:0.3333333333333333 22:0.0 23:0.0 24:0.0 25:0.0 26:0.0 27:0.0 28:0.0 29:0.0 30:0.0 31:0.0 32:0.0 33:0.0 34:0.0 35:0.0 36:0.0 37:0.0 38:0.0 39:0.0 40:0.0 41:0.0 42:0.0 43:0.0 44:0.0 
1.0 1.0 1:2.1189648446841517E-4 2:2.395500470372438E-13 3:0.9997881035152921 4:0.755683474994 5:0.608336247228 6:0.836414166177 7:0.8733111770803882 8:0.11891823852071651 9:0.0 10:0.0 11:0.0 12:0.0 13:0.011122383722127474 14:1.891270398025377E-5 15:0.9888587035738923 16:0.729992445481 17:0.608336247228 18:0.836414166177 19:0.3333333333333333 20:0.3333333333333333 21:0.3333333333333333 22:0.0 23:0.0 24:0.0 25:0.0 26:0.0 27:0.0 28:0.0 29:0.0 30:0.0 31:0.0 32:0.0 33:0.0 34:0.0 35:0.0 36:0.0 37:0.0 38:0.0 39:0.0 40:0.0 41:0.0 42:1.0 43:0.0 44:0.0 
1.0 1.0 1:5.043864911606865E-5 2:1.6043636647029605E-5 3:0.9999335177142369 4:0.73418395054 5:0.526215043165 6:0.701718715045 7:0.21523791054569877 8:0.22619392815290687 9:0.0 10:0.0 11:0.0 12:0.0 13:0.0026838031522925672 14:0.001089583354881844 15:0.9962266134928256 16:0.555857447643 17:0.520902710501 18:0.593803130541 19:0.3333333333333333 20:0.3333333333333333 21:0.3333333333333333 22:0.0 23:0.0 24:0.0 25:0.0 26:0.0 27:0.0 28:0.0 29:0.0 30:0.0 31:1.0 32:0.0 33:0.0 34:0.0 35:3.0 36:0.0 37:0.0 38:0.0 39:0.0 40:0.0 41:0.0 42:0.0 43:0.0 44:0.0 
1.0 1.0 1:0.057919110651379814 2:0.9420808701119097 3:1.923671069606339E-8 4:0.784220004417 5:0.71137774996 6:0.663528661502 7:0.6870833046598712 8:0.038581373885638925 9:0.0 10:0.0 11:0.0 12:0.0 13:4.584073615184611E-6 14:0.9999954157816551 15:1.447296495757127E-10 16:0.499161653342 17:0.638360321089 18:0.562808491169 19:0.5980204632369999 20:0.18092825780199998 21:0.22105127896099996 22:0.598020463237 23:0.180928257802 24:0.221051278961 25:0.0 26:0.0 27:0.0 28:0.0 29:0.0 30:0.0 31:0.0 32:0.0 33:0.0 34:0.0 35:0.0 36:0.0 37:0.0 38:0.0 39:0.0 40:0.0 41:0.0 42:1.0 43:0.0 44:0.0 
1.0 1.0 1:0.19716881127658054 2:0.7213684687722266 3:0.08146271995119297 4:0.466322772972 5:0.715191420303 6:0.4306925777 7:0.3333333333333333 8:0.3333333333333333 9:0.0 10:0.0 11:0.0 12:0.0 13:0.2719897168684691 14:0.3484073377037232 15:0.37960294542780776 16:0.411628137477 17:0.371068134553 18:0.4306925777 19:0.6199181083968139 20:0.3183992137449045 21:0.061682677858281486 22:0.619918108397 23:0.318399213745 24:0.0616826778583 25:0.0 26:0.0 27:0.0 28:0.0 29:0.0 30:0.0 31:0.0 32:0.0 33:0.0 34:0.0 35:0.0 36:0.0 37:0.0 38:0.0 39:0.0 40:0.0 41:0.0 42:0.0 43:0.0 44:0.0 
0.3566824050050947 0.0 1:0.8770161671672438 2:0.02091635481322411 3:0.10206747801953199 4:0.611016489677 5:0.51519302917 6:0.604502012736 7:0.3333333333333333 8:0.3333333333333333 9:0.0 10:0.0 11:0.0 12:0.0 13:0.3538051349627908 14:0.579131447733839 15:0.06706341730337016 16:0.396239103315 17:0.51519302917 18:0.175987194671 19:0.11517158338283469 20:2.3462144768188196E-7 21:0.8848281819957177 22:0.822452242897 23:0.0946544335586 24:0.799587950519 25:0.0 26:0.0 27:0.0 28:0.0 29:0.0 30:0.0 31:9.0 32:0.0 33:0.0 34:0.0 35:0.0 36:0.0 37:0.0 38:0.0 39:0.0 40:0.0 41:0.0 42:0.0 43:0.0 44:0.0 
1.0 1.0 1:0.952398015586976 2:0.011698483677451401 3:0.03590350073557256 4:0.647234681127 5:0.695698204265 6:0.772138713863 7:0.1796406564662325 8:0.8023292164404746 9:0.0 10:0.0 11:0.0 12:0.0 13:0.32873980490410926 14:0.6499568953924971 15:0.021303299703393622 16:0.568594764342 17:0.608336247228 18:0.671639821625 19:0.3333333333333333 20:0.3333333333333333 21:0.3333333333333333 22:0.0 23:0.0 24:0.0 25:0.0 26:0.0 27:0.0 28:0.0 29:0.0 30:0.0 31:0.0 32:0.0 33:2.0 34:0.0 35:0.0 36:0.0 37:2.0 38:0.0 39:0.0 40:0.0 41:0.0 42:0.0 43:0.0 44:0.0 
1.0 1.0 1:0.9991369232197472 2:3.2720502957292265E-6 3:8.598047299570821E-4 4:0.661092213259 5:0.608336247228 6:0.718150656747 7:0.8450686895245163 8:0.002175303951364068 9:0.0 10:0.0 11:0.0 12:0.0 13:0.005066897110641321 14:0.9947055221833015 15:2.2758070605736005E-4 16:0.411628137477 17:0.608336247228 18:0.616881255992 19:0.3333333333333333 20:0.3333333333333333 21:0.3333333333333333 22:0.0 23:0.0 24:0.0 25:0.0 26:0.0 27:0.0 28:0.0 29:0.0 30:0.0 31:0.0 32:0.0 33:0.0 34:0.0 35:0.0 36:0.0 37:0.0 38:0.0 39:0.0 40:0.0 41:0.0 42:0.0 43:0.0 44:0.0 
1.0 1.0 1:0.05418827419810476 2:0.9458117244687952 3:1.3331000623322981E-9 4:0.872584862823 5:0.808451908966 6:0.510482785281 7:0.3526957472513528 8:0.5257834099135257 9:0.0 10:0.0 11:0.0 12:0.0 13:7.858102748296676E-4 14:0.9992141889972728 15:7.27897557610975E-10 16:0.548140680039 17:0.808451908966 18:0.312979394997 19:0.3333333333333333 20:0.3333333333333333 21:0.3333333333333333 22:0.0 23:0.0 24:0.0 25:0.0 26:0.0 27:0.0 28:0.0 29:0.0 30:0.0 31:0.0 32:0.0 33:0.0 34:0.0 35:0.0 36:0.0 37:0.0 38:0.0 39:0.0 40:0.0 41:0.0 42:0.0 43:0.0 44:0.0 
1.0 0.0 1:0.040205185063791275 2:0.953130954879686 3:0.00666386005652266 4:0.464802640811 5:0.777151094966 6:0.656198207413 7:0.46480264081146483 8:0.2656199324932656 9:0.0 10:0.0 11:0.0 12:0.0 13:0.24280707088192754 14:0.7359890655003826 15:0.021203863617689916 16:0.444652992887 17:0.608336247228 18:0.503740914758 19:0.0011744895451392707 20:0.9986676059377263 21:1.5790451713442832E-4 22:0.212587371442 23:0.99452641516 24:0.0728579486705 25:0.0 26:0.0 27:0.0 28:0.0 29:0.0 30:0.0 31:2.0 32:0.0 33:0.0 34:0.0 35:0.0 36:0.0 37:0.0 38:0.0 39:0.0 40:0.0 41:0.0 42:0.0 43:0.0 44:0.0 
1.0 0.0 1:0.0011668500592214076 2:0.9988276175392338 3:5.532401544906489E-6 4:0.694012719359 5:0.737202392074 6:0.736678826049 7:0.33333333333333337 8:0.33333333333333337 9:0.0 10:0.0 11:0.0 12:0.0 13:0.03657787221984378 14:0.9585218808548897 15:0.0049002469252666225 16:0.694012719359 17:0.737202392074 18:0.736678826049 19:0.07541741751845732 20:0.9180388564026694 21:0.006543726078873267 22:0.661988754884 23:0.946735597451 24:0.0775525000145 25:0.0 26:0.0 27:1.0 28:0.0 29:0.0 30:0.0 31:0.0 32:0.0 33:0.0 34:0.0 35:0.0 36:0.0 37:0.0 38:0.0 39:0.0 40:0.0 41:0.0 42:0.0 43:0.0 44:0.0 
0.0 1.0 1:0.9988466518707892 2:1.5150680516082358E-4 3:0.0010018413240499087 4:0.729992445481 5:0.560184437834 6:0.553020311302 7:0.3333333333333333 8:0.3333333333333333 9:0.0 10:0.0 11:0.0 12:0.0 13:0.9250432799550137 14:0.026697054227764437 15:0.04825966581722192 16:0.729992445481 17:0.378920735745 18:0.553020311302 19:0.3333333333333333 20:0.3333333333333333 21:0.3333333333333333 22:0.0 23:0.0 24:0.0 25:0.0 26:0.0 27:0.0 28:0.0 29:0.0 30:0.0 31:0.0 32:0.0 33:0.0 34:0.0 35:0.0 36:0.0 37:0.0 38:0.0 39:0.0 40:0.0 41:0.0 42:0.0 43:0.0 44:0.0 
1.0 1.0 1:0.0019388430098823206 2:0.9902652518928567 3:0.007795905097260932 4:0.790826453492 5:0.733516414354 6:0.644312881406 7:0.22546938434776986 8:0.5747652959517615 9:0.0 10:0.0 11:0.0 12:0.0 13:0.021123225578982274 14:0.6848772661992107 15:0.29399950822180704 16:0.432410213027 17:0.56827368519 18:0.592928512368 19:0.3333333333333333 20:0.3333333333333333 21:0.3333333333333333 22:0.0 23:0.0 24:0.0 25:0.0 26:0.0 27:0.0 28:0.0 29:0.0 30:0.0 31:0.0 32:0.0 33:0.0 34:0.0 35:0.0 36:0.0 37:0.0 38:0.0 39:0.0 40:0.0 41:0.0 42:0.0 43:0.0 44:0.0 
1.0 1.0 1:0.9998004614825838 2:1.9953812766952475E-4 3:3.8974666859035977E-10 4:0.635852332059 5:0.680251668082 6:0.588716758623 7:0.6515352576776628 8:0.006359895494281213 9:0.0 10:0.0 11:0.0 12:0.0 13:0.011278382953818476 14:0.988721599218534 15:1.7827647582698015E-8 16:0.411628137477 17:0.608336247228 18:0.588716758623 19:0.3333333333333333 20:0.3333333333333333 21:0.3333333333333333 22:0.0 23:0.0 24:0.0 25:0.0 26:0.0 27:0.0 28:0.0 29:0.0 30:0.0 31:0.0 32:0.0 33:0.0 34:0.0 35:0.0 36:0.0 37:0.0 38:0.0 39:0.0 40:0.0 41:0.0 42:0.0 43:0.0 44:0.0 
1.0 1.0 1:0.09730059575886817 2:0.9026930092564741 3:6.3949846577168765E-6 4:0.834793113623 5:0.59704568635 6:0.74491421545 7:0.7946295284103733 8:0.12861280707096917 9:0.0 10:0.0 11:0.0 12:0.0 13:0.0026131327971738523 14:0.9973484397238028 15:3.8427479023227676E-5 16:0.499161653342 17:0.59032124889 18:0.305854965351 19:0.3333333333333333 20:0.3333333333333333 21:0.3333333333333333 22:0.0 23:0.0 24:0.0 25:0.0 26:0.0 27:0.0 28:0.0 29:0.0 30:0.0 31:0.0 32:1.0 33:0.0 34:0.0 35:0.0 36:0.0 37:1.0 38:0.0 39:0.0 40:0.0 41:0.0 42:0.0 43:0.0 44:0.0 
0.0 1.0 1:0.003941837751928591 2:2.3140004172765593E-5 3:0.9960350222438986 4:0.810235269299 5:0.536513393024 6:0.904247681957 7:0.33333333333333337 8:0.33333333333333337 9:0.0 10:0.0 11:0.0 12:0.0 13:0.1019483662106122 14:0.0775253268235666 15:0.8205263069658212 16:0.440079878096 17:0.536513393024 18:0.630066360081 19:0.8627985917615686 20:0.06483891100636757 21:0.07236249723206381 22:0.862798591762 23:0.0648389110064 24:0.0723624972321 25:0.0 26:0.0 27:0.0 28:0.0 29:0.0 30:0.0 31:0.0 32:0.0 33:0.0 34:0.0 35:0.0 36:0.0 37:1.0 38:0.0 39:0.0 40:0.0 41:0.0 42:0.0 43:0.0 44:0.0 
1.0 1.0 1:0.9999746548844973 2:1.164216040806761E-5 3:1.370295509449256E-5 4:0.784220004417 5:0.71137774996 6:0.720826062248 7:0.47518757830479735 8:5.499168808333672E-4 9:0.0 10:0.0 11:0.0 12:0.0 13:0.14078444932756887 14:0.8591323874105553 15:8.316326187571987E-5 16:0.521998764708 17:0.521551176392 18:0.380836646906 19:0.3333333333333333 20:0.3333333333333333 21:0.3333333333333333 22:0.0 23:0.0 24:0.0 25:0.0 26:0.0 27:0.0 28:0.0 29:0.0 30:0.0 31:1.0 32:0.0 33:0.0 34:0.0 35:0.0 36:0.0 37:0.0 38:0.0 39:0.0 40:0.0 41:0.0 42:0.0 43:0.0 44:0.0 
1.0 1.0 1:0.04779713685811106 2:3.7204602805155333E-7 3:0.9522024910958609 4:0.580768785823 5:0.531663155652 6:0.81817348658 7:0.3333333333333333 8:0.3333333333333333 9:0.0 10:0.0 11:0.0 12:0.0 13:0.03537173137328797 14:0.0029632574707433275 15:0.9616650111559687 16:0.494211202602 17:0.531663155652 18:0.81817348658 19:0.3333333333333333 20:0.3333333333333333 21:0.3333333333333333 22:0.0 23:0.0 24:0.0 25:0.0 26:0.0 27:0.0 28:0.0 29:0.0 30:0.0 31:0.0 32:0.0 33:0.0 34:0.0 35:0.0 36:0.0 37:2.0 38:0.0 39:0.0 40:0.0 41:0.0 42:0.0 43:0.0 44:0.0 
0.8247101321331265 1.0 1:0.9999999773625087 2:2.2636654910389736E-8 3:8.364524780787547E-13 4:0.953317146591 5:0.812351918466 6:0.499837664408 7:0.3333333333333333 8:0.3333333333333333 9:0.0 10:0.0 11:0.0 12:0.0 13:0.9815933169008926 14:0.018404384928373915 15:2.298170733553851E-6 16:0.953317146591 17:0.589580325034 18:0.499837664408 19:0.3333333333333333 20:0.3333333333333333 21:0.3333333333333333 22:0.0 23:0.0 24:0.0 25:0.0 26:0.0 27:0.0 28:0.0 29:0.0 30:0.0 31:0.0 32:0.0 33:0.0 34:0.0 35:8.0 36:0.0 37:0.0 38:0.0 39:0.0 40:0.0 41:0.0 42:1.0 43:0.0 44:0.0 
1.0 1.0 1:1.7074064538669825E-4 2:0.005594591496445867 3:0.9942346678581674 4:0.555857447643 5:0.71137774996 6:0.867579943843 7:0.3333333333333333 8:0.3333333333333333 9:0.0 10:0.0 11:0.0 12:0.0 13:0.13110730190188982 14:0.8191366329588019 15:0.04975606513930823 16:0.555857447643 17:0.608336247228 18:0.606225556742 19:0.9963340920024703 20:1.4951729390083976E-6 21:0.003664412824590841 22:0.666717627906 23:0.0713383418832 24:0.26194403021 25:0.0 26:0.0 27:0.0 28:0.0 29:0.0 30:0.0 31:0.0 32:1.0 33:0.0 34:0.0 35:0.0 36:0.0 37:0.0 38:0.0 39:0.0 40:0.0 41:0.0 42:1.0 43:0.0 44:0.0 
1.0 1.0 1:0.002204806036622369 2:3.613069165279948E-5 3:0.9977590632717248 4:0.746783743253 5:0.54277291825 6:0.797859970127 7:0.7128225660535978 8:0.022370751240892515 9:0.0 10:0.0 11:0.0 12:0.0 13:0.29349100812267814 14:0.6471476889934893 15:0.05936130288383262 16:0.426029938029 17:0.47313901386 18:0.539649648209 19:0.3333333333333333 20:0.3333333333333333 21:0.3333333333333333 22:0.0 23:0.0 24:0.0 25:0.0 26:0.0 27:0.0 28:0.0 29:0.0 30:0.0 31:2.0 32:0.0 33:0.0 34:0.0 35:0.0 36:0.0 37:0.0 38:0.0 39:0.0 40:0.0 41:0.0 42:0.0 43:0.0 44:0.0 
1.0 1.0 1:1.5207203092812247E-6 2:1.1548488699844723E-13 3:0.9999984792795753 4:0.752240908821 5:0.810600184771 6:0.756781844913 7:0.34626466902406833 8:0.026730151724923476 9:0.0 10:0.0 11:0.0 12:0.0 13:4.647385338696242E-4 14:0.0036132674811353497 15:0.995921993984995 16:0.429585750739 17:0.793667354042 18:0.741502466006 19:0.3333333333333333 20:0.3333333333333333 21:0.3333333333333333 22:0.0 23:0.0 24:0.0 25:0.0 26:0.0 27:0.0 28:0.0 29:0.0 30:0.0 31:2.0 32:0.0 33:1.0 34:0.0 35:0.0 36:0.0 37:0.0 38:0.0 39:0.0 40:0.0 41:0.0 42:0.0 43:0.0 44:0.0 
1.0 1.0 1:0.9999739101278822 2:6.624688702598038E-6 3:1.9465183415143663E-5 4:0.684934013294 5:0.591932676376 6:0.713053904022 7:0.5417421893890001 8:0.28306521902700005 9:0.0 10:0.0 11:0.0 12:0.0 13:0.29420961390047623 14:0.6847917177865932 15:0.020998668312930478 16:0.440079878096 17:0.531663155652 18:0.380836646906 19:0.3333333333333333 20:0.3333333333333333 21:0.3333333333333333 22:0.0 23:0.0 24:0.0 25:0.0 26:0.0 27:0.0 28:0.0 29:0.0 30:0.0 31:0.0 32:0.0 33:0.0 34:0.0 35:0.0 36:0.0 37:0.0 38:0.0 39:0.0 40:0.0 41:0.0 42:0.0 43:0.0 44:0.0 
1.0 1.0 1:0.3945353754671674 2:0.6054219656275246 3:4.2658905308085696E-5 4:0.879917844998 5:0.709308663386 6:0.547808116688 7:0.8799178449980881 8:0.055605378759205557 9:0.0 10:0.0 11:0.0 12:0.0 13:0.2374769060274984 14:0.7595490147449994 15:0.0029740792275022745 16:0.632109677449 17:0.638360321089 18:0.547808116688 19:0.3333333333333333 20:0.3333333333333333 21:0.3333333333333333 22:0.0 23:0.0 24:0.0 25:0.0 26:0.0 27:0.0 28:0.0 29:0.0 30:0.0 31:0.0 32:0.0 33:0.0 34:0.0 35:0.0 36:0.0 37:0.0 38:0.0 39:0.0 40:0.0 41:0.0 42:0.0 43:0.0 44:0.0 
0.0 1.0 1:6.093362557030318E-11 2:7.106257485887656E-15 3:0.9999999999390593 4:0.805342632431 5:0.435809508169 6:0.807855854982 7:0.9577956795717205 8:0.00792512002387172 9:0.0 10:0.0 11:0.0 12:0.0 13:0.0021037849126482274 14:4.723242381804022E-4 15:0.9974238908491714 16:0.411628137477 17:0.435809508169 18:0.807855854982 19:0.3333333333333333 20:0.3333333333333333 21:0.3333333333333333 22:0.0 23:0.0 24:0.0 25:0.0 26:0.0 27:0.0 28:0.0 29:0.0 30:0.0 31:1.0 32:0.0 33:0.0 34:0.0 35:0.0 36:0.0 37:0.0 38:0.0 39:0.0 40:0.0 41:0.0 42:0.0 43:0.0 44:0.0 
1.0 0.0 1:9.781133636243923E-6 2:0.9999902188663534 3:1.0158493905282613E-14 4:0.790184636115 5:0.774043391759 6:0.549229171507 7:0.7472287201909448 8:0.2493044864568162 9:0.0 10:0.0 11:0.0 12:0.0 13:9.373390022122813E-4 14:0.9990626184672774 15:4.253051037572518E-8 16:0.534148143359 17:0.707976922695 18:0.549229171507 19:0.661988754884331 20:0.2604587451011302 21:0.07755250001453877 22:0.661988754884 23:0.260458745101 24:0.0775525000145 25:0.0 26:0.0 27:0.0 28:0.0 29:0.0 30:0.0 31:4.0 32:1.0 33:0.0 34:0.0 35:0.0 36:0.0 37:0.0 38:0.0 39:0.0 40:0.0 41:0.0 42:0.0 43:0.0 44:0.0 
1.0 0.0 1:0.6244041505072373 2:0.3586607644884619 3:0.01693508500430072 4:0.603387768261 5:0.591258955254 6:0.640467380679 7:0.47378835922100004 8:0.312107271301 9:0.0 10:0.0 11:0.0 12:0.0 13:0.5385226127637606 14:0.3603147419389071 15:0.10116264529733225 16:0.603387768261 17:0.520902710501 18:0.640467380679 19:0.4156121574635655 20:0.4088852838178765 21:0.17550255871855797 22:0.396067417715 23:0.714554679887 24:0.488005648762 25:0.0 26:0.0 27:0.0 28:0.0 29:0.0 30:0.0 31:3.0 32:3.0 33:0.0 34:0.0 35:0.0 36:0.0 37:0.0 38:0.0 39:0.0 40:0.0 41:0.0 42:0.0 43:0.0 44:0.0 
1.0 1.0 1:0.732842987553709 2:0.2671570020425625 3:1.0403728601609349E-8 4:0.603387768261 5:0.65269213612 6:0.371429091777 7:0.3333333333333333 8:0.3333333333333333 9:0.0 10:0.0 11:0.0 12:0.0 13:0.43353127954292003 14:0.5664247290220723 15:4.399143500771474E-5 16:0.603387768261 17:0.531663155652 18:0.371429091777 19:0.3333333333333333 20:0.3333333333333333 21:0.3333333333333333 22:0.0 23:0.0 24:0.0 25:0.0 26:0.0 27:0.0 28:0.0 29:0.0 30:0.0 31:0.0 32:0.0 33:0.0 34:0.0 35:0.0 36:0.0 37:0.0 38:0.0 39:0.0 40:0.0 41:0.0 42:0.0 43:0.0 44:0.0 
1.0 1.0 1:0.4011343790465887 2:0.0010296706819140158 3:0.5978359502714973 4:0.779796998113 5:0.716493435492 6:0.698217586819 7:0.3673141773750555 8:0.2396618272563507 9:0.0 10:0.0 11:0.0 12:0.0 13:0.7767464104978317 14:0.07049161105493806 15:0.15276197844723036 16:0.733726880443 17:0.608336247228 18:0.670284508798 19:0.3333333333333333 20:0.3333333333333333 21:0.3333333333333333 22:0.0 23:0.0 24:0.0 25:0.0 26:0.0 27:0.0 28:0.0 29:0.0 30:0.0 31:1.0 32:0.0 33:0.0 34:0.0 35:0.0 36:0.0 37:0.0 38:0.0 39:0.0 40:0.0 41:0.0 42:0.0 43:0.0 44:0.0 
1.0 0.0 1:0.7530157319782241 2:0.24455492828511477 3:0.0024293397366610438 4:0.805342632431 5:0.71137774996 6:0.67867932792 7:0.9017463022928079 8:0.04168547535275121 9:0.0 10:0.0 11:0.0 12:0.0 13:0.2146470245137656 14:0.7853188880414688 15:3.408744476563374E-5 16:0.557708349174 17:0.51519302917 18:0.519610060839 19:0.3333333333333333 20:0.3333333333333333 21:0.3333333333333333 22:0.0 23:0.0 24:0.0 25:0.0 26:0.0 27:0.0 28:0.0 29:0.0 30:0.0 31:3.0 32:0.0 33:0.0 34:0.0 35:0.0 36:0.0 37:0.0 38:0.0 39:0.0 40:0.0 41:0.0 42:0.0 43:0.0 44:0.0 
0.0 1.0 1:0.16466421059935646 2:0.04210230666166532 3:0.7932334827389782 4:0.603387768261 5:0.580804656599 6:0.80360253954 7:0.396106686299 8:0.509272300093 9:0.0 10:0.0 11:0.0 12:0.0 13:0.03693807758869265 14:0.8786377953922014 15:0.08442412701910577 16:0.603387768261 17:0.577950501464 18:0.80360253954 19:0.9841714497900313 20:0.015812883993358437 21:1.5666216610169148E-5 22:0.661988754884 23:0.318399213745 24:0.0775525000145 25:0.0 26:0.0 27:0.0 28:0.0 29:0.0 30:0.0 31:0.0 32:0.0 33:0.0 34:0.0 35:0.0 36:0.0 37:0.0 38:0.0 39:0.0 40:0.0 41:0.0 42:0.0 43:0.0 44:0.0 
1.0 1.0 1:0.05792256387147587 2:0.00825652436492884 3:0.9338209117635954 4:0.557632406508 5:0.608336247228 6:0.687261810499 7:0.4564070222198586 8:0.00486424218268687 9:0.0 10:0.0 11:0.0 12:0.0 13:0.02355829917078147 14:0.9764012099924911 15:4.049083672741587E-5 16:0.411628137477 17:0.608336247228 18:0.59715189543 19:0.3333333333333333 20:0.3333333333333333 21:0.3333333333333333 22:0.0 23:0.0 24:0.0 25:0.0 26:0.0 27:0.0 28:0.0 29:0.0 30:0.0 31:0.0 32:0.0 33:0.0 34:0.0 35:0.0 36:0.0 37:0.0 38:0.0 39:0.0 40:0.0 41:0.0 42:0.0 43:0.0 44:0.0 
0.0 1.0 1:0.9944025264876035 2:0.0014614892993388441 3:0.004135984213057623 4:0.597563469902 5:0.531663155652 6:0.613565042787 7:0.38554787577 8:0.460459276751 9:0.0 10:0.0 11:0.0 12:0.0 13:0.9217183172805727 14:0.05003396437841439 15:0.028247718341012903 16:0.597563469902 17:0.531663155652 18:0.525952631911 19:0.3333333333333333 20:0.3333333333333333 21:0.3333333333333333 22:0.0 23:0.0 24:0.0 25:0.0 26:0.0 27:0.0 28:0.0 29:0.0 30:0.0 31:0.0 32:0.0 33:0.0 34:0.0 35:0.0 36:0.0 37:0.0 38:0.0 39:0.0 40:0.0 41:0.0 42:0.0 43:0.0 44:0.0 
0.0 1.0 1:0.9685595150449393 2:4.991523250849962E-4 3:0.030941332629975577 4:0.857222699258 5:0.476668319864 6:0.620040779329 7:0.3897183292459999 8:0.18612677626899998 9:0.0 10:0.0 11:0.0 12:0.0 13:0.08777740049427138 14:0.842833357021325 15:0.06938924248440367 16:0.411628137477 17:0.476668319864 18:0.471433585348 19:0.3333333333333333 20:0.3333333333333333 21:0.3333333333333333 22:0.0 23:0.0 24:0.0 25:0.0 26:0.0 27:0.0 28:0.0 29:0.0 30:0.0 31:0.0 32:0.0 33:0.0 34:0.0 35:0.0 36:0.0 37:0.0 38:0.0 39:0.0 40:0.0 41:0.0 42:0.0 43:0.0 44:0.0 
1.0 1.0 1:0.6500283744302036 2:2.1236702446774682E-5 3:0.3499503888673496 4:0.797732287806 5:0.550295492601 6:0.74121520734 7:0.4275496292754276 8:0.135010357605135 9:0.0 10:0.0 11:0.0 12:0.0 13:0.40927642440627304 14:0.5171593085793941 15:0.07356426701433286 16:0.424017903081 17:0.550295492601 18:0.338709934467 19:0.3333333333333333 20:0.3333333333333333 21:0.3333333333333333 22:0.0 23:0.0 24:0.0 25:0.0 26:0.0 27:0.0 28:0.0 29:0.0 30:0.0 31:1.0 32:0.0 33:0.0 34:0.0 35:0.0 36:0.0 37:0.0 38:0.0 39:0.0 40:0.0 41:0.0 42:0.0 43:0.0 44:0.0 
1.0 1.0 1:0.05730384876013889 2:0.0034490979747137545 3:0.9392470532651475 4:0.694012719359 5:0.51519302917 6:0.822186416608 7:0.5306020084231409 8:0.06482130629937863 9:0.0 10:0.0 11:0.0 12:0.0 13:0.4909194724019819 14:0.2801738418452124 15:0.2289066857528059 16:0.694012719359 17:0.51519302917 18:0.608205553735 19:0.3333333333333333 20:0.3333333333333333 21:0.3333333333333333 22:0.0 23:0.0 24:0.0 25:0.0 26:0.0 27:0.0 28:0.0 29:0.0 30:0.0 31:1.0 32:0.0 33:0.0 34:0.0 35:0.0 36:0.0 37:0.0 38:0.0 39:0.0 40:0.0 41:0.0 42:1.0 43:1.0 44:0.0 
0.0 1.0 1:1.3080940886023945E-32 2:2.9074806970342745E-39 3:1.0 4:0.93665253102 5:0.521551176392 6:0.977675917203 7:0.8819256980475053 8:0.09519941761795545 9:0.0 10:0.0 11:0.0 12:0.0 13:2.939705408963348E-14 14:1.7928202004621635E-13 15:0.9999999999997914 16:0.539487680912 17:0.521551176392 18:0.942119141521 19:0.3333333333333333 20:0.3333333333333333 21:0.3333333333333333 22:0.0 23:0.0 24:0.0 25:0.0 26:0.0 27:1.0 28:0.0 29:0.0 30:0.0 31:0.0 32:0.0 33:0.0 34:0.0 35:0.0 36:0.0 37:0.0 38:0.0 39:0.0 40:0.0 41:0.0 42:2.0 43:1.0 44:0.0 
1.0 0.0 1:0.9366826186218672 2:0.025582004194017415 3:0.03773537718411539 4:0.518444752726 5:0.692370448467 6:0.652342775134 7:0.39159611142000006 8:0.202686484551 9:0.0 10:0.0 11:0.0 12:0.0 13:0.38295932019094847 14:0.5968950230269117 15:0.020145656782139868 16:0.517254953566 17:0.692370448467 18:0.652342775134 19:0.3333333333333333 20:0.3333333333333333 21:0.3333333333333333 22:0.0 23:0.0 24:0.0 25:0.0 26:0.0 27:0.0 28:0.0 29:0.0 30:0.0 31:4.0 32:0.0 33:0.0 34:0.0 35:0.0 36:0.0 37:0.0 38:0.0 39:0.0 40:0.0 41:0.0 42:0.0 43:0.0 44:0.0 
1.0 1.0 1:0.7277943032574045 2:0.25192885145496524 3:0.020276845287630234 4:0.577631142764 5:0.59704568635 6:0.782903226371 7:0.577631142764 8:0.183160190095 9:0.0 10:0.0 11:0.0 12:0.0 13:0.19591335108362512 14:0.7953037405043184 15:0.00878290841205643 16:0.428612320456 17:0.508816041006 18:0.472922912125 19:0.3333333333333333 20:0.3333333333333333 21:0.3333333333333333 22:0.0 23:0.0 24:0.0 25:0.0 26:0.0 27:0.0 28:0.0 29:0.0 30:0.0 31:3.0 32:0.0 33:0.0 34:0.0 35:0.0 36:0.0 37:0.0 38:0.0 39:0.0 40:0.0 41:0.0 42:1.0 43:0.0 44:0.0 
1.0 1.0 1:0.7417499074478859 2:0.2582500708371442 3:2.171496991308394E-8 4:0.755683474994 5:0.550295492601 6:0.472141134615 7:0.7556834749941511 8:0.17586013194503522 9:0.0 10:0.0 11:0.0 12:0.0 13:0.09130954221542341 14:0.9083065061137872 15:3.8395167078940985E-4 16:0.438309046749 17:0.550295492601 18:0.431173298017 19:0.3333333333333333 20:0.3333333333333333 21:0.3333333333333333 22:0.0 23:0.0 24:0.0 25:0.0 26:0.0 27:0.0 28:0.0 29:0.0 30:0.0 31:0.0 32:0.0 33:0.0 34:0.0 35:0.0 36:0.0 37:0.0 38:0.0 39:0.0 40:0.0 41:0.0 42:1.0 43:0.0 44:0.0 
1.0 1.0 1:0.0010475391251244645 2:9.034649183389636E-9 3:0.9989524518402264 4:0.689693708067 5:0.508816041006 6:0.772529958983 7:0.9898455297634834 8:8.204523278679365E-4 9:0.0 10:0.0 11:0.0 12:0.0 13:0.24026347123063635 14:0.6069082058474908 15:0.15282832292187287 16:0.411628137477 17:0.508816041006 18:0.697919410374 19:0.3333333333333333 20:0.3333333333333333 21:0.3333333333333333 22:0.0 23:0.0 24:0.0 25:0.0 26:0.0 27:0.0 28:0.0 29:0.0 30:0.0 31:0.0 32:0.0 33:0.0 34:0.0 35:0.0 36:0.0 37:0.0 38:0.0 39:0.0 40:0.0 41:0.0 42:0.0 43:0.0 44:0.0 
1.0 0.0 1:0.9466870140126991 2:1.2743314581909649E-11 3:0.05331298597455756 4:0.717841157142 5:0.549253547552 6:0.741418436308 7:0.691839406900266 8:0.0013601277165083113 9:0.0 10:0.0 11:0.0 12:0.0 13:0.17951637923641672 14:0.7389497247410052 15:0.08153389602257803 16:0.468473377908 17:0.51519302917 18:0.57138240934 19:0.3333333333333333 20:0.3333333333333333 21:0.3333333333333333 22:0.0 23:0.0 24:0.0 25:0.0 26:0.0 27:0.0 28:0.0 29:0.0 30:0.0 31:16.0 32:1.0 33:0.0 34:0.0 35:0.0 36:0.0 37:0.0 38:0.0 39:0.0 40:0.0 41:0.0 42:0.0 43:0.0 44:0.0 
1.0 1.0 1:2.271509291774935E-4 2:0.00246548719169679 3:0.9973073618791257 4:0.874049302044 5:0.531663155652 6:0.876737434909 7:0.1490181791255972 8:0.6136528866173241 9:0.0 10:0.0 11:0.0 12:0.0 13:0.07768448128582271 14:0.9218443555802754 15:4.711631339018899E-4 16:0.597563469902 17:0.531663155652 18:0.378923445821 19:0.3333333333333333 20:0.3333333333333333 21:0.3333333333333333 22:0.0 23:0.0 24:0.0 25:0.0 26:0.0 27:0.0 28:0.0 29:0.0 30:0.0 31:1.0 32:2.0 33:0.0 34:0.0 35:0.0 36:0.0 37:0.0 38:0.0 39:0.0 40:0.0 41:0.0 42:0.0 43:0.0 44:0.0 
1.0 1.0 1:8.982298990846077E-9 2:0.9999999910177011 3:2.077247559676135E-20 4:0.672788588227 5:0.841099949725 6:0.712533860887 7:0.7395641286199346 8:0.1542105112295358 9:0.0 10:0.0 11:0.0 12:0.0 13:4.9834427534906286E-6 14:0.9999950165572238 15:2.2777336546135544E-14 16:0.603387768261 17:0.708059576631 18:0.712533860887 19:0.3333333333333333 20:0.3333333333333333 21:0.3333333333333333 22:0.0 23:0.0 24:0.0 25:0.0 26:0.0 27:0.0 28:0.0 29:0.0 30:0.0 31:7.0 32:1.0 33:0.0 34:0.0 35:0.0 36:0.0 37:0.0 38:0.0 39:0.0 40:0.0 41:0.0 42:0.0 43:0.0 44:0.0 
0.25335979671026426 0.0 1:0.999980663088509 2:1.7671242257501017E-5 3:1.6656692335274647E-6 4:0.853109976935 5:0.903076500574 6:0.760428665265 7:0.877173689421353 8:0.035764767072282905 9:0.0 10:0.0 11:0.0 12:0.0 13:0.8019593959811401 14:0.18821658243981187 15:0.009824021579048034 16:0.54065872183 17:0.722211320406 18:0.627100923315 19:0.3333333333333333 20:0.3333333333333333 21:0.3333333333333333 22:0.0 23:0.0 24:0.0 25:0.0 26:0.0 27:0.0 28:0.0 29:0.0 30:0.0 31:1.0 32:0.0 33:0.0 34:0.0 35:0.0 36:0.0 37:0.0 38:0.0 39:0.0 40:0.0 41:0.0 42:0.0 43:0.0 44:0.0 
0.9032865855800739 0.0 1:0.24637419386635429 2:0.004645661325032429 3:0.7489801448086133 4:0.795935856362 5:0.642697290898 6:0.673462337031 7:0.7959358563623185 8:0.07587761226863035 9:0.0 10:0.0 11:0.0 12:0.0 13:0.8254246776493775 14:0.09086017238070415 15:0.08371514996991843 16:0.568594764342 17:0.427773702014 18:0.672510785002 19:0.3333333333333333 20:0.3333333333333333 21:0.3333333333333333 22:0.0 23:0.0 24:0.0 25:0.0 26:0.0 27:1.0 28:0.0 29:0.0 30:0.0 31:2.0 32:0.0 33:0.0 34:0.0 35:0.0 36:0.0 37:0.0 38:0.0 39:0.0 40:0.0 41:0.0 42:0.0 43:0.0 44:0.0 
0.0 1.0 1:0.9999999998014052 2:1.9777994391280098E-10 3:8.147586448404323E-13 4:0.797553528584 5:0.638523392766 6:0.604354058588 7:0.8739137471097014 8:0.02569939687586232 9:0.0 10:0.0 11:0.0 12:0.0 13:0.9306673044889764 14:0.06933269348178364 15:2.02923992789261E-9 16:0.797553528584 17:0.557489872248 18:0.524861119094 19:0.3333333333333333 20:0.3333333333333333 21:0.3333333333333333 22:0.0 23:0.0 24:0.0 25:0.0 26:0.0 27:0.0 28:0.0 29:0.0 30:0.0 31:0.0 32:0.0 33:0.0 34:0.0 35:0.0 36:0.0 37:0.0 38:0.0 39:0.0 40:0.0 41:0.0 42:2.0 43:0.0 44:0.0 
1.0 1.0 1:0.6008622541179743 2:0.3954029432864835 3:0.0037348025955422025 4:0.577631142764 5:0.550295492601 6:0.75455833767 7:0.7377150228097455 8:0.04146267126188775 9:0.0 10:0.0 11:0.0 12:0.0 13:0.1932151069101862 14:0.80546618964223 15:0.001318703447583835 16:0.424017903081 17:0.550295492601 18:0.380836646906 19:0.3333333333333333 20:0.3333333333333333 21:0.3333333333333333 22:0.0 23:0.0 24:0.0 25:0.0 26:0.0 27:0.0 28:0.0 29:0.0 30:0.0 31:0.0 32:0.0 33:0.0 34:0.0 35:0.0 36:0.0 37:0.0 38:0.0 39:0.0 40:0.0 41:0.0 42:0.0 43:0.0 44:0.0 
1.0 1.0 1:3.919839816244452E-4 2:8.194465482405896E-11 3:0.9996080159364309 4:0.568735431426 5:0.655867966705 6:0.800959097939 7:0.4723688502003757 8:0.3036075480029166 9:0.0 10:0.0 11:0.0 12:0.0 13:0.7913548994830407 14:0.14498538869992766 15:0.06365971181703167 16:0.424017903081 17:0.550295492601 18:0.697919410374 19:0.3333333333333333 20:0.3333333333333333 21:0.3333333333333333 22:0.0 23:0.0 24:0.0 25:0.0 26:0.0 27:0.0 28:0.0 29:0.0 30:0.0 31:0.0 32:0.0 33:0.0 34:0.0 35:0.0 36:0.0 37:0.0 38:0.0 39:0.0 40:0.0 41:0.0 42:0.0 43:0.0 44:0.0 
1.0 1.0 1:0.015265233577292404 2:4.538181033715293E-12 3:0.9847347664181694 4:0.5888992679 5:0.638523392766 6:0.762376677309 7:0.43632620909408976 8:0.09902430881954769 9:0.0 10:0.0 11:0.0 12:0.0 13:0.4260596293240574 14:0.5608609080698994 15:0.013079462606043223 16:0.411628137477 17:0.51519302917 18:0.515684993302 19:0.3333333333333333 20:0.3333333333333333 21:0.3333333333333333 22:0.0 23:0.0 24:0.0 25:0.0 26:0.0 27:0.0 28:0.0 29:0.0 30:0.0 31:0.0 32:0.0 33:0.0 34:0.0 35:0.0 36:0.0 37:0.0 38:0.0 39:0.0 40:0.0 41:0.0 42:0.0 43:0.0 44:0.0 
0.0 1.0 1:0.543944648663465 2:0.011031904988772304 3:0.44502344634776275 4:0.439469459859 5:0.508816041006 6:0.538549531745 7:0.439469459859 8:0.09592073858200001 9:0.0 10:0.0 11:0.0 12:0.0 13:0.37232345966888825 14:0.5000147711645603 15:0.12766176916655134 16:0.411628137477 17:0.508816041006 18:0.462968894018 19:0.714808504856 20:0.18319928945 21:0.101992205694 22:0.714808504856 23:0.18319928945 24:0.101992205694 25:0.0 26:0.0 27:0.0 28:0.0 29:0.0 30:0.0 31:0.0 32:0.0 33:0.0 34:0.0 35:0.0 36:0.0 37:0.0 38:0.0 39:0.0 40:0.0 41:0.0 42:1.0 43:0.0 44:0.0 
1.0 1.0 1:0.988667033355496 2:4.909049896449917E-5 3:0.011283876145539485 4:0.739473254229 5:0.608336247228 6:0.752291920268 7:0.3526218371608706 8:0.0018258772681260897 9:0.0 10:0.0 11:0.0 12:0.0 13:0.06528248541068139 14:0.9085775517496913 15:0.02613996283962721 16:0.411628137477 17:0.608336247228 18:0.752291920268 19:0.3333333333333333 20:0.3333333333333333 21:0.3333333333333333 22:0.0 23:0.0 24:0.0 25:0.0 26:0.0 27:0.0 28:0.0 29:0.0 30:0.0 31:0.0 32:2.0 33:0.0 34:0.0 35:0.0 36:0.0 37:0.0 38:0.0 39:0.0 40:0.0 41:0.0 42:0.0 43:0.0 44:0.0 
1.0 1.0 1:0.0016981397646502504 2:6.673361275271551E-7 3:0.9983011928992223 4:0.795518303013 5:0.64189987245 6:0.728705288647 7:0.5578698041769721 8:0.03429202611538071 9:0.0 10:0.0 11:0.0 12:0.0 13:0.12326607009629942 14:0.8139868152642793 15:0.06274711463942119 16:0.424017903081 17:0.534739513576 18:0.472922912125 19:0.3333333333333333 20:0.3333333333333333 21:0.3333333333333333 22:0.0 23:0.0 24:0.0 25:0.0 26:0.0 27:0.0 28:0.0 29:0.0 30:0.0 31:1.0 32:0.0 33:0.0 34:0.0 35:0.0 36:0.0 37:0.0 38:0.0 39:0.0 40:0.0 41:0.0 42:0.0 43:0.0 44:0.0 
1.0 1.0 1:0.007214302042130124 2:3.084882349123101E-11 3:0.9927856979270211 4:0.79850405764 5:0.71137774996 6:0.870860304031 7:0.8888839988554238 8:0.0017279318792070516 9:0.0 10:0.0 11:0.0 12:0.0 13:0.12706338244594548 14:0.27492714871160295 15:0.5980094688424514 16:0.411628137477 17:0.700998228382 18:0.634258854246 19:0.3333333333333333 20:0.3333333333333333 21:0.3333333333333333 22:0.0 23:0.0 24:0.0 25:0.0 26:0.0 27:0.0 28:0.0 29:0.0 30:0.0 31:0.0 32:1.0 33:9.0 34:0.0 35:0.0 36:0.0 37:0.0 38:0.0 39:0.0 40:0.0 41:0.0 42:0.0 43:0.0 44:0.0 
1.0 1.0 1:8.19611624575039E-11 2:2.7247489291163797E-9 3:0.9999999971932899 4:0.708260496272 5:0.611496946345 6:0.844416902964 7:0.801457811733627 8:0.03309939514686668 9:0.0 10:0.0 11:0.0 12:0.0 13:0.20499595435724474 14:0.28123698597834695 15:0.5137670596644084 16:0.411628137477 17:0.494889648187 18:0.693899081196 19:0.3333333333333333 20:0.3333333333333333 21:0.3333333333333333 22:0.0 23:0.0 24:0.0 25:0.0 26:0.0 27:0.0 28:0.0 29:0.0 30:0.0 31:0.0 32:0.0 33:0.0 34:0.0 35:1.0 36:0.0 37:0.0 38:0.0 39:0.0 40:0.0 41:0.0 42:0.0 43:0.0 44:0.0 
1.0 0.0 1:0.9367571887889856 2:0.01907820576802647 3:0.0441646054429879 4:0.676839204433 5:0.806709886587 6:0.673265276392 7:0.8826381606602909 8:0.02348219857085058 9:0.0 10:0.0 11:0.0 12:0.0 13:0.006686677791608602 14:0.9930237649826695 15:2.895572257219608E-4 16:0.54065872183 17:0.636945763135 18:0.673265276392 19:0.3333333333333333 20:0.3333333333333333 21:0.3333333333333333 22:0.0 23:0.0 24:0.0 25:0.0 26:0.0 27:0.0 28:0.0 29:0.0 30:0.0 31:4.0 32:0.0 33:0.0 34:0.0 35:0.0 36:0.0 37:0.0 38:0.0 39:0.0 40:0.0 41:0.0 42:2.0 43:0.0 44:0.0 
1.0 1.0 1:5.849034573235595E-5 2:6.707969295399209E-15 3:0.9999415096542609 4:0.574524571614 5:0.457116123604 6:0.833856888942 7:0.015862815121344034 8:2.062812827315971E-6 9:0.0 10:0.0 11:0.0 12:0.0 13:0.48795706798077193 14:0.511726607647368 15:3.1632437185999374E-4 16:0.411628137477 17:0.457116123604 18:0.650585234834 19:0.3333333333333333 20:0.3333333333333333 21:0.3333333333333333 22:0.0 23:0.0 24:0.0 25:0.0 26:0.0 27:0.0 28:0.0 29:0.0 30:0.0 31:0.0 32:0.0 33:0.0 34:0.0 35:0.0 36:0.0 37:0.0 38:0.0 39:0.0 40:0.0 41:0.0 42:0.0 43:0.0 44:0.0 
0.0 1.0 1:0.9980310267520653 2:0.0012690470901498651 3:6.999261577848424E-4 4:0.689693708067 5:0.615225349427 6:0.703780784265 7:0.921428784824598 8:0.022650978765291194 9:0.0 10:0.0 11:0.0 12:0.0 13:0.763749779405319 14:0.22981835466497086 15:0.006431865929710032 16:0.673857318349 17:0.53409738695 18:0.572580542906 19:0.3333333333333333 20:0.3333333333333333 21:0.3333333333333333 22:0.0 23:0.0 24:0.0 25:0.0 26:0.0 27:0.0 28:0.0 29:0.0 30:0.0 31:0.0 32:0.0 33:0.0 34:0.0 35:0.0 36:0.0 37:0.0 38:0.0 39:0.0 40:0.0 41:0.0 42:0.0 43:0.0 44:0.0 
1.0 0.0 1:0.041897008482943136 2:0.9571017772280955 3:0.00100121428896141 4:0.803182998713 5:0.809254176937 6:0.735686309403 7:0.8345162375264488 8:0.12116252062217678 9:0.0 10:0.0 11:0.0 12:0.0 13:0.004542405785893279 14:0.9953503170259183 15:1.0727718818850266E-4 16:0.411628137477 17:0.809254176937 18:0.36295592071 19:0.8796356663105934 20:0.0812937501104516 21:0.039070583578954876 22:0.619918108397 23:0.318399213745 24:0.274479365468 25:0.0 26:0.0 27:0.0 28:0.0 29:0.0 30:0.0 31:0.0 32:0.0 33:0.0 34:0.0 35:0.0 36:0.0 37:0.0 38:0.0 39:0.0 40:0.0 41:0.0 42:0.0 43:0.0 44:0.0 
1.0 1.0 1:0.004995762813519472 2:2.263538012596424E-6 3:0.995001973648468 4:0.849411934663 5:0.622200978047 6:0.837424880512 7:0.3486019636306437 8:0.03058955493911468 9:0.0 10:0.0 11:0.0 12:0.0 13:0.4875022774221509 14:0.22078676835260103 15:0.29171095422524806 16:0.410817357456 17:0.51519302917 18:0.462968894018 19:0.3333333333333333 20:0.3333333333333333 21:0.3333333333333333 22:0.0 23:0.0 24:0.0 25:0.0 26:0.0 27:0.0 28:0.0 29:0.0 30:0.0 31:1.0 32:0.0 33:3.0 34:0.0 35:0.0 36:0.0 37:1.0 38:0.0 39:0.0 40:0.0 41:0.0 42:0.0 43:0.0 44:0.0 
1.0 1.0 1:0.8997466879684992 2:0.10025330223998367 3:9.791517165490011E-9 4:0.689693708067 5:0.710437579884 6:0.772695397561 7:0.851814886358202 8:0.1309551853614648 9:0.0 10:0.0 11:0.0 12:0.0 13:0.037476501161331284 14:0.9625185661848663 15:4.932653802611349E-6 16:0.534148143359 17:0.608336247228 18:0.363242604904 19:0.3333333333333333 20:0.3333333333333333 21:0.3333333333333333 22:0.0 23:0.0 24:0.0 25:0.0 26:0.0 27:0.0 28:0.0 29:0.0 30:0.0 31:0.0 32:0.0 33:0.0 34:0.0 35:0.0 36:0.0 37:2.0 38:0.0 39:0.0 40:0.0 41:0.0 42:0.0 43:0.0 44:0.0 
1.0 0.0 1:0.9872421733110599 2:0.01275782632156092 3:3.673790994707367E-10 4:0.704934367885 5:0.599850137042 6:0.531687276212 7:0.240619287284391 8:0.6820346629610127 9:0.0 10:0.0 11:0.0 12:0.0 13:0.9366389478209097 14:0.06335983126344501 15:1.2209156453905857E-6 16:0.673857318349 17:0.537877091049 18:0.531687276212 19:0.3333333333333333 20:0.3333333333333333 21:0.3333333333333333 22:0.0 23:0.0 24:0.0 25:0.0 26:0.0 27:0.0 28:0.0 29:0.0 30:0.0 31:11.0 32:1.0 33:0.0 34:0.0 35:0.0 36:0.0 37:0.0 38:0.0 39:0.0 40:0.0 41:0.0 42:0.0 43:0.0 44:0.0 
1.0 1.0 1:0.6158772905817801 2:0.38391090059504684 3:2.118088231731642E-4 4:0.661646200293 5:0.550295492601 6:0.594287212025 7:0.6616462002929999 8:0.15875630171199998 9:0.0 10:0.0 11:0.0 12:0.0 13:0.23049901523983687 14:0.7684331251796421 15:0.001067859580521091 16:0.426029938029 17:0.550295492601 18:0.594287212025 19:0.3333333333333333 20:0.3333333333333333 21:0.3333333333333333 22:0.0 23:0.0 24:0.0 25:0.0 26:0.0 27:0.0 28:0.0 29:0.0 30:0.0 31:0.0 32:0.0 33:0.0 34:0.0 35:0.0 36:0.0 37:0.0 38:0.0 39:0.0 40:0.0 41:0.0 42:0.0 43:0.0 44:0.0 
1.0 0.0 1:0.9919754391404514 2:0.00802448569826887 3:7.516127963681095E-8 4:0.872584862823 5:0.682739186552 6:0.593803130541 7:0.3333333333333333 8:0.3333333333333333 9:0.0 10:0.0 11:0.0 12:0.0 13:0.03986961172676478 14:0.9600475632721149 15:8.282500112025417E-5 16:0.434058570425 17:0.682739186552 18:0.593803130541 19:0.3333333333333333 20:0.3333333333333333 21:0.3333333333333333 22:0.0 23:0.0 24:0.0 25:0.0 26:0.0 27:0.0 28:0.0 29:0.0 30:0.0 31:0.0 32:0.0 33:0.0 34:0.0 35:0.0 36:0.0 37:0.0 38:0.0 39:0.0 40:0.0 41:0.0 42:0.0 43:0.0 44:0.0 
1.0 1.0 1:0.963751295899346 2:0.023240715020393165 3:0.013007989080260754 4:0.647710819686 5:0.795295824499 6:0.664120837531 7:0.694598344427447 8:0.021457074681155548 9:0.0 10:0.0 11:0.0 12:0.0 13:0.03378817641094415 14:0.9656540354767983 15:5.577881122574914E-4 16:0.534148143359 17:0.795295824499 18:0.462968894018 19:0.3333333333333333 20:0.3333333333333333 21:0.3333333333333333 22:0.0 23:0.0 24:0.0 25:0.0 26:0.0 27:0.0 28:0.0 29:0.0 30:0.0 31:0.0 32:0.0 33:0.0 34:0.0 35:0.0 36:0.0 37:0.0 38:0.0 39:0.0 40:0.0 41:0.0 42:0.0 43:0.0 44:0.0 
1.0 0.0 1:0.9997984962590643 2:2.01368263819999E-4 3:1.354771157457338E-7 4:0.599850137042 5:0.580804656599 6:0.649377467352 7:0.8134029028936459 8:0.0058843024442976 9:0.0 10:0.0 11:0.0 12:0.0 13:0.289197381121562 14:0.7107695693193584 15:3.304955907960629E-5 16:0.597563469902 17:0.531663155652 18:0.469857343184 19:0.3333333333333333 20:0.3333333333333333 21:0.3333333333333333 22:0.0 23:0.0 24:0.0 25:0.0 26:0.0 27:0.0 28:0.0 29:0.0 30:0.0 31:7.0 32:0.0 33:0.0 34:0.0 35:0.0 36:0.0 37:0.0 38:0.0 39:0.0 40:0.0 41:0.0 42:0.0 43:0.0 44:0.0 
1.0 1.0 1:1.237902875491435E-10 2:4.6540512022004006E-14 3:0.9999999998761633 4:0.685233941321 5:0.619869568938 6:0.907916244045 7:0.22479686711790486 8:0.12503546519374986 9:0.0 10:0.0 11:0.0 12:0.0 13:0.38545192916506266 14:0.5927867011177231 15:0.02176136971721412 16:0.521998764708 17:0.603387768261 18:0.697919410374 19:0.3333333333333333 20:0.3333333333333333 21:0.3333333333333333 22:0.0 23:0.0 24:0.0 25:0.0 26:0.0 27:0.0 28:0.0 29:0.0 30:0.0 31:1.0 32:0.0 33:1.0 34:0.0 35:0.0 36:0.0 37:0.0 38:0.0 39:0.0 40:0.0 41:0.0 42:0.0 43:0.0 44:0.0 
1.0 1.0 1:6.765020656637136E-7 2:0.999909142379601 3:9.018111833314783E-5 4:0.834793113623 5:0.762904871308 6:0.835590228762 7:0.8576966595357584 8:0.06736472619030381 9:0.0 10:0.0 11:0.0 12:0.0 13:0.022048580037151776 14:0.9734211451441849 15:0.004530274818663434 16:0.438309046749 17:0.597804785989 18:0.835590228762 19:0.3333333333333333 20:0.3333333333333333 21:0.3333333333333333 22:0.0 23:0.0 24:0.0 25:0.0 26:0.0 27:0.0 28:0.0 29:0.0 30:0.0 31:4.0 32:0.0 33:0.0 34:0.0 35:0.0 36:0.0 37:1.0 38:0.0 39:0.0 40:0.0 41:0.0 42:0.0 43:0.0 44:0.0 
1.0 1.0 1:1.0546582308523293E-5 2:9.46323969998583E-10 3:0.9999894524713675 4:0.73784457083 5:0.560184437834 6:0.791609114936 7:0.3024034910860654 8:0.10552266043020121 9:0.0 10:0.0 11:0.0 12:0.0 13:0.4234139232819785 14:0.5356935849659253 15:0.04089249175209615 16:0.43977861677 17:0.550295492601 18:0.563826838255 19:0.3333333333333333 20:0.3333333333333333 21:0.3333333333333333 22:0.0 23:0.0 24:0.0 25:0.0 26:0.0 27:0.0 28:0.0 29:0.0 30:0.0 31:0.0 32:0.0 33:7.0 34:0.0 35:0.0 36:0.0 37:1.0 38:0.0 39:0.0 40:0.0 41:0.0 42:0.0 43:0.0 44:0.0 
1.0 1.0 1:3.4683672348523987E-4 2:2.197169976562379E-6 3:0.9996509661065383 4:0.693087371445 5:0.482714813755 6:0.734072874962 7:0.555251030938701 8:0.3556008669025275 9:0.0 10:0.0 11:0.0 12:0.0 13:0.8521638734841515 14:0.08390084592519184 15:0.0639352805906567 16:0.597563469902 17:0.471155960318 18:0.611824431249 19:0.3333333333333333 20:0.3333333333333333 21:0.3333333333333333 22:0.0 23:0.0 24:0.0 25:0.0 26:0.0 27:1.0 28:0.0 29:0.0 30:0.0 31:0.0 32:0.0 33:2.0 34:0.0 35:0.0 36:0.0 37:0.0 38:0.0 39:0.0 40:0.0 41:0.0 42:0.0 43:0.0 44:0.0 
1.0 0.0 1:0.9904042237132592 2:0.009593473489464132 3:2.302797276573941E-6 4:0.803918134457 5:0.717847545587 6:0.741364901797 7:0.9994579516926513 8:4.2897064904908524E-4 9:0.0 10:0.0 11:0.0 12:0.0 13:0.0038630184077132978 14:0.9961301802357526 15:6.801356534114807E-6 16:0.460696346969 17:0.717847545587 18:0.567795616837 19:0.3333333333333333 20:0.3333333333333333 21:0.3333333333333333 22:0.0 23:0.0 24:0.0 25:0.0 26:0.0 27:0.0 28:0.0 29:0.0 30:0.0 31:1.0 32:1.0 33:0.0 34:0.0 35:0.0 36:0.0 37:1.0 38:0.0 39:0.0 40:0.0 41:0.0 42:1.0 43:0.0 44:0.0 
1.0 0.0 1:1.6574934222033868E-4 2:0.9998342506394968 3:1.8282809027714728E-11 4:0.874049302044 5:0.715191420303 6:0.689102132798 7:0.38031706142336885 8:0.5069908474458381 9:0.0 10:0.0 11:0.0 12:0.0 13:0.053364789396985815 14:0.9466346092386231 15:6.013643911357406E-7 16:0.568594764342 17:0.594948695877 18:0.276858741934 19:0.9492575201610238 20:0.04916364970641523 21:0.0015788301325609865 22:0.714808504856 23:0.318399213745 24:0.101992205694 25:0.0 26:0.0 27:0.0 28:0.0 29:0.0 30:0.0 31:0.0 32:0.0 33:0.0 34:0.0 35:2.0 36:0.0 37:0.0 38:0.0 39:0.0 40:0.0 41:0.0 42:0.0 43:0.0 44:0.0 
1.0 1.0 1:0.0011490973345870395 2:3.304969628349794E-5 3:0.9988178529691294 4:0.497602787337 5:0.530582543722 6:0.716223948748 7:0.3333333333333333 8:0.3333333333333333 9:0.0 10:0.0 11:0.0 12:0.0 13:0.2829656553493458 14:0.6034240527889394 15:0.11361029186171484 16:0.411628137477 17:0.411372479578 18:0.40234264953 19:0.3333333333333333 20:0.3333333333333333 21:0.3333333333333333 22:0.0 23:0.0 24:0.0 25:0.0 26:0.0 27:0.0 28:0.0 29:0.0 30:0.0 31:0.0 32:0.0 33:0.0 34:0.0 35:0.0 36:0.0 37:0.0 38:0.0 39:0.0 40:0.0 41:0.0 42:0.0 43:0.0 44:0.0 
1.0 1.0 1:0.3112149091054156 2:2.7312480241377175E-11 3:0.6887850908672719 4:0.834793113623 5:0.658651691052 6:0.865303152747 7:0.8034135886196031 8:0.004037729014555596 9:0.0 10:0.0 11:0.0 12:0.0 13:0.7337917780980822 14:0.26548108638378837 15:7.271355181294443E-4 16:0.603387768261 17:0.520902710501 18:0.865303152747 19:0.3333333333333333 20:0.3333333333333333 21:0.3333333333333333 22:0.0 23:0.0 24:0.0 25:0.0 26:0.0 27:0.0 28:0.0 29:0.0 30:0.0 31:3.0 32:0.0 33:0.0 34:0.0 35:0.0 36:0.0 37:0.0 38:0.0 39:0.0 40:0.0 41:0.0 42:1.0 43:0.0 44:0.0 
1.0 1.0 1:0.5111154959073737 2:0.4888662138056656 3:1.8290286960790053E-5 4:0.603387768261 5:0.680251668082 6:0.775015015653 7:0.601549698259008 8:0.3252986014649741 9:0.0 10:0.0 11:0.0 12:0.0 13:0.019686682485766327 14:0.9802649148282269 15:4.8402686006825424E-5 16:0.603387768261 17:0.534739513576 18:0.650585234834 19:0.3333333333333333 20:0.3333333333333333 21:0.3333333333333333 22:0.0 23:0.0 24:0.0 25:0.0 26:0.0 27:0.0 28:0.0 29:0.0 30:0.0 31:0.0 32:0.0 33:0.0 34:0.0 35:0.0 36:0.0 37:0.0 38:0.0 39:0.0 40:0.0 41:0.0 42:0.0 43:0.0 44:0.0 
1.0 1.0 1:0.7911885583757473 2:0.06179325109996551 3:0.14701819052428708 4:0.563688392416 5:0.544731215388 6:0.532999017767 7:0.20420837088000002 8:0.527691646761 9:0.0 10:0.0 11:0.0 12:0.0 13:0.3191155459431238 14:0.5170713059987839 15:0.1638131480580923 16:0.548140680039 17:0.544731215388 18:0.532999017767 19:0.3333333333333333 20:0.3333333333333333 21:0.3333333333333333 22:0.0 23:0.0 24:0.0 25:0.0 26:0.0 27:0.0 28:0.0 29:0.0 30:0.0 31:0.0 32:0.0 33:0.0 34:0.0 35:0.0 36:0.0 37:2.0 38:0.0 39:0.0 40:0.0 41:0.0 42:0.0 43:0.0 44:0.0 
0.0 1.0 1:0.9955052062063178 2:7.941172880722637E-4 3:0.0037006765056099024 4:0.701909382322 5:0.51519302917 6:0.594427361696 7:0.5419578311506749 8:0.07410361432355553 9:0.0 10:0.0 11:0.0 12:0.0 13:0.848811904203152 14:0.1264293526985649 15:0.024758743098283017 16:0.568594764342 17:0.51519302917 18:0.594427361696 19:0.3333333333333333 20:0.3333333333333333 21:0.3333333333333333 22:0.0 23:0.0 24:0.0 25:0.0 26:0.0 27:0.0 28:0.0 29:0.0 30:0.0 31:0.0 32:0.0 33:0.0 34:0.0 35:0.0 36:0.0 37:0.0 38:0.0 39:0.0 40:0.0 41:0.0 42:0.0 43:0.0 44:0.0 
1.0 1.0 1:1.2485355041898055E-5 2:0.03371011138024826 3:0.9662774032647099 4:0.563157766252 5:0.71137774996 6:0.782908881111 7:0.37735734556251715 8:0.32793398031153065 9:0.0 10:0.0 11:0.0 12:0.0 13:0.05977479727170155 14:0.9401253542647636 15:9.984846353482809E-5 16:0.471449216941 17:0.603387768261 18:0.462968894018 19:0.3333333333333333 20:0.3333333333333333 21:0.3333333333333333 22:0.0 23:0.0 24:0.0 25:0.0 26:0.0 27:0.0 28:0.0 29:0.0 30:0.0 31:0.0 32:0.0 33:0.0 34:0.0 35:0.0 36:0.0 37:0.0 38:0.0 39:0.0 40:0.0 41:0.0 42:1.0 43:0.0 44:0.0 
1.0 1.0 1:3.113444364390524E-4 2:0.9996859186169963 3:2.7369465646784585E-6 4:0.567936859506 5:0.616571761469 6:0.686959973853 7:0.005962366868011942 8:0.9785752534614118 9:0.0 10:0.0 11:0.0 12:0.0 13:0.08124091517726559 14:0.9186757415773855 15:8.33432453489567E-5 16:0.567936859506 17:0.571199005887 18:0.686959973853 19:0.9182339991430919 20:0.04236005342050424 21:0.03940594743640395 22:0.918233999143 23:0.0423600534205 24:0.0394059474364 25:0.0 26:0.0 27:0.0 28:0.0 29:0.0 30:0.0 31:0.0 32:0.0 33:0.0 34:0.0 35:0.0 36:0.0 37:0.0 38:0.0 39:0.0 40:0.0 41:0.0 42:0.0 43:0.0 44:0.0 
1.0 1.0 1:0.0723394287908452 2:0.9276605084783497 3:6.273080506049388E-8 4:0.874049302044 5:0.682739186552 6:0.566446109731 7:0.46924461299219816 8:0.45270284947850936 9:0.0 10:0.0 11:0.0 12:0.0 13:0.00131167538287907 14:0.9986869648327752 15:1.3597843456826064E-6 16:0.427106131569 17:0.682739186552 18:0.566446109731 19:0.3333333333333333 20:0.3333333333333333 21:0.3333333333333333 22:0.0 23:0.0 24:0.0 25:0.0 26:0.0 27:0.0 28:0.0 29:0.0 30:0.0 31:0.0 32:0.0 33:0.0 34:0.0 35:0.0 36:0.0 37:1.0 38:0.0 39:0.0 40:0.0 41:0.0 42:0.0 43:0.0 44:0.0 
1.0 0.0 1:0.9312868667671984 2:0.06802945874007577 3:6.836744927257783E-4 4:0.589761946795 5:0.685348325441 6:0.525753639212 7:0.7057198374960006 8:0.18815197019412383 9:0.0 10:0.0 11:0.0 12:0.0 13:0.02036121371335229 14:0.9763464080088933 15:0.0032923782777543784 16:0.411628137477 17:0.550295492601 18:0.380836646906 19:0.3333333333333333 20:0.3333333333333333 21:0.3333333333333333 22:0.0 23:0.0 24:0.0 25:0.0 26:0.0 27:0.0 28:0.0 29:0.0 30:0.0 31:3.0 32:0.0 33:0.0 34:0.0 35:0.0 36:0.0 37:0.0 38:0.0 39:0.0 40:0.0 41:0.0 42:0.0 43:0.0 44:0.0 
1.0 1.0 1:0.535052636131851 2:7.350013646040424E-5 3:0.46487386373168854 4:0.689693708067 5:0.550295492601 6:0.866578592193 7:0.7584905662754148 8:0.18981039845743816 9:0.0 10:0.0 11:0.0 12:0.0 13:0.6525996305671841 14:0.3192446308216884 15:0.02815573861112734 16:0.424017903081 17:0.550295492601 18:0.551651522041 19:0.3333333333333333 20:0.3333333333333333 21:0.3333333333333333 22:0.0 23:0.0 24:0.0 25:0.0 26:0.0 27:0.0 28:0.0 29:0.0 30:0.0 31:0.0 32:1.0 33:1.0 34:0.0 35:1.0 36:0.0 37:0.0 38:0.0 39:0.0 40:0.0 41:0.0 42:0.0 43:0.0 44:0.0 
0.0 1.0 1:0.06388718981542733 2:4.247269161900164E-9 3:0.9361128059373035 4:0.795935856362 5:0.526215043165 6:0.814022814088 7:0.8098238845703244 8:0.0379427755270321 9:0.0 10:0.0 11:0.0 12:0.0 13:0.9160065443868657 14:0.010654185689715713 15:0.07333926992341858 16:0.733726880443 17:0.468144596594 18:0.693899081196 19:0.3333333333333333 20:0.3333333333333333 21:0.3333333333333333 22:0.0 23:0.0 24:0.0 25:0.0 26:0.0 27:0.0 28:0.0 29:0.0 30:0.0 31:0.0 32:0.0 33:0.0 34:0.0 35:0.0 36:0.0 37:1.0 38:0.0 39:0.0 40:0.0 41:0.0 42:0.0 43:0.0 44:0.0 
0.0 1.0 1:0.28976613512085764 2:0.020428531659003078 3:0.6898053332201393 4:0.361442859198 5:0.0962694914473 6:0.552998119776 7:0.3333333333333333 8:0.3333333333333333 9:0.0 10:0.0 11:0.0 12:0.0 13:0.3333333333333333 14:0.3333333333333333 15:0.3333333333333333 16:0.0 17:0.0 18:0.0 19:0.6970852847599999 20:0.19516172393199993 21:0.10775299130799999 22:0.69708528476 23:0.195161723932 24:0.107752991308 25:0.0 26:0.0 27:0.0 28:0.0 29:0.0 30:0.0 31:1.0 32:0.0 33:0.0 34:0.0 35:0.0 36:0.0 37:0.0 38:0.0 39:0.0 40:0.0 41:0.0 42:0.0 43:0.0 44:0.0 
0.0 1.0 1:0.9978519453377847 2:0.002148053942755403 3:7.194599591722612E-10 4:0.703535837481 5:0.59704568635 6:0.596185231011 7:0.8667845165757971 8:0.002850672795245505 9:0.0 10:0.0 11:0.0 12:0.0 13:0.30493079987525096 14:0.6950392149754666 15:2.99851492826273E-5 16:0.603387768261 17:0.579388889878 18:0.348106856584 19:0.3333333333333333 20:0.3333333333333333 21:0.3333333333333333 22:0.0 23:0.0 24:0.0 25:0.0 26:0.0 27:0.0 28:0.0 29:0.0 30:0.0 31:0.0 32:0.0 33:0.0 34:0.0 35:0.0 36:0.0 37:0.0 38:0.0 39:0.0 40:0.0 41:0.0 42:0.0 43:0.0 44:0.0 
1.0 1.0 1:0.0011920618063482689 2:0.006691037572630142 3:0.9921169006210216 4:0.652850727594 5:0.611496946345 6:0.786805242481 7:0.15057678834237595 8:0.42255143084991914 9:0.0 10:0.0 11:0.0 12:0.0 13:0.26789999288480615 14:0.7292737162535625 15:0.0028262908616313704 16:0.521998764708 17:0.610130889717 18:0.613807527228 19:0.3333333333333333 20:0.3333333333333333 21:0.3333333333333333 22:0.0 23:0.0 24:0.0 25:0.0 26:0.0 27:0.0 28:0.0 29:0.0 30:0.0 31:0.0 32:0.0 33:2.0 34:0.0 35:0.0 36:0.0 37:0.0 38:0.0 39:0.0 40:0.0 41:0.0 42:0.0 43:0.0 44:0.0 
