svm_type c_svc
kernel_type linear
nr_class 2
total_sv 1458
rho 0.7205007179533502
label 1 0
probA -1.1634890333237584
probB -0.1795193219765456
nr_sv 732 726
SV
1.0 1:5.419550195669677E-4 2:5.999421925869225E-9 3:0.9994580389810112 4:0.935233365413 5:0.663761217973 6:0.81817348658 7:0.7523115763315323 8:0.19503802118977823 9:0.0 10:0.0 11:0.0 12:0.0 13:0.003281804769589712 14:0.07055873095629588 15:0.9261594642741144 16:0.411628137477 17:0.556516293 18:0.81817348658 19:0.3333333333333333 20:0.3333333333333333 21:0.3333333333333333 22:0.0 23:0.0 24:0.0 25:0.0 26:0.0 27:0.0 28:0.0 29:0.0 30:0.0 31:0.0 32:0.0 33:2.0 34:0.0 35:0.0 36:0.0 37:0.0 38:0.0 39:0.0 40:0.0 41:0.0 42:0.0 43:0.0 44:0.0 
1.0 1:0.08708871403020475 2:1.0379157479842786E-6 3:0.9129102480540472 4:0.708260496272 5:0.634346997856 6:0.81817348658 7:0.9620968346459453 8:0.014591244607693222 9:0.0 10:0.0 11:0.0 12:0.0 13:0.4142531168781387 14:0.29290692143044283 15:0.29283996169141835 16:0.411628137477 17:0.520902710501 18:0.81817348658 19:0.3333333333333333 20:0.3333333333333333 21:0.3333333333333333 22:0.0 23:0.0 24:0.0 25:0.0 26:0.0 27:0.0 28:0.0 29:0.0 30:0.0 31:1.0 32:0.0 33:0.0 34:0.0 35:0.0 36:0.0 37:0.0 38:0.0 39:0.0 40:0.0 41:0.0 42:0.0 43:0.0 44:0.0 
1.0 1:0.001071584806702517 2:4.303591527130535E-6 3:0.9989241116017703 4:0.565803509985 5:0.439909044354 6:0.767153710168 7:0.3333333333333333 8:0.3333333333333333 9:0.0 10:0.0 11:0.0 12:0.0 13:0.07990310394487078 14:0.09329444371441852 15:0.8268024523407107 16:0.424017903081 17:0.439909044354 18:0.597236739391 19:0.3333333333333333 20:0.3333333333333333 21:0.3333333333333333 22:0.0 23:0.0 24:0.0 25:0.0 26:0.0 27:0.0 28:0.0 29:0.0 30:0.0 31:1.0 32:0.0 33:0.0 34:0.0 35:0.0 36:0.0 37:1.0 38:0.0 39:0.0 40:0.0 41:0.0 42:0.0 43:0.0 44:0.0 
1.0 1:0.7996067166923763 2:2.4114916331218087E-5 3:0.2003691683912926 4:0.874049302044 5:0.52723522288 6:0.678781130416 7:0.5538841792676793 8:0.14598198697103376 9:0.0 10:0.0 11:0.0 12:0.0 13:0.40772341361899433 14:0.5331706820686758 15:0.05910590431232995 16:0.411628137477 17:0.52723522288 18:0.462968894018 19:0.3333333333333333 20:0.3333333333333333 21:0.3333333333333333 22:0.0 23:0.0 24:0.0 25:0.0 26:0.0 27:0.0 28:0.0 29:0.0 30:0.0 31:0.0 32:0.0 33:0.0 34:0.0 35:0.0 36:0.0 37:0.0 38:0.0 39:0.0 40:0.0 41:0.0 42:0.0 43:0.0 44:0.0 
1.0 1:0.15864332565228026 2:7.637258610544163E-6 3:0.8413490370891092 4:0.596960967068 5:0.421994111781 6:0.691648301245 7:0.10419679650920356 8:0.003181959100423151 9:0.0 10:0.0 11:0.0 12:0.0 13:0.9090433108944662 14:0.062066719756186425 15:0.02888996934934734 16:0.596960967068 17:0.421994111781 18:0.615175684944 19:0.3333333333333333 20:0.3333333333333333 21:0.3333333333333333 22:0.0 23:0.0 24:0.0 25:0.0 26:0.0 27:0.0 28:0.0 29:0.0 30:0.0 31:0.0 32:0.0 33:0.0 34:0.0 35:0.0 36:0.0 37:0.0 38:0.0 39:0.0 40:0.0 41:0.0 42:0.0 43:0.0 44:0.0 
1.0 1:0.005829516575883504 2:3.6997199968207267E-6 3:0.9941667837041197 4:0.640211564286 5:0.556083349103 6:0.844293073598 7:0.732954806194618 8:0.05470768488372349 9:0.0 10:0.0 11:0.0 12:0.0 13:0.023982007629277557 14:0.9756747967241253 15:3.4319564659720614E-4 16:0.411628137477 17:0.531663155652 18:0.598801436633 19:0.3333333333333333 20:0.3333333333333333 21:0.3333333333333333 22:0.0 23:0.0 24:0.0 25:0.0 26:0.0 27:0.0 28:0.0 29:0.0 30:0.0 31:0.0 32:1.0 33:0.0 34:0.0 35:0.0 36:0.0 37:2.0 38:0.0 39:0.0 40:0.0 41:0.0 42:1.0 43:0.0 44:0.0 
1.0 1:0.008087389773670297 2:0.0015216076523589229 3:0.9903910025739707 4:0.604548666566 5:0.929136346555 6:0.74019301529 7:0.05948879452524932 8:0.9102139578761245 9:0.0 10:0.0 11:0.0 12:0.0 13:0.46034878839097515 14:0.5377703648793909 15:0.0018808467296340297 16:0.482397407092 17:0.508865512749 18:0.665179581389 19:0.3333333333333333 20:0.3333333333333333 21:0.3333333333333333 22:0.0 23:0.0 24:0.0 25:0.0 26:0.0 27:0.0 28:0.0 29:0.0 30:0.0 31:2.0 32:0.0 33:0.0 34:0.0 35:0.0 36:0.0 37:1.0 38:0.0 39:0.0 40:0.0 41:0.0 42:0.0 43:0.0 44:0.0 
1.0 1:0.133876466786551 2:0.859957272921267 3:0.006166260292181951 4:0.689693708067 5:0.59032124889 6:0.744723481066 7:0.6815587914536205 8:0.13592953790533327 9:0.0 10:0.0 11:0.0 12:0.0 13:0.001921919583091408 14:0.984526710089253 15:0.013551370327655599 16:0.521270564503 17:0.59032124889 18:0.744723481066 19:0.3333333333333333 20:0.3333333333333333 21:0.3333333333333333 22:0.0 23:0.0 24:0.0 25:0.0 26:0.0 27:0.0 28:0.0 29:0.0 30:0.0 31:0.0 32:3.0 33:0.0 34:0.0 35:0.0 36:0.0 37:0.0 38:0.0 39:0.0 40:0.0 41:0.0 42:2.0 43:0.0 44:0.0 
1.0 1:0.979291913246684 2:2.543288252812061E-7 3:0.02070783242449085 4:0.650822948392 5:0.403532354249 6:0.735932117845 7:0.7968302707453168 8:0.0913300116848762 9:0.0 10:0.0 11:0.0 12:0.0 13:0.06981543761318171 14:0.14970406775634604 15:0.7804804946304723 16:0.411628137477 17:0.403532354249 18:0.735932117845 19:0.3333333333333333 20:0.3333333333333333 21:0.3333333333333333 22:0.0 23:0.0 24:0.0 25:0.0 26:0.0 27:0.0 28:0.0 29:0.0 30:0.0 31:0.0 32:0.0 33:0.0 34:0.0 35:0.0 36:0.0 37:1.0 38:0.0 39:0.0 40:0.0 41:0.0 42:0.0 43:0.0 44:0.0 
1.0 1:0.8814466557471791 2:6.75858678369677E-5 3:0.11848575838498412 4:0.605115989121 5:0.544731215388 6:0.673344573285 7:0.567492673944493 8:0.15917909228746077 9:0.0 10:0.0 11:0.0 12:0.0 13:0.7077034625596089 14:0.19831180408880672 15:0.0939847333515844 16:0.519579335248 17:0.544731215388 18:0.532999017767 19:0.3333333333333333 20:0.3333333333333333 21:0.3333333333333333 22:0.0 23:0.0 24:0.0 25:0.0 26:0.0 27:0.0 28:0.0 29:0.0 30:0.0 31:0.0 32:2.0 33:0.0 34:0.0 35:0.0 36:0.0 37:0.0 38:0.0 39:0.0 40:0.0 41:0.0 42:0.0 43:0.0 44:0.0 
1.0 1:0.9956296462424171 2:0.0013619410359980595 3:0.0030084127215848295 4:0.628575774535 5:0.547103877647 6:0.660962862848 7:0.8752652351187611 8:0.04110196259995802 9:0.0 10:0.0 11:0.0 12:0.0 13:0.4510273032072339 14:0.5365070544941344 15:0.012465642298631702 16:0.597563469902 17:0.431138493517 18:0.39071944324 19:0.3333333333333333 20:0.3333333333333333 21:0.3333333333333333 22:0.0 23:0.0 24:0.0 25:0.0 26:0.0 27:0.0 28:0.0 29:0.0 30:0.0 31:0.0 32:0.0 33:0.0 34:0.0 35:0.0 36:0.0 37:0.0 38:0.0 39:0.0 40:0.0 41:0.0 42:0.0 43:0.0 44:0.0 
1.0 1:0.4316628406352759 2:1.2858085498714926E-9 3:0.5683371580789155 4:0.615564171287 5:0.51519302917 6:0.870495045468 7:0.6286667023756911 8:0.04435228248966182 9:0.0 10:0.0 11:0.0 12:0.0 13:0.8783729322142584 14:0.12147861835937655 15:1.4844942636498457E-4 16:0.603387768261 17:0.51519302917 18:0.68953570522 19:0.3333333333333333 20:0.3333333333333333 21:0.3333333333333333 22:0.0 23:0.0 24:0.0 25:0.0 26:0.0 27:0.0 28:0.0 29:0.0 30:0.0 31:0.0 32:0.0 33:0.0 34:0.0 35:0.0 36:0.0 37:1.0 38:0.0 39:0.0 40:0.0 41:0.0 42:1.0 43:0.0 44:0.0 
1.0 1:0.9968010849079787 2:0.003198903872414382 3:1.1219606926746673E-8 4:0.689693708067 5:0.531663155652 6:0.635137449839 7:0.9657110742704288 8:2.4228783641104036E-5 9:0.0 10:0.0 11:0.0 12:0.0 13:0.019726830471403948 14:0.9802731690313528 15:4.972433404141246E-10 16:0.603387768261 17:0.531663155652 18:0.469678926891 19:0.3333333333333333 20:0.3333333333333333 21:0.3333333333333333 22:0.0 23:0.0 24:0.0 25:0.0 26:0.0 27:0.0 28:0.0 29:0.0 30:0.0 31:0.0 32:0.0 33:4.0 34:0.0 35:2.0 36:0.0 37:0.0 38:0.0 39:0.0 40:0.0 41:0.0 42:2.0 43:0.0 44:0.0 
1.0 1:0.9999575773808014 2:4.024687593718194E-5 3:2.1757432613266272E-6 4:0.684934013294 5:0.537877091049 6:0.713966766846 7:0.6659051120883132 8:0.09416029707964231 9:0.0 10:0.0 11:0.0 12:0.0 13:0.1197038404350039 14:0.8789608261588358 15:0.0013353334061603284 16:0.411628137477 17:0.537877091049 18:0.323396373683 19:0.3333333333333333 20:0.3333333333333333 21:0.3333333333333333 22:0.0 23:0.0 24:0.0 25:0.0 26:0.0 27:0.0 28:0.0 29:0.0 30:0.0 31:0.0 32:0.0 33:0.0 34:0.0 35:0.0 36:0.0 37:0.0 38:0.0 39:0.0 40:0.0 41:0.0 42:0.0 43:0.0 44:0.0 
1.0 1:0.020965799259303246 2:2.518150603988775E-6 3:0.9790316825900928 4:0.876975553199 5:0.371151876817 6:0.714480618086 7:0.3333333333333333 8:0.3333333333333333 9:0.0 10:0.0 11:0.0 12:0.0 13:0.24276243452976276 14:0.3922575204401336 15:0.36498004503010373 16:0.335376050173 17:0.371151876817 18:0.388005295438 19:0.9999991213331703 20:1.6242514070273382E-7 21:7.162416890459708E-7 22:0.896337057898 23:0.070189746692 24:0.182992983297 25:0.0 26:0.0 27:0.0 28:0.0 29:0.0 30:0.0 31:0.0 32:0.0 33:0.0 34:0.0 35:0.0 36:0.0 37:0.0 38:0.0 39:0.0 40:0.0 41:0.0 42:0.0 43:0.0 44:0.0 
0.5069517497688655 1:0.9999994106279069 2:5.876013042169569E-7 3:1.7707887493150637E-9 4:0.689693708067 5:0.680251668082 6:0.794882024608 7:0.9999907715875598 8:3.183661063572366E-8 9:0.0 10:0.0 11:0.0 12:0.0 13:0.0016853120383779061 14:0.9983146582852731 15:2.9676349003144593E-8 16:0.597563469902 17:0.531663155652 18:0.553667314195 19:0.3333333333333333 20:0.3333333333333333 21:0.3333333333333333 22:0.0 23:0.0 24:0.0 25:0.0 26:0.0 27:0.0 28:0.0 29:0.0 30:0.0 31:0.0 32:0.0 33:0.0 34:0.0 35:0.0 36:0.0 37:0.0 38:0.0 39:0.0 40:0.0 41:0.0 42:0.0 43:0.0 44:0.0 
1.0 1:7.394576206437054E-5 2:1.149301538953411E-9 3:0.9999260530886341 4:0.873190215237 5:0.536513393024 6:0.840727496332 7:0.9760692186580692 8:0.00537713417656586 9:0.0 10:0.0 11:0.0 12:0.0 13:0.012691773309655879 14:0.007915426009831911 15:0.9793928006805122 16:0.411628137477 17:0.536513393024 18:0.697919410374 19:0.3333333333333333 20:0.3333333333333333 21:0.3333333333333333 22:0.0 23:0.0 24:0.0 25:0.0 26:0.0 27:0.0 28:0.0 29:0.0 30:0.0 31:0.0 32:0.0 33:5.0 34:0.0 35:0.0 36:0.0 37:0.0 38:0.0 39:0.0 40:0.0 41:0.0 42:0.0 43:0.0 44:0.0 
1.0 1:0.4584038842686802 2:3.1471706281075085E-9 3:0.5415961125841491 4:0.550507832549 5:0.616605579671 6:0.73152966283 7:0.4642358718182515 8:0.025300305493738018 9:0.0 10:0.0 11:0.0 12:0.0 13:0.23643629355252585 14:0.7562976256984596 15:0.0072660807490145425 16:0.424017903081 17:0.608336247228 18:0.73152966283 19:0.3333333333333333 20:0.3333333333333333 21:0.3333333333333333 22:0.0 23:0.0 24:0.0 25:0.0 26:0.0 27:0.0 28:0.0 29:0.0 30:0.0 31:0.0 32:0.0 33:2.0 34:0.0 35:0.0 36:0.0 37:0.0 38:0.0 39:0.0 40:0.0 41:0.0 42:0.0 43:0.0 44:0.0 
1.0 1:0.999737568338152 2:2.597678655337252E-4 3:2.6637963142786465E-6 4:0.603387768261 5:0.68804552247 6:0.730999083871 7:0.9402630067943815 8:0.021463717708131658 9:0.0 10:0.0 11:0.0 12:0.0 13:0.2495562092553953 14:0.7504411177683787 15:2.672976225945333E-6 16:0.603387768261 17:0.585323236404 18:0.443966307463 19:0.3333333333333333 20:0.3333333333333333 21:0.3333333333333333 22:0.0 23:0.0 24:0.0 25:0.0 26:0.0 27:0.0 28:0.0 29:0.0 30:0.0 31:0.0 32:0.0 33:0.0 34:0.0 35:0.0 36:0.0 37:0.0 38:0.0 39:0.0 40:0.0 41:0.0 42:0.0 43:0.0 44:0.0 
1.0 1:0.3083068140717424 2:1.0604562982834437E-7 3:0.6916930798826277 4:0.632370843397 5:0.608336247228 6:0.723223743343 7:0.30946182013513923 8:0.0016643022734375622 9:0.0 10:0.0 11:0.0 12:0.0 13:0.4803562730291632 14:0.5196156161898962 15:2.811078094064728E-5 16:0.603387768261 17:0.608336247228 18:0.421718657531 19:0.3333333333333333 20:0.3333333333333333 21:0.3333333333333333 22:0.0 23:0.0 24:0.0 25:0.0 26:0.0 27:0.0 28:0.0 29:0.0 30:0.0 31:1.0 32:0.0 33:1.0 34:0.0 35:0.0 36:0.0 37:0.0 38:0.0 39:0.0 40:0.0 41:0.0 42:0.0 43:0.0 44:0.0 
1.0 1:0.8244625519194927 2:0.17553403232440895 3:3.4157560982821252E-6 4:0.647866384177 5:0.613529828866 6:0.581807742196 7:0.18619987685800002 8:0.300280912732 9:0.0 10:0.0 11:0.0 12:0.0 13:0.6100174913607034 14:0.3899588217578815 15:2.368688141529349E-5 16:0.521998764708 17:0.520902710501 18:0.485832523315 19:0.3333333333333333 20:0.3333333333333333 21:0.3333333333333333 22:0.0 23:0.0 24:0.0 25:0.0 26:0.0 27:0.0 28:0.0 29:0.0 30:0.0 31:0.0 32:0.0 33:0.0 34:0.0 35:0.0 36:0.0 37:1.0 38:0.0 39:1.0 40:0.0 41:0.0 42:1.0 43:0.0 44:0.0 
1.0 1:0.023021962371279542 2:0.0024758768469212928 3:0.9745021607817992 4:0.509856514645 5:0.678311205299 6:0.736678826049 7:0.3333333333333333 8:0.3333333333333333 9:0.0 10:0.0 11:0.0 12:0.0 13:0.11886004605291113 14:0.3356177816211801 15:0.5455221723259088 16:0.438309046749 17:0.678311205299 18:0.736678826049 19:0.3333333333333333 20:0.3333333333333333 21:0.3333333333333333 22:0.0 23:0.0 24:0.0 25:0.0 26:0.0 27:0.0 28:0.0 29:0.0 30:0.0 31:0.0 32:0.0 33:0.0 34:0.0 35:0.0 36:0.0 37:0.0 38:0.0 39:0.0 40:0.0 41:0.0 42:0.0 43:0.0 44:0.0 
1.0 1:1.2923538697117264E-7 2:2.58900342862207E-10 3:0.9999998705057126 4:0.524012932679 5:0.531430034602 6:0.791698779457 7:0.293068130344 8:0.365004687086 9:0.0 10:0.0 11:0.0 12:0.0 13:0.2560208651563338 14:0.3036579278549739 15:0.4403212069886922 16:0.424017903081 17:0.531430034602 18:0.681906192896 19:0.9999533039397152 20:4.6643549505090865E-5 21:5.251077969559152E-8 22:0.992265709804 23:0.667743063073 24:0.122617816084 25:0.0 26:0.0 27:0.0 28:0.0 29:0.0 30:0.0 31:0.0 32:0.0 33:0.0 34:0.0 35:0.0 36:0.0 37:0.0 38:0.0 39:0.0 40:0.0 41:0.0 42:0.0 43:0.0 44:0.0 
1.0 1:0.7337737202018135 2:0.152804142887645 3:0.11342213691054158 4:0.652850727594 5:0.300632680403 6:0.275349416516 7:0.3333333333333333 8:0.3333333333333333 9:0.0 10:0.0 11:0.0 12:0.0 13:0.42401790308099996 14:0.300632680403 15:0.275349416516 16:0.424017903081 17:0.300632680403 18:0.275349416516 19:0.3333333333333333 20:0.3333333333333333 21:0.3333333333333333 22:0.0 23:0.0 24:0.0 25:0.0 26:1.0 27:0.0 28:0.0 29:0.0 30:0.0 31:1.0 32:0.0 33:0.0 34:0.0 35:0.0 36:0.0 37:0.0 38:0.0 39:0.0 40:0.0 41:0.0 42:0.0 43:0.0 44:0.0 
1.0 1:0.003274422272730981 2:4.5615630206777344E-5 3:0.9966799620970623 4:0.7143194348 5:0.611496946345 6:0.775579630202 7:0.5335886629350084 8:0.012473751968449898 9:0.0 10:0.0 11:0.0 12:0.0 13:0.6209170228792126 14:0.37864974283260167 15:4.332342881857637E-4 16:0.603387768261 17:0.550295492601 18:0.539649648209 19:0.3333333333333333 20:0.3333333333333333 21:0.3333333333333333 22:0.0 23:0.0 24:0.0 25:0.0 26:0.0 27:0.0 28:0.0 29:0.0 30:0.0 31:1.0 32:0.0 33:1.0 34:0.0 35:0.0 36:0.0 37:0.0 38:0.0 39:0.0 40:0.0 41:0.0 42:1.0 43:0.0 44:0.0 
1.0 1:0.031941953908074104 2:0.2906775794085617 3:0.6773804666833642 4:0.79193877634 5:0.812351918466 6:0.71226217402 7:0.8737845040750714 8:0.01708644501699459 9:0.0 10:0.0 11:0.0 12:0.0 13:0.0036704278984278325 14:0.9938390006396428 15:0.002490571461929282 16:0.478101320911 17:0.702768754933 18:0.57138240934 19:0.3333333333333333 20:0.3333333333333333 21:0.3333333333333333 22:0.0 23:0.0 24:0.0 25:0.0 26:0.0 27:0.0 28:0.0 29:0.0 30:0.0 31:3.0 32:2.0 33:0.0 34:0.0 35:0.0 36:0.0 37:0.0 38:0.0 39:0.0 40:0.0 41:0.0 42:4.0 43:0.0 44:0.0 
1.0 1:0.005576556596727636 2:2.8770697315166035E-7 3:0.9944231556962992 4:0.807711449875 5:0.65947372274 6:0.742522174052 7:0.9415461188161923 8:0.01820173810162836 9:0.0 10:0.0 11:0.0 12:0.0 13:0.3195571040474692 14:0.6723987682180068 15:0.008044127734524079 16:0.597563469902 17:0.556516293 18:0.650585234834 19:0.3333333333333333 20:0.3333333333333333 21:0.3333333333333333 22:0.0 23:0.0 24:0.0 25:0.0 26:0.0 27:0.0 28:0.0 29:0.0 30:0.0 31:0.0 32:0.0 33:0.0 34:0.0 35:0.0 36:0.0 37:0.0 38:0.0 39:0.0 40:0.0 41:0.0 42:0.0 43:0.0 44:0.0 
1.0 1:0.325886457448816 2:5.676423513850887E-6 3:0.67410786612767 4:0.752153162766 5:0.531663155652 6:0.738620904274 7:0.9450031016095577 8:4.387829360901358E-6 9:0.0 10:0.0 11:0.0 12:0.0 13:7.972137436324757E-4 14:0.9989751017402083 15:2.2768451615924238E-4 16:0.487645324925 17:0.531663155652 18:0.727596748135 19:0.3333333333333333 20:0.3333333333333333 21:0.3333333333333333 22:0.0 23:0.0 24:0.0 25:0.0 26:0.0 27:0.0 28:0.0 29:0.0 30:0.0 31:1.0 32:0.0 33:0.0 34:0.0 35:4.0 36:0.0 37:0.0 38:0.0 39:0.0 40:0.0 41:0.0 42:0.0 43:0.0 44:0.0 
1.0 1:0.9999946537194478 2:5.028798445966798E-6 3:3.174821061963863E-7 4:0.780834882107 5:0.719256605613 6:0.742413558154 7:0.8906049480382755 8:0.06282994087044123 9:0.0 10:0.0 11:0.0 12:0.0 13:0.003267193274578628 14:0.9967324753913326 15:3.313340887538973E-7 16:0.582581223898 17:0.719256605613 18:0.642266261227 19:0.3333333333333333 20:0.3333333333333333 21:0.3333333333333333 22:0.0 23:0.0 24:0.0 25:0.0 26:0.0 27:0.0 28:0.0 29:0.0 30:0.0 31:0.0 32:0.0 33:0.0 34:0.0 35:0.0 36:0.0 37:0.0 38:0.0 39:0.0 40:0.0 41:0.0 42:2.0 43:0.0 44:0.0 
1.0 1:0.007003998677127769 2:3.2037707519055045E-6 3:0.9929927975521203 4:0.678171072007 5:0.808225471555 6:0.834944095104 7:0.3238089194247927 8:0.003231395555117611 9:0.0 10:0.0 11:0.0 12:0.0 13:0.7364211376861526 14:0.24525011682222594 15:0.01832874549162146 16:0.424017903081 17:0.51519302917 18:0.585608888532 19:0.3333333333333333 20:0.3333333333333333 21:0.3333333333333333 22:0.0 23:0.0 24:0.0 25:0.0 26:0.0 27:0.0 28:0.0 29:0.0 30:0.0 31:0.0 32:0.0 33:0.0 34:0.0 35:0.0 36:0.0 37:0.0 38:0.0 39:0.0 40:0.0 41:0.0 42:1.0 43:0.0 44:0.0 
1.0 1:0.8491742499010131 2:4.307255238332162E-6 3:0.15082144284374854 4:0.747855518602 5:0.467217124521 6:0.7039318245 7:0.3393723741881356 8:0.06803993116162721 9:0.0 10:0.0 11:0.0 12:0.0 13:0.4446529928865553 14:0.1649476402568351 15:0.3903993668566096 16:0.444652992887 17:0.164947640257 18:0.390399366857 19:0.3333333333333333 20:0.3333333333333333 21:0.3333333333333333 22:0.0 23:0.0 24:0.0 25:0.0 26:0.0 27:0.0 28:0.0 29:0.0 30:0.0 31:0.0 32:0.0 33:0.0 34:0.0 35:0.0 36:0.0 37:0.0 38:0.0 39:0.0 40:0.0 41:0.0 42:0.0 43:0.0 44:0.0 
0.7144418304083815 1:0.5558160427882377 2:2.9654856314484003E-5 3:0.44415430235544784 4:0.716214652689 5:0.526215043165 6:0.693899081196 7:0.9304165925117157 8:0.019656021893845375 9:0.0 10:0.0 11:0.0 12:0.0 13:0.1651654158934857 14:0.6627810951081314 15:0.17205348899838271 16:0.385761725578 17:0.520902710501 18:0.693899081196 19:0.3333333333333333 20:0.3333333333333333 21:0.3333333333333333 22:0.0 23:0.0 24:0.0 25:0.0 26:0.0 27:1.0 28:0.0 29:0.0 30:0.0 31:1.0 32:0.0 33:0.0 34:0.0 35:3.0 36:0.0 37:0.0 38:0.0 39:0.0 40:0.0 41:0.0 42:0.0 43:0.0 44:0.0 
1.0 1:1.6700084897426622E-7 2:8.435549285241785E-10 3:0.9999998321555962 4:0.729992445481 5:0.442936025919 6:0.901565438253 7:0.5833577204875344 8:0.0959480640212225 9:0.0 10:0.0 11:0.0 12:0.0 13:0.5689351292908038 14:0.008682496078845947 15:0.42238237463035017 16:0.729992445481 17:0.378920735745 18:0.901565438253 19:0.8295534844797512 20:0.09240369784567229 21:0.07804281767457659 22:0.82955348448 23:0.0924036978457 24:0.0780428176746 25:0.0 26:0.0 27:0.0 28:0.0 29:0.0 30:0.0 31:1.0 32:0.0 33:0.0 34:0.0 35:0.0 36:0.0 37:0.0 38:0.0 39:0.0 40:0.0 41:0.0 42:0.0 43:0.0 44:0.0 
1.0 1:0.9985238068577966 2:0.0011902858584889294 3:2.859072837144329E-4 4:0.73418395054 5:0.559305498599 6:0.59258769465 7:0.6079059418622266 8:0.04975477391721644 9:0.0 10:0.0 11:0.0 12:0.0 13:0.3896948047864937 14:0.6079996572998166 15:0.0023055379136896056 16:0.603387768261 17:0.559305498599 18:0.496093354828 19:0.3333333333333333 20:0.3333333333333333 21:0.3333333333333333 22:0.0 23:0.0 24:0.0 25:0.0 26:0.0 27:0.0 28:0.0 29:0.0 30:0.0 31:1.0 32:0.0 33:0.0 34:0.0 35:3.0 36:0.0 37:0.0 38:0.0 39:0.0 40:0.0 41:0.0 42:0.0 43:0.0 44:0.0 
1.0 1:0.29725731331372074 2:0.049846208165265804 3:0.6528964785210134 4:0.414562717758 5:0.412899439923 6:0.593803130541 7:0.3333333333333333 8:0.3333333333333333 9:0.0 10:0.0 11:0.0 12:0.0 13:0.2588938289971888 14:0.21837641343908049 15:0.5227297575637305 16:0.319892242694 17:0.412899439923 18:0.593803130541 19:0.3333333333333333 20:0.3333333333333333 21:0.3333333333333333 22:0.0 23:0.0 24:0.0 25:0.0 26:0.0 27:0.0 28:0.0 29:0.0 30:0.0 31:0.0 32:0.0 33:0.0 34:0.0 35:0.0 36:0.0 37:0.0 38:0.0 39:0.0 40:0.0 41:0.0 42:0.0 43:0.0 44:0.0 
1.0 1:5.906654544716933E-23 2:8.689659180055966E-25 3:1.0 4:0.755683474994 5:0.709308663386 6:0.888017519798 7:0.8538777686315957 8:0.10260196457145983 9:0.0 10:0.0 11:0.0 12:0.0 13:4.645489735026124E-5 14:2.4729713270164703E-4 15:0.9997062479699481 16:0.424017903081 17:0.63279149336 18:0.745600797576 19:0.3333333333333333 20:0.3333333333333333 21:0.3333333333333333 22:0.0 23:0.0 24:0.0 25:0.0 26:0.0 27:0.0 28:0.0 29:0.0 30:0.0 31:0.0 32:1.0 33:1.0 34:3.0 35:0.0 36:0.0 37:0.0 38:0.0 39:0.0 40:0.0 41:0.0 42:1.0 43:0.0 44:0.0 
0.22884043593045592 1:0.09227632958915977 2:7.110970956548613E-19 3:0.9077236704108402 4:0.924905814535 5:0.571199005887 6:0.723563978871 7:0.49864411326136415 8:0.024326544948012885 9:0.0 10:0.0 11:0.0 12:0.0 13:0.9909953866422081 14:0.00846825465107827 15:5.363587067137137E-4 16:0.623120478806 17:0.571199005887 18:0.440099095061 19:0.3333333333333333 20:0.3333333333333333 21:0.3333333333333333 22:0.0 23:0.0 24:0.0 25:0.0 26:0.0 27:0.0 28:0.0 29:0.0 30:0.0 31:0.0 32:0.0 33:0.0 34:0.0 35:4.0 36:14.0 37:0.0 38:0.0 39:0.0 40:0.0 41:0.0 42:0.0 43:0.0 44:14.0 
1.0 1:0.001068319608226987 2:0.13470424138201167 3:0.8642274390097614 4:0.689693708067 5:0.657735238038 6:0.719729853008 7:0.023098696183036907 8:0.6444252254924472 9:0.0 10:0.0 11:0.0 12:0.0 13:0.737644865508848 14:0.2620458772194872 15:3.092572716647417E-4 16:0.623120478806 17:0.571199005887 18:0.598801436633 19:0.3333333333333333 20:0.3333333333333333 21:0.3333333333333333 22:0.0 23:0.0 24:0.0 25:0.0 26:0.0 27:0.0 28:0.0 29:0.0 30:0.0 31:0.0 32:0.0 33:0.0 34:0.0 35:0.0 36:0.0 37:0.0 38:0.0 39:0.0 40:0.0 41:0.0 42:0.0 43:0.0 44:0.0 
1.0 1:0.014303760584123668 2:1.0629950899500988E-7 3:0.9856961331163673 4:0.755683474994 5:0.513799842224 6:0.877830583379 7:0.840420178391481 8:0.10058584395413595 9:0.0 10:0.0 11:0.0 12:0.0 13:0.10731689808715503 14:0.07551287300985761 15:0.8171702289029873 16:0.424017903081 17:0.513799842224 18:0.835590228762 19:0.3333333333333333 20:0.3333333333333333 21:0.3333333333333333 22:0.0 23:0.0 24:0.0 25:0.0 26:0.0 27:0.0 28:0.0 29:0.0 30:0.0 31:1.0 32:0.0 33:0.0 34:0.0 35:0.0 36:0.0 37:0.0 38:0.0 39:0.0 40:0.0 41:0.0 42:0.0 43:0.0 44:0.0 
1.447967603117044E-4 1:0.0015309509575184134 2:0.8882181171335887 3:0.11025093190889286 4:0.689693708067 5:0.719256605613 6:0.751541433951 7:0.55760790006985 8:0.06383358778501622 9:0.0 10:0.0 11:0.0 12:0.0 13:0.0025026550036874352 14:0.9974819153196883 15:1.542967662436314E-5 16:0.603387768261 17:0.719256605613 18:0.57138240934 19:0.3333333333333333 20:0.3333333333333333 21:0.3333333333333333 22:0.0 23:0.0 24:0.0 25:0.0 26:0.0 27:0.0 28:0.0 29:0.0 30:0.0 31:6.0 32:1.0 33:0.0 34:0.0 35:0.0 36:0.0 37:0.0 38:0.0 39:0.0 40:0.0 41:0.0 42:4.0 43:0.0 44:0.0 
1.0 1:0.886634621972152 2:0.0012139360566074135 3:0.1121514419712406 4:0.737544024561 5:0.606762777098 6:0.756363027899 7:0.4889091828109586 8:0.46478269174029146 9:0.0 10:0.0 11:0.0 12:0.0 13:0.2804545013715224 14:0.18071289642701877 15:0.5388326022014589 16:0.41269052995 17:0.508865512749 18:0.650585234834 19:0.3333333333333333 20:0.3333333333333333 21:0.3333333333333333 22:0.0 23:0.0 24:0.0 25:0.0 26:0.0 27:0.0 28:0.0 29:0.0 30:0.0 31:0.0 32:1.0 33:5.0 34:0.0 35:0.0 36:0.0 37:0.0 38:0.0 39:0.0 40:0.0 41:0.0 42:0.0 43:0.0 44:0.0 
1.0 1:0.9992608898521348 2:7.351132642426124E-4 3:3.99688362245898E-6 4:0.611479879677 5:0.68429351471 6:0.80511302186 7:0.35421922320378046 8:0.6136347692345873 9:0.0 10:0.0 11:0.0 12:0.0 13:0.004919367851556326 14:0.9950804986817443 15:1.3346669942650783E-7 16:0.603387768261 17:0.68429351471 18:0.481994816343 19:0.3333333333333333 20:0.3333333333333333 21:0.3333333333333333 22:0.0 23:0.0 24:0.0 25:0.0 26:0.0 27:0.0 28:0.0 29:0.0 30:0.0 31:0.0 32:0.0 33:0.0 34:0.0 35:0.0 36:0.0 37:0.0 38:0.0 39:0.0 40:0.0 41:0.0 42:0.0 43:0.0 44:0.0 
1.0 1:6.365621900082841E-10 2:3.140483835203517E-7 3:0.9999996853150542 4:0.603387768261 5:0.601862959543 6:0.879006340986 7:0.4648026408114649 8:0.2656199324932656 9:0.0 10:0.0 11:0.0 12:0.0 13:0.0020912441895079834 14:0.04740857716848305 15:0.950500178642009 16:0.603387768261 17:0.550295492601 18:0.830890869427 19:0.3333333333333333 20:0.3333333333333333 21:0.3333333333333333 22:0.0 23:0.0 24:0.0 25:0.0 26:0.0 27:0.0 28:0.0 29:0.0 30:0.0 31:0.0 32:0.0 33:2.0 34:0.0 35:0.0 36:0.0 37:0.0 38:0.0 39:0.0 40:0.0 41:0.0 42:0.0 43:0.0 44:0.0 
1.0 1:1.3332966263805346E-9 2:1.5744414253636542E-15 3:0.9999999986667019 4:0.57686017979 5:0.533603259902 6:0.867521597047 7:0.07491223641367419 8:0.00891325816162714 9:0.0 10:0.0 11:0.0 12:0.0 13:0.4632671416302548 14:0.025859035351713314 15:0.5108738230180319 16:0.519579335248 17:0.51519302917 18:0.697919410374 19:0.3333333333333333 20:0.3333333333333333 21:0.3333333333333333 22:0.0 23:0.0 24:0.0 25:0.0 26:0.0 27:0.0 28:0.0 29:0.0 30:0.0 31:0.0 32:0.0 33:0.0 34:0.0 35:0.0 36:0.0 37:0.0 38:0.0 39:0.0 40:0.0 41:0.0 42:0.0 43:0.0 44:0.0 
1.0 1:1.0545186290544905E-8 2:7.215665401241647E-15 3:0.9999999894548065 4:0.603387768261 5:0.369702557004 6:0.798305506225 7:0.6166836647610646 8:0.08032049695201221 9:0.0 10:0.0 11:0.0 12:0.0 13:0.2737777361169862 14:0.06691024889308188 15:0.6593120149899319 16:0.603387768261 17:0.369702557004 18:0.693899081196 19:0.3333333333333333 20:0.3333333333333333 21:0.3333333333333333 22:0.0 23:0.0 24:0.0 25:0.0 26:0.0 27:0.0 28:0.0 29:0.0 30:0.0 31:3.0 32:0.0 33:0.0 34:0.0 35:0.0 36:0.0 37:0.0 38:0.0 39:0.0 40:0.0 41:0.0 42:0.0 43:0.0 44:0.0 
1.0 1:0.49437137243492746 2:0.2202696789376428 3:0.2853589486274297 4:0.874049302044 5:0.550295492601 6:0.769510604921 7:0.13463526111 8:0.095854133969 9:0.0 10:0.0 11:0.0 12:0.0 13:0.2264602118037362 14:0.7400594236457423 15:0.03348036455052156 16:0.411628137477 17:0.550295492601 18:0.273184374238 19:0.3333333333333333 20:0.3333333333333333 21:0.3333333333333333 22:0.0 23:0.0 24:0.0 25:0.0 26:0.0 27:0.0 28:0.0 29:0.0 30:0.0 31:0.0 32:0.0 33:0.0 34:0.0 35:0.0 36:0.0 37:0.0 38:0.0 39:0.0 40:0.0 41:0.0 42:0.0 43:0.0 44:0.0 
1.0 1:1.984186842319521E-5 2:0.9999801576042268 3:5.273499780542229E-10 4:0.64189327515 5:0.682204386419 6:0.744723481066 7:0.25301282961594007 8:0.46376091361631 9:0.0 10:0.0 11:0.0 12:0.0 13:0.026903246237769313 14:0.9730961675512649 15:5.862109658050435E-7 16:0.521998764708 17:0.631551084504 18:0.744723481066 19:0.3333333333333333 20:0.3333333333333333 21:0.3333333333333333 22:0.0 23:0.0 24:0.0 25:0.0 26:0.0 27:0.0 28:0.0 29:0.0 30:0.0 31:0.0 32:0.0 33:0.0 34:0.0 35:0.0 36:0.0 37:0.0 38:0.0 39:0.0 40:0.0 41:0.0 42:0.0 43:0.0 44:0.0 
1.0 1:0.8743415298133841 2:3.674031241196209E-5 3:0.125621729874204 4:0.563540121174 5:0.604881466767 6:0.81817348658 7:0.12186327073940371 8:0.6022056171602945 9:0.0 10:0.0 11:0.0 12:0.0 13:0.002491733530513335 14:0.9975045711289703 15:3.6953405164291357E-6 16:0.424017903081 17:0.571199005887 18:0.81817348658 19:0.3333333333333333 20:0.3333333333333333 21:0.3333333333333333 22:0.0 23:0.0 24:0.0 25:0.0 26:0.0 27:0.0 28:0.0 29:0.0 30:0.0 31:1.0 32:0.0 33:0.0 34:0.0 35:0.0 36:0.0 37:0.0 38:0.0 39:0.0 40:0.0 41:0.0 42:0.0 43:0.0 44:0.0 
1.0 1:1.1079934685235258E-7 2:1.1263831038492003E-19 3:0.9999998892006532 4:0.876975553199 5:0.383826338619 6:0.838078465539 7:0.8714360022136555 8:0.048765767816394474 9:0.0 10:0.0 11:0.0 12:0.0 13:0.034962870317147114 14:5.199642438249924E-4 15:0.9645171654390279 16:0.411628137477 17:0.383826338619 18:0.499095870179 19:0.3333333333333333 20:0.3333333333333333 21:0.3333333333333333 22:0.0 23:0.0 24:0.0 25:0.0 26:0.0 27:0.0 28:0.0 29:0.0 30:0.0 31:5.0 32:0.0 33:0.0 34:0.0 35:0.0 36:0.0 37:0.0 38:0.0 39:0.0 40:0.0 41:0.0 42:0.0 43:0.0 44:0.0 
1.0 1:0.9789104201928693 2:2.9989973238329736E-4 3:0.020789680074747366 4:0.597563469902 5:0.550295492601 6:0.685545020015 7:0.019266292498189553 8:0.020323950726626988 9:0.0 10:0.0 11:0.0 12:0.0 13:0.5705574972400455 14:0.4289774470342733 15:4.6505572568137016E-4 16:0.597563469902 17:0.550295492601 18:0.413365483192 19:0.3333333333333333 20:0.3333333333333333 21:0.3333333333333333 22:0.0 23:0.0 24:0.0 25:0.0 26:0.0 27:0.0 28:0.0 29:0.0 30:0.0 31:0.0 32:0.0 33:0.0 34:0.0 35:1.0 36:0.0 37:0.0 38:0.0 39:0.0 40:0.0 41:0.0 42:0.0 43:0.0 44:0.0 
1.0 1:1.0829368395327583E-8 2:3.5980965355067E-13 3:0.9999999891702719 4:0.861780888433 5:0.715191420303 6:0.925799519879 7:0.3114012287147581 8:0.0016452685130744656 9:0.0 10:0.0 11:0.0 12:0.0 13:0.05303944734307228 14:0.9462037589450859 15:7.567937118418453E-4 16:0.411628137477 17:0.556516293 18:0.553667314195 19:0.3333333333333333 20:0.3333333333333333 21:0.3333333333333333 22:0.0 23:0.0 24:0.0 25:0.0 26:0.0 27:0.0 28:0.0 29:0.0 30:0.0 31:0.0 32:0.0 33:0.0 34:0.0 35:0.0 36:0.0 37:0.0 38:0.0 39:0.0 40:0.0 41:0.0 42:0.0 43:0.0 44:0.0 
1.0 1:0.0022683451415141027 2:2.2991944482143233E-7 3:0.9977314249390411 4:0.844764812591 5:0.430065558219 6:0.756363027899 7:0.8167753072290599 8:0.1282753967567868 9:0.0 10:0.0 11:0.0 12:0.0 13:0.07220919509275207 14:0.05961009379702135 15:0.8681807111102265 16:0.279841794308 17:0.430065558219 18:0.697919410374 19:0.3333333333333333 20:0.3333333333333333 21:0.3333333333333333 22:0.0 23:0.0 24:0.0 25:0.0 26:0.0 27:0.0 28:0.0 29:0.0 30:0.0 31:2.0 32:0.0 33:0.0 34:0.0 35:0.0 36:0.0 37:0.0 38:0.0 39:0.0 40:0.0 41:0.0 42:0.0 43:0.0 44:0.0 
1.0 1:0.9909683534210602 2:0.009030428468647371 3:1.2181102923327208E-6 4:0.769461885264 5:0.680096478383 6:0.823046083798 7:0.8841827607019725 8:0.1071275588904521 9:0.0 10:0.0 11:0.0 12:0.0 13:0.029533574866770634 14:0.970452167001584 15:1.4258131645250237E-5 16:0.536718704295 17:0.554316345203 18:0.578032250519 19:0.3333333333333333 20:0.3333333333333333 21:0.3333333333333333 22:0.0 23:0.0 24:0.0 25:0.0 26:0.0 27:0.0 28:0.0 29:0.0 30:0.0 31:0.0 32:0.0 33:0.0 34:0.0 35:0.0 36:0.0 37:0.0 38:0.0 39:0.0 40:0.0 41:0.0 42:1.0 43:0.0 44:0.0 
1.0 1:2.1223741446781157E-4 2:1.9999209017007174E-7 3:0.999787562593442 4:0.795935856362 5:0.653313011815 6:0.758342813276 7:0.987409111764889 8:0.004919226129099137 9:0.0 10:0.0 11:0.0 12:0.0 13:0.009386362026541641 14:0.13008926982760066 15:0.8605243681458576 16:0.468948595078 17:0.597804785989 18:0.752291920268 19:0.3333333333333333 20:0.3333333333333333 21:0.3333333333333333 22:0.0 23:0.0 24:0.0 25:0.0 26:0.0 27:0.0 28:0.0 29:0.0 30:0.0 31:0.0 32:0.0 33:1.0 34:0.0 35:0.0 36:0.0 37:0.0 38:0.0 39:0.0 40:0.0 41:0.0 42:0.0 43:0.0 44:0.0 
1.0 1:0.7957861410779583 2:6.24203553763681E-7 3:0.204213234718488 4:0.665038390991 5:0.550295492601 6:0.777448977454 7:0.3333333333333333 8:0.3333333333333333 9:0.0 10:0.0 11:0.0 12:0.0 13:0.8388936439505396 14:0.15722540742868468 15:0.00388094862077578 16:0.619273230486 17:0.550295492601 18:0.665486461997 19:0.3333333333333333 20:0.3333333333333333 21:0.3333333333333333 22:0.0 23:0.0 24:0.0 25:0.0 26:0.0 27:0.0 28:0.0 29:0.0 30:0.0 31:1.0 32:0.0 33:5.0 34:0.0 35:0.0 36:0.0 37:0.0 38:0.0 39:0.0 40:0.0 41:0.0 42:0.0 43:0.0 44:0.0 
1.0 1:0.6681197437191577 2:0.01308799160418216 3:0.3187922646766602 4:0.720103429118 5:0.619869568938 6:0.81817348658 7:0.38971832924600003 8:0.18612677626900004 9:0.0 10:0.0 11:0.0 12:0.0 13:0.04131119359834451 14:0.9454806752828565 15:0.013208131118798988 16:0.411628137477 17:0.520902710501 18:0.81817348658 19:0.3333333333333333 20:0.3333333333333333 21:0.3333333333333333 22:0.0 23:0.0 24:0.0 25:0.0 26:0.0 27:0.0 28:0.0 29:0.0 30:0.0 31:0.0 32:0.0 33:0.0 34:0.0 35:0.0 36:0.0 37:0.0 38:0.0 39:0.0 40:0.0 41:0.0 42:0.0 43:0.0 44:0.0 
1.0 1:3.033440030719533E-6 2:3.700884640590367E-15 3:0.9999969665599655 4:0.581761921002 5:0.439909044354 6:0.872185105065 7:0.6606351643023958 8:0.004764758929366545 9:0.0 10:0.0 11:0.0 12:0.0 13:0.6409141257304942 14:0.055550187570633326 15:0.3035356866988725 16:0.424017903081 17:0.439909044354 18:0.650585234834 19:0.3333333333333333 20:0.3333333333333333 21:0.3333333333333333 22:0.0 23:0.0 24:0.0 25:0.0 26:0.0 27:0.0 28:0.0 29:0.0 30:0.0 31:0.0 32:0.0 33:4.0 34:0.0 35:0.0 36:0.0 37:0.0 38:0.0 39:0.0 40:0.0 41:0.0 42:1.0 43:0.0 44:0.0 
1.0 1:0.2157932730006476 2:2.457830662437498E-4 3:0.7839609439331087 4:0.91730648783 5:0.378920735745 6:0.741782815493 7:0.9173064878298166 8:0.05138995895008972 9:0.0 10:0.0 11:0.0 12:0.0 13:0.6301957762810312 14:0.3097425024873981 15:0.06006172123157059 16:0.614045615247 17:0.378920735745 18:0.552120146579 19:0.3333333333333333 20:0.3333333333333333 21:0.3333333333333333 22:0.0 23:0.0 24:0.0 25:0.0 26:0.0 27:0.0 28:0.0 29:0.0 30:0.0 31:0.0 32:0.0 33:0.0 34:0.0 35:0.0 36:0.0 37:2.0 38:0.0 39:0.0 40:0.0 41:0.0 42:0.0 43:0.0 44:0.0 
1.0 1:0.792487191261952 2:0.06056159611818648 3:0.1469512126198616 4:0.876975553199 5:0.438489451608 6:0.583926565207 7:0.3333333333333333 8:0.3333333333333333 9:0.0 10:0.0 11:0.0 12:0.0 13:0.3333333333333333 14:0.3333333333333333 15:0.3333333333333333 16:0.0 17:0.0 18:0.0 19:0.3333333333333333 20:0.3333333333333333 21:0.3333333333333333 22:0.0 23:0.0 24:0.0 25:0.0 26:0.0 27:0.0 28:0.0 29:0.0 30:0.0 31:0.0 32:0.0 33:0.0 34:0.0 35:0.0 36:0.0 37:0.0 38:0.0 39:0.0 40:0.0 41:0.0 42:0.0 43:0.0 44:0.0 
1.0 1:2.1189648446841517E-4 2:2.395500470372438E-13 3:0.9997881035152921 4:0.755683474994 5:0.608336247228 6:0.836414166177 7:0.8733111770803882 8:0.11891823852071651 9:0.0 10:0.0 11:0.0 12:0.0 13:0.011122383722127474 14:1.891270398025377E-5 15:0.9888587035738923 16:0.729992445481 17:0.608336247228 18:0.836414166177 19:0.3333333333333333 20:0.3333333333333333 21:0.3333333333333333 22:0.0 23:0.0 24:0.0 25:0.0 26:0.0 27:0.0 28:0.0 29:0.0 30:0.0 31:0.0 32:0.0 33:0.0 34:0.0 35:0.0 36:0.0 37:0.0 38:0.0 39:0.0 40:0.0 41:0.0 42:1.0 43:0.0 44:0.0 
1.0 1:5.043864911606865E-5 2:1.6043636647029605E-5 3:0.9999335177142369 4:0.73418395054 5:0.526215043165 6:0.701718715045 7:0.21523791054569877 8:0.22619392815290687 9:0.0 10:0.0 11:0.0 12:0.0 13:0.0026838031522925672 14:0.001089583354881844 15:0.9962266134928256 16:0.555857447643 17:0.520902710501 18:0.593803130541 19:0.3333333333333333 20:0.3333333333333333 21:0.3333333333333333 22:0.0 23:0.0 24:0.0 25:0.0 26:0.0 27:0.0 28:0.0 29:0.0 30:0.0 31:1.0 32:0.0 33:0.0 34:0.0 35:3.0 36:0.0 37:0.0 38:0.0 39:0.0 40:0.0 41:0.0 42:0.0 43:0.0 44:0.0 
1.0 1:0.952398015586976 2:0.011698483677451401 3:0.03590350073557256 4:0.647234681127 5:0.695698204265 6:0.772138713863 7:0.1796406564662325 8:0.8023292164404746 9:0.0 10:0.0 11:0.0 12:0.0 13:0.32873980490410926 14:0.6499568953924971 15:0.021303299703393622 16:0.568594764342 17:0.608336247228 18:0.671639821625 19:0.3333333333333333 20:0.3333333333333333 21:0.3333333333333333 22:0.0 23:0.0 24:0.0 25:0.0 26:0.0 27:0.0 28:0.0 29:0.0 30:0.0 31:0.0 32:0.0 33:2.0 34:0.0 35:0.0 36:0.0 37:2.0 38:0.0 39:0.0 40:0.0 41:0.0 42:0.0 43:0.0 44:0.0 
1.0 1:0.9991369232197472 2:3.2720502957292265E-6 3:8.598047299570821E-4 4:0.661092213259 5:0.608336247228 6:0.718150656747 7:0.8450686895245163 8:0.002175303951364068 9:0.0 10:0.0 11:0.0 12:0.0 13:0.005066897110641321 14:0.9947055221833015 15:2.2758070605736005E-4 16:0.411628137477 17:0.608336247228 18:0.616881255992 19:0.3333333333333333 20:0.3333333333333333 21:0.3333333333333333 22:0.0 23:0.0 24:0.0 25:0.0 26:0.0 27:0.0 28:0.0 29:0.0 30:0.0 31:0.0 32:0.0 33:0.0 34:0.0 35:0.0 36:0.0 37:0.0 38:0.0 39:0.0 40:0.0 41:0.0 42:0.0 43:0.0 44:0.0 
1.0 1:0.9995136666249217 2:7.905056771580118E-9 3:4.8632547002135773E-4 4:0.810235269299 5:0.472859730976 6:0.640681502298 7:0.7453164239463206 8:0.12701224869696118 9:0.0 10:0.0 11:0.0 12:0.0 13:0.7310797044953325 14:0.0017264934357415997 15:0.2671938020689258 16:0.733726880443 17:0.472859730976 18:0.640681502298 19:0.3333333333333333 20:0.3333333333333333 21:0.3333333333333333 22:0.0 23:0.0 24:0.0 25:0.0 26:0.0 27:0.0 28:0.0 29:0.0 30:0.0 31:0.0 32:0.0 33:0.0 34:0.0 35:0.0 36:0.0 37:1.0 38:0.0 39:0.0 40:0.0 41:0.0 42:0.0 43:0.0 44:0.0 
1.0 1:0.9980659015178741 2:4.9032286099631925E-12 3:0.0019340984772227557 4:0.761232170658 5:0.550295492601 6:0.687499204912 7:0.8416540381387835 8:3.7228030106053424E-7 9:0.0 10:0.0 11:0.0 12:0.0 13:0.5225216440349083 14:0.46211300044227616 15:0.015365355522815656 16:0.597563469902 17:0.550295492601 18:0.462968894018 19:0.3333333333333333 20:0.3333333333333333 21:0.3333333333333333 22:0.0 23:0.0 24:0.0 25:0.0 26:0.0 27:0.0 28:0.0 29:0.0 30:0.0 31:0.0 32:0.0 33:2.0 34:0.0 35:0.0 36:0.0 37:0.0 38:0.0 39:0.0 40:0.0 41:0.0 42:0.0 43:0.0 44:0.0 
1.0 1:0.003941837751928591 2:2.3140004172765593E-5 3:0.9960350222438986 4:0.810235269299 5:0.536513393024 6:0.904247681957 7:0.33333333333333337 8:0.33333333333333337 9:0.0 10:0.0 11:0.0 12:0.0 13:0.1019483662106122 14:0.0775253268235666 15:0.8205263069658212 16:0.440079878096 17:0.536513393024 18:0.630066360081 19:0.8627985917615686 20:0.06483891100636757 21:0.07236249723206381 22:0.862798591762 23:0.0648389110064 24:0.0723624972321 25:0.0 26:0.0 27:0.0 28:0.0 29:0.0 30:0.0 31:0.0 32:0.0 33:0.0 34:0.0 35:0.0 36:0.0 37:1.0 38:0.0 39:0.0 40:0.0 41:0.0 42:0.0 43:0.0 44:0.0 
1.0 1:0.04779713685811106 2:3.7204602805155333E-7 3:0.9522024910958609 4:0.580768785823 5:0.531663155652 6:0.81817348658 7:0.3333333333333333 8:0.3333333333333333 9:0.0 10:0.0 11:0.0 12:0.0 13:0.03537173137328797 14:0.0029632574707433275 15:0.9616650111559687 16:0.494211202602 17:0.531663155652 18:0.81817348658 19:0.3333333333333333 20:0.3333333333333333 21:0.3333333333333333 22:0.0 23:0.0 24:0.0 25:0.0 26:0.0 27:0.0 28:0.0 29:0.0 30:0.0 31:0.0 32:0.0 33:0.0 34:0.0 35:0.0 36:0.0 37:2.0 38:0.0 39:0.0 40:0.0 41:0.0 42:0.0 43:0.0 44:0.0 
1.0 1:0.9999999773625087 2:2.2636654910389736E-8 3:8.364524780787547E-13 4:0.953317146591 5:0.812351918466 6:0.499837664408 7:0.3333333333333333 8:0.3333333333333333 9:0.0 10:0.0 11:0.0 12:0.0 13:0.9815933169008926 14:0.018404384928373915 15:2.298170733553851E-6 16:0.953317146591 17:0.589580325034 18:0.499837664408 19:0.3333333333333333 20:0.3333333333333333 21:0.3333333333333333 22:0.0 23:0.0 24:0.0 25:0.0 26:0.0 27:0.0 28:0.0 29:0.0 30:0.0 31:0.0 32:0.0 33:0.0 34:0.0 35:8.0 36:0.0 37:0.0 38:0.0 39:0.0 40:0.0 41:0.0 42:1.0 43:0.0 44:0.0 
1.0 1:1.7074064538669825E-4 2:0.005594591496445867 3:0.9942346678581674 4:0.555857447643 5:0.71137774996 6:0.867579943843 7:0.3333333333333333 8:0.3333333333333333 9:0.0 10:0.0 11:0.0 12:0.0 13:0.13110730190188982 14:0.8191366329588019 15:0.04975606513930823 16:0.555857447643 17:0.608336247228 18:0.606225556742 19:0.9963340920024703 20:1.4951729390083976E-6 21:0.003664412824590841 22:0.666717627906 23:0.0713383418832 24:0.26194403021 25:0.0 26:0.0 27:0.0 28:0.0 29:0.0 30:0.0 31:0.0 32:1.0 33:0.0 34:0.0 35:0.0 36:0.0 37:0.0 38:0.0 39:0.0 40:0.0 41:0.0 42:1.0 43:0.0 44:0.0 
1.0 1:0.002204806036622369 2:3.613069165279948E-5 3:0.9977590632717248 4:0.746783743253 5:0.54277291825 6:0.797859970127 7:0.7128225660535978 8:0.022370751240892515 9:0.0 10:0.0 11:0.0 12:0.0 13:0.29349100812267814 14:0.6471476889934893 15:0.05936130288383262 16:0.426029938029 17:0.47313901386 18:0.539649648209 19:0.3333333333333333 20:0.3333333333333333 21:0.3333333333333333 22:0.0 23:0.0 24:0.0 25:0.0 26:0.0 27:0.0 28:0.0 29:0.0 30:0.0 31:2.0 32:0.0 33:0.0 34:0.0 35:0.0 36:0.0 37:0.0 38:0.0 39:0.0 40:0.0 41:0.0 42:0.0 43:0.0 44:0.0 
1.0 1:1.5207203092812247E-6 2:1.1548488699844723E-13 3:0.9999984792795753 4:0.752240908821 5:0.810600184771 6:0.756781844913 7:0.34626466902406833 8:0.026730151724923476 9:0.0 10:0.0 11:0.0 12:0.0 13:4.647385338696242E-4 14:0.0036132674811353497 15:0.995921993984995 16:0.429585750739 17:0.793667354042 18:0.741502466006 19:0.3333333333333333 20:0.3333333333333333 21:0.3333333333333333 22:0.0 23:0.0 24:0.0 25:0.0 26:0.0 27:0.0 28:0.0 29:0.0 30:0.0 31:2.0 32:0.0 33:1.0 34:0.0 35:0.0 36:0.0 37:0.0 38:0.0 39:0.0 40:0.0 41:0.0 42:0.0 43:0.0 44:0.0 
1.0 1:6.093362557030318E-11 2:7.106257485887656E-15 3:0.9999999999390593 4:0.805342632431 5:0.435809508169 6:0.807855854982 7:0.9577956795717205 8:0.00792512002387172 9:0.0 10:0.0 11:0.0 12:0.0 13:0.0021037849126482274 14:4.723242381804022E-4 15:0.9974238908491714 16:0.411628137477 17:0.435809508169 18:0.807855854982 19:0.3333333333333333 20:0.3333333333333333 21:0.3333333333333333 22:0.0 23:0.0 24:0.0 25:0.0 26:0.0 27:0.0 28:0.0 29:0.0 30:0.0 31:1.0 32:0.0 33:0.0 34:0.0 35:0.0 36:0.0 37:0.0 38:0.0 39:0.0 40:0.0 41:0.0 42:0.0 43:0.0 44:0.0 
1.0 1:0.4011343790465887 2:0.0010296706819140158 3:0.5978359502714973 4:0.779796998113 5:0.716493435492 6:0.698217586819 7:0.3673141773750555 8:0.2396618272563507 9:0.0 10:0.0 11:0.0 12:0.0 13:0.7767464104978317 14:0.07049161105493806 15:0.15276197844723036 16:0.733726880443 17:0.608336247228 18:0.670284508798 19:0.3333333333333333 20:0.3333333333333333 21:0.3333333333333333 22:0.0 23:0.0 24:0.0 25:0.0 26:0.0 27:0.0 28:0.0 29:0.0 30:0.0 31:1.0 32:0.0 33:0.0 34:0.0 35:0.0 36:0.0 37:0.0 38:0.0 39:0.0 40:0.0 41:0.0 42:0.0 43:0.0 44:0.0 
1.0 1:0.16466421059935646 2:0.04210230666166532 3:0.7932334827389782 4:0.603387768261 5:0.580804656599 6:0.80360253954 7:0.396106686299 8:0.509272300093 9:0.0 10:0.0 11:0.0 12:0.0 13:0.03693807758869265 14:0.8786377953922014 15:0.08442412701910577 16:0.603387768261 17:0.577950501464 18:0.80360253954 19:0.9841714497900313 20:0.015812883993358437 21:1.5666216610169148E-5 22:0.661988754884 23:0.318399213745 24:0.0775525000145 25:0.0 26:0.0 27:0.0 28:0.0 29:0.0 30:0.0 31:0.0 32:0.0 33:0.0 34:0.0 35:0.0 36:0.0 37:0.0 38:0.0 39:0.0 40:0.0 41:0.0 42:0.0 43:0.0 44:0.0 
1.0 1:0.05792256387147587 2:0.00825652436492884 3:0.9338209117635954 4:0.557632406508 5:0.608336247228 6:0.687261810499 7:0.4564070222198586 8:0.00486424218268687 9:0.0 10:0.0 11:0.0 12:0.0 13:0.02355829917078147 14:0.9764012099924911 15:4.049083672741587E-5 16:0.411628137477 17:0.608336247228 18:0.59715189543 19:0.3333333333333333 20:0.3333333333333333 21:0.3333333333333333 22:0.0 23:0.0 24:0.0 25:0.0 26:0.0 27:0.0 28:0.0 29:0.0 30:0.0 31:0.0 32:0.0 33:0.0 34:0.0 35:0.0 36:0.0 37:0.0 38:0.0 39:0.0 40:0.0 41:0.0 42:0.0 43:0.0 44:0.0 
1.0 1:0.9944025264876035 2:0.0014614892993388441 3:0.004135984213057623 4:0.597563469902 5:0.531663155652 6:0.613565042787 7:0.38554787577 8:0.460459276751 9:0.0 10:0.0 11:0.0 12:0.0 13:0.9217183172805727 14:0.05003396437841439 15:0.028247718341012903 16:0.597563469902 17:0.531663155652 18:0.525952631911 19:0.3333333333333333 20:0.3333333333333333 21:0.3333333333333333 22:0.0 23:0.0 24:0.0 25:0.0 26:0.0 27:0.0 28:0.0 29:0.0 30:0.0 31:0.0 32:0.0 33:0.0 34:0.0 35:0.0 36:0.0 37:0.0 38:0.0 39:0.0 40:0.0 41:0.0 42:0.0 43:0.0 44:0.0 
1.0 1:0.9685595150449393 2:4.991523250849962E-4 3:0.030941332629975577 4:0.857222699258 5:0.476668319864 6:0.620040779329 7:0.3897183292459999 8:0.18612677626899998 9:0.0 10:0.0 11:0.0 12:0.0 13:0.08777740049427138 14:0.842833357021325 15:0.06938924248440367 16:0.411628137477 17:0.476668319864 18:0.471433585348 19:0.3333333333333333 20:0.3333333333333333 21:0.3333333333333333 22:0.0 23:0.0 24:0.0 25:0.0 26:0.0 27:0.0 28:0.0 29:0.0 30:0.0 31:0.0 32:0.0 33:0.0 34:0.0 35:0.0 36:0.0 37:0.0 38:0.0 39:0.0 40:0.0 41:0.0 42:0.0 43:0.0 44:0.0 
1.0 1:0.6500283744302036 2:2.1236702446774682E-5 3:0.3499503888673496 4:0.797732287806 5:0.550295492601 6:0.74121520734 7:0.4275496292754276 8:0.135010357605135 9:0.0 10:0.0 11:0.0 12:0.0 13:0.40927642440627304 14:0.5171593085793941 15:0.07356426701433286 16:0.424017903081 17:0.550295492601 18:0.338709934467 19:0.3333333333333333 20:0.3333333333333333 21:0.3333333333333333 22:0.0 23:0.0 24:0.0 25:0.0 26:0.0 27:0.0 28:0.0 29:0.0 30:0.0 31:1.0 32:0.0 33:0.0 34:0.0 35:0.0 36:0.0 37:0.0 38:0.0 39:0.0 40:0.0 41:0.0 42:0.0 43:0.0 44:0.0 
1.0 1:0.05730384876013889 2:0.0034490979747137545 3:0.9392470532651475 4:0.694012719359 5:0.51519302917 6:0.822186416608 7:0.5306020084231409 8:0.06482130629937863 9:0.0 10:0.0 11:0.0 12:0.0 13:0.4909194724019819 14:0.2801738418452124 15:0.2289066857528059 16:0.694012719359 17:0.51519302917 18:0.608205553735 19:0.3333333333333333 20:0.3333333333333333 21:0.3333333333333333 22:0.0 23:0.0 24:0.0 25:0.0 26:0.0 27:0.0 28:0.0 29:0.0 30:0.0 31:1.0 32:0.0 33:0.0 34:0.0 35:0.0 36:0.0 37:0.0 38:0.0 39:0.0 40:0.0 41:0.0 42:1.0 43:1.0 44:0.0 
1.0 1:1.3080940886023945E-32 2:2.9074806970342745E-39 3:1.0 4:0.93665253102 5:0.521551176392 6:0.977675917203 7:0.8819256980475053 8:0.09519941761795545 9:0.0 10:0.0 11:0.0 12:0.0 13:2.939705408963348E-14 14:1.7928202004621635E-13 15:0.9999999999997914 16:0.539487680912 17:0.521551176392 18:0.942119141521 19:0.3333333333333333 20:0.3333333333333333 21:0.3333333333333333 22:0.0 23:0.0 24:0.0 25:0.0 26:0.0 27:1.0 28:0.0 29:0.0 30:0.0 31:0.0 32:0.0 33:0.0 34:0.0 35:0.0 36:0.0 37:0.0 38:0.0 39:0.0 40:0.0 41:0.0 42:2.0 43:1.0 44:0.0 
1.0 1:0.7417499074478859 2:0.2582500708371442 3:2.171496991308394E-8 4:0.755683474994 5:0.550295492601 6:0.472141134615 7:0.7556834749941511 8:0.17586013194503522 9:0.0 10:0.0 11:0.0 12:0.0 13:0.09130954221542341 14:0.9083065061137872 15:3.8395167078940985E-4 16:0.438309046749 17:0.550295492601 18:0.431173298017 19:0.3333333333333333 20:0.3333333333333333 21:0.3333333333333333 22:0.0 23:0.0 24:0.0 25:0.0 26:0.0 27:0.0 28:0.0 29:0.0 30:0.0 31:0.0 32:0.0 33:0.0 34:0.0 35:0.0 36:0.0 37:0.0 38:0.0 39:0.0 40:0.0 41:0.0 42:1.0 43:0.0 44:0.0 
1.0 1:0.0010475391251244645 2:9.034649183389636E-9 3:0.9989524518402264 4:0.689693708067 5:0.508816041006 6:0.772529958983 7:0.9898455297634834 8:8.204523278679365E-4 9:0.0 10:0.0 11:0.0 12:0.0 13:0.24026347123063635 14:0.6069082058474908 15:0.15282832292187287 16:0.411628137477 17:0.508816041006 18:0.697919410374 19:0.3333333333333333 20:0.3333333333333333 21:0.3333333333333333 22:0.0 23:0.0 24:0.0 25:0.0 26:0.0 27:0.0 28:0.0 29:0.0 30:0.0 31:0.0 32:0.0 33:0.0 34:0.0 35:0.0 36:0.0 37:0.0 38:0.0 39:0.0 40:0.0 41:0.0 42:0.0 43:0.0 44:0.0 
1.0 1:2.271509291774935E-4 2:0.00246548719169679 3:0.9973073618791257 4:0.874049302044 5:0.531663155652 6:0.876737434909 7:0.1490181791255972 8:0.6136528866173241 9:0.0 10:0.0 11:0.0 12:0.0 13:0.07768448128582271 14:0.9218443555802754 15:4.711631339018899E-4 16:0.597563469902 17:0.531663155652 18:0.378923445821 19:0.3333333333333333 20:0.3333333333333333 21:0.3333333333333333 22:0.0 23:0.0 24:0.0 25:0.0 26:0.0 27:0.0 28:0.0 29:0.0 30:0.0 31:1.0 32:2.0 33:0.0 34:0.0 35:0.0 36:0.0 37:0.0 38:0.0 39:0.0 40:0.0 41:0.0 42:0.0 43:0.0 44:0.0 
1.0 1:0.9999999998014052 2:1.9777994391280098E-10 3:8.147586448404323E-13 4:0.797553528584 5:0.638523392766 6:0.604354058588 7:0.8739137471097014 8:0.02569939687586232 9:0.0 10:0.0 11:0.0 12:0.0 13:0.9306673044889764 14:0.06933269348178364 15:2.02923992789261E-9 16:0.797553528584 17:0.557489872248 18:0.524861119094 19:0.3333333333333333 20:0.3333333333333333 21:0.3333333333333333 22:0.0 23:0.0 24:0.0 25:0.0 26:0.0 27:0.0 28:0.0 29:0.0 30:0.0 31:0.0 32:0.0 33:0.0 34:0.0 35:0.0 36:0.0 37:0.0 38:0.0 39:0.0 40:0.0 41:0.0 42:2.0 43:0.0 44:0.0 
1.0 1:0.6008622541179743 2:0.3954029432864835 3:0.0037348025955422025 4:0.577631142764 5:0.550295492601 6:0.75455833767 7:0.7377150228097455 8:0.04146267126188775 9:0.0 10:0.0 11:0.0 12:0.0 13:0.1932151069101862 14:0.80546618964223 15:0.001318703447583835 16:0.424017903081 17:0.550295492601 18:0.380836646906 19:0.3333333333333333 20:0.3333333333333333 21:0.3333333333333333 22:0.0 23:0.0 24:0.0 25:0.0 26:0.0 27:0.0 28:0.0 29:0.0 30:0.0 31:0.0 32:0.0 33:0.0 34:0.0 35:0.0 36:0.0 37:0.0 38:0.0 39:0.0 40:0.0 41:0.0 42:0.0 43:0.0 44:0.0 
1.0 1:3.919839816244452E-4 2:8.194465482405896E-11 3:0.9996080159364309 4:0.568735431426 5:0.655867966705 6:0.800959097939 7:0.4723688502003757 8:0.3036075480029166 9:0.0 10:0.0 11:0.0 12:0.0 13:0.7913548994830407 14:0.14498538869992766 15:0.06365971181703167 16:0.424017903081 17:0.550295492601 18:0.697919410374 19:0.3333333333333333 20:0.3333333333333333 21:0.3333333333333333 22:0.0 23:0.0 24:0.0 25:0.0 26:0.0 27:0.0 28:0.0 29:0.0 30:0.0 31:0.0 32:0.0 33:0.0 34:0.0 35:0.0 36:0.0 37:0.0 38:0.0 39:0.0 40:0.0 41:0.0 42:0.0 43:0.0 44:0.0 
1.0 1:0.015265233577292404 2:4.538181033715293E-12 3:0.9847347664181694 4:0.5888992679 5:0.638523392766 6:0.762376677309 7:0.43632620909408976 8:0.09902430881954769 9:0.0 10:0.0 11:0.0 12:0.0 13:0.4260596293240574 14:0.5608609080698994 15:0.013079462606043223 16:0.411628137477 17:0.51519302917 18:0.515684993302 19:0.3333333333333333 20:0.3333333333333333 21:0.3333333333333333 22:0.0 23:0.0 24:0.0 25:0.0 26:0.0 27:0.0 28:0.0 29:0.0 30:0.0 31:0.0 32:0.0 33:0.0 34:0.0 35:0.0 36:0.0 37:0.0 38:0.0 39:0.0 40:0.0 41:0.0 42:0.0 43:0.0 44:0.0 
1.0 1:0.543944648663465 2:0.011031904988772304 3:0.44502344634776275 4:0.439469459859 5:0.508816041006 6:0.538549531745 7:0.439469459859 8:0.09592073858200001 9:0.0 10:0.0 11:0.0 12:0.0 13:0.37232345966888825 14:0.5000147711645603 15:0.12766176916655134 16:0.411628137477 17:0.508816041006 18:0.462968894018 19:0.714808504856 20:0.18319928945 21:0.101992205694 22:0.714808504856 23:0.18319928945 24:0.101992205694 25:0.0 26:0.0 27:0.0 28:0.0 29:0.0 30:0.0 31:0.0 32:0.0 33:0.0 34:0.0 35:0.0 36:0.0 37:0.0 38:0.0 39:0.0 40:0.0 41:0.0 42:1.0 43:0.0 44:0.0 
1.0 1:0.0016981397646502504 2:6.673361275271551E-7 3:0.9983011928992223 4:0.795518303013 5:0.64189987245 6:0.728705288647 7:0.5578698041769721 8:0.03429202611538071 9:0.0 10:0.0 11:0.0 12:0.0 13:0.12326607009629942 14:0.8139868152642793 15:0.06274711463942119 16:0.424017903081 17:0.534739513576 18:0.472922912125 19:0.3333333333333333 20:0.3333333333333333 21:0.3333333333333333 22:0.0 23:0.0 24:0.0 25:0.0 26:0.0 27:0.0 28:0.0 29:0.0 30:0.0 31:1.0 32:0.0 33:0.0 34:0.0 35:0.0 36:0.0 37:0.0 38:0.0 39:0.0 40:0.0 41:0.0 42:0.0 43:0.0 44:0.0 
1.0 1:0.007214302042130124 2:3.084882349123101E-11 3:0.9927856979270211 4:0.79850405764 5:0.71137774996 6:0.870860304031 7:0.8888839988554238 8:0.0017279318792070516 9:0.0 10:0.0 11:0.0 12:0.0 13:0.12706338244594548 14:0.27492714871160295 15:0.5980094688424514 16:0.411628137477 17:0.700998228382 18:0.634258854246 19:0.3333333333333333 20:0.3333333333333333 21:0.3333333333333333 22:0.0 23:0.0 24:0.0 25:0.0 26:0.0 27:0.0 28:0.0 29:0.0 30:0.0 31:0.0 32:1.0 33:9.0 34:0.0 35:0.0 36:0.0 37:0.0 38:0.0 39:0.0 40:0.0 41:0.0 42:0.0 43:0.0 44:0.0 
1.0 1:8.19611624575039E-11 2:2.7247489291163797E-9 3:0.9999999971932899 4:0.708260496272 5:0.611496946345 6:0.844416902964 7:0.801457811733627 8:0.03309939514686668 9:0.0 10:0.0 11:0.0 12:0.0 13:0.20499595435724474 14:0.28123698597834695 15:0.5137670596644084 16:0.411628137477 17:0.494889648187 18:0.693899081196 19:0.3333333333333333 20:0.3333333333333333 21:0.3333333333333333 22:0.0 23:0.0 24:0.0 25:0.0 26:0.0 27:0.0 28:0.0 29:0.0 30:0.0 31:0.0 32:0.0 33:0.0 34:0.0 35:1.0 36:0.0 37:0.0 38:0.0 39:0.0 40:0.0 41:0.0 42:0.0 43:0.0 44:0.0 
1.0 1:5.849034573235595E-5 2:6.707969295399209E-15 3:0.9999415096542609 4:0.574524571614 5:0.457116123604 6:0.833856888942 7:0.015862815121344034 8:2.062812827315971E-6 9:0.0 10:0.0 11:0.0 12:0.0 13:0.48795706798077193 14:0.511726607647368 15:3.1632437185999374E-4 16:0.411628137477 17:0.457116123604 18:0.650585234834 19:0.3333333333333333 20:0.3333333333333333 21:0.3333333333333333 22:0.0 23:0.0 24:0.0 25:0.0 26:0.0 27:0.0 28:0.0 29:0.0 30:0.0 31:0.0 32:0.0 33:0.0 34:0.0 35:0.0 36:0.0 37:0.0 38:0.0 39:0.0 40:0.0 41:0.0 42:0.0 43:0.0 44:0.0 
1.0 1:0.004995762813519472 2:2.263538012596424E-6 3:0.995001973648468 4:0.849411934663 5:0.622200978047 6:0.837424880512 7:0.3486019636306437 8:0.03058955493911468 9:0.0 10:0.0 11:0.0 12:0.0 13:0.4875022774221509 14:0.22078676835260103 15:0.29171095422524806 16:0.410817357456 17:0.51519302917 18:0.462968894018 19:0.3333333333333333 20:0.3333333333333333 21:0.3333333333333333 22:0.0 23:0.0 24:0.0 25:0.0 26:0.0 27:0.0 28:0.0 29:0.0 30:0.0 31:1.0 32:0.0 33:3.0 34:0.0 35:0.0 36:0.0 37:1.0 38:0.0 39:0.0 40:0.0 41:0.0 42:0.0 43:0.0 44:0.0 
1.0 1:0.8997466879684992 2:0.10025330223998367 3:9.791517165490011E-9 4:0.689693708067 5:0.710437579884 6:0.772695397561 7:0.851814886358202 8:0.1309551853614648 9:0.0 10:0.0 11:0.0 12:0.0 13:0.037476501161331284 14:0.9625185661848663 15:4.932653802611349E-6 16:0.534148143359 17:0.608336247228 18:0.363242604904 19:0.3333333333333333 20:0.3333333333333333 21:0.3333333333333333 22:0.0 23:0.0 24:0.0 25:0.0 26:0.0 27:0.0 28:0.0 29:0.0 30:0.0 31:0.0 32:0.0 33:0.0 34:0.0 35:0.0 36:0.0 37:2.0 38:0.0 39:0.0 40:0.0 41:0.0 42:0.0 43:0.0 44:0.0 
1.0 1:0.6158772905817801 2:0.38391090059504684 3:2.118088231731642E-4 4:0.661646200293 5:0.550295492601 6:0.594287212025 7:0.6616462002929999 8:0.15875630171199998 9:0.0 10:0.0 11:0.0 12:0.0 13:0.23049901523983687 14:0.7684331251796421 15:0.001067859580521091 16:0.426029938029 17:0.550295492601 18:0.594287212025 19:0.3333333333333333 20:0.3333333333333333 21:0.3333333333333333 22:0.0 23:0.0 24:0.0 25:0.0 26:0.0 27:0.0 28:0.0 29:0.0 30:0.0 31:0.0 32:0.0 33:0.0 34:0.0 35:0.0 36:0.0 37:0.0 38:0.0 39:0.0 40:0.0 41:0.0 42:0.0 43:0.0 44:0.0 
0.9659713221048949 1:0.011526305449976546 2:0.015850731443122084 3:0.9726229631069013 4:0.728952388601 5:0.556516293 6:0.816870216378 7:0.3333333333333333 8:0.3333333333333333 9:0.0 10:0.0 11:0.0 12:0.0 13:0.12420715374933039 14:0.5388717525899365 15:0.3369210936607332 16:0.728952388601 17:0.556516293 18:0.816870216378 19:0.8224522428970822 20:0.09465443355860945 21:0.08289332354430828 22:0.822452242897 23:0.0946544335586 24:0.0828933235443 25:0.0 26:0.0 27:0.0 28:0.0 29:0.0 30:0.0 31:3.0 32:0.0 33:0.0 34:0.0 35:0.0 36:0.0 37:0.0 38:0.0 39:0.0 40:0.0 41:0.0 42:0.0 43:0.0 44:0.0 
1.0 1:1.237902875491435E-10 2:4.6540512022004006E-14 3:0.9999999998761633 4:0.685233941321 5:0.619869568938 6:0.907916244045 7:0.22479686711790486 8:0.12503546519374986 9:0.0 10:0.0 11:0.0 12:0.0 13:0.38545192916506266 14:0.5927867011177231 15:0.02176136971721412 16:0.521998764708 17:0.603387768261 18:0.697919410374 19:0.3333333333333333 20:0.3333333333333333 21:0.3333333333333333 22:0.0 23:0.0 24:0.0 25:0.0 26:0.0 27:0.0 28:0.0 29:0.0 30:0.0 31:1.0 32:0.0 33:1.0 34:0.0 35:0.0 36:0.0 37:0.0 38:0.0 39:0.0 40:0.0 41:0.0 42:0.0 43:0.0 44:0.0 
1.0 1:1.0546582308523293E-5 2:9.46323969998583E-10 3:0.9999894524713675 4:0.73784457083 5:0.560184437834 6:0.791609114936 7:0.3024034910860654 8:0.10552266043020121 9:0.0 10:0.0 11:0.0 12:0.0 13:0.4234139232819785 14:0.5356935849659253 15:0.04089249175209615 16:0.43977861677 17:0.550295492601 18:0.563826838255 19:0.3333333333333333 20:0.3333333333333333 21:0.3333333333333333 22:0.0 23:0.0 24:0.0 25:0.0 26:0.0 27:0.0 28:0.0 29:0.0 30:0.0 31:0.0 32:0.0 33:7.0 34:0.0 35:0.0 36:0.0 37:1.0 38:0.0 39:0.0 40:0.0 41:0.0 42:0.0 43:0.0 44:0.0 
1.0 1:3.4683672348523987E-4 2:2.197169976562379E-6 3:0.9996509661065383 4:0.693087371445 5:0.482714813755 6:0.734072874962 7:0.555251030938701 8:0.3556008669025275 9:0.0 10:0.0 11:0.0 12:0.0 13:0.8521638734841515 14:0.08390084592519184 15:0.0639352805906567 16:0.597563469902 17:0.471155960318 18:0.611824431249 19:0.3333333333333333 20:0.3333333333333333 21:0.3333333333333333 22:0.0 23:0.0 24:0.0 25:0.0 26:0.0 27:1.0 28:0.0 29:0.0 30:0.0 31:0.0 32:0.0 33:2.0 34:0.0 35:0.0 36:0.0 37:0.0 38:0.0 39:0.0 40:0.0 41:0.0 42:0.0 43:0.0 44:0.0 
1.0 1:0.0011490973345870395 2:3.304969628349794E-5 3:0.9988178529691294 4:0.497602787337 5:0.530582543722 6:0.716223948748 7:0.3333333333333333 8:0.3333333333333333 9:0.0 10:0.0 11:0.0 12:0.0 13:0.2829656553493458 14:0.6034240527889394 15:0.11361029186171484 16:0.411628137477 17:0.411372479578 18:0.40234264953 19:0.3333333333333333 20:0.3333333333333333 21:0.3333333333333333 22:0.0 23:0.0 24:0.0 25:0.0 26:0.0 27:0.0 28:0.0 29:0.0 30:0.0 31:0.0 32:0.0 33:0.0 34:0.0 35:0.0 36:0.0 37:0.0 38:0.0 39:0.0 40:0.0 41:0.0 42:0.0 43:0.0 44:0.0 
1.0 1:0.3112149091054156 2:2.7312480241377175E-11 3:0.6887850908672719 4:0.834793113623 5:0.658651691052 6:0.865303152747 7:0.8034135886196031 8:0.004037729014555596 9:0.0 10:0.0 11:0.0 12:0.0 13:0.7337917780980822 14:0.26548108638378837 15:7.271355181294443E-4 16:0.603387768261 17:0.520902710501 18:0.865303152747 19:0.3333333333333333 20:0.3333333333333333 21:0.3333333333333333 22:0.0 23:0.0 24:0.0 25:0.0 26:0.0 27:0.0 28:0.0 29:0.0 30:0.0 31:3.0 32:0.0 33:0.0 34:0.0 35:0.0 36:0.0 37:0.0 38:0.0 39:0.0 40:0.0 41:0.0 42:1.0 43:0.0 44:0.0 
1.0 1:0.5111154959073737 2:0.4888662138056656 3:1.8290286960790053E-5 4:0.603387768261 5:0.680251668082 6:0.775015015653 7:0.601549698259008 8:0.3252986014649741 9:0.0 10:0.0 11:0.0 12:0.0 13:0.019686682485766327 14:0.9802649148282269 15:4.8402686006825424E-5 16:0.603387768261 17:0.534739513576 18:0.650585234834 19:0.3333333333333333 20:0.3333333333333333 21:0.3333333333333333 22:0.0 23:0.0 24:0.0 25:0.0 26:0.0 27:0.0 28:0.0 29:0.0 30:0.0 31:0.0 32:0.0 33:0.0 34:0.0 35:0.0 36:0.0 37:0.0 38:0.0 39:0.0 40:0.0 41:0.0 42:0.0 43:0.0 44:0.0 
1.0 1:0.7911885583757473 2:0.06179325109996551 3:0.14701819052428708 4:0.563688392416 5:0.544731215388 6:0.532999017767 7:0.20420837088000002 8:0.527691646761 9:0.0 10:0.0 11:0.0 12:0.0 13:0.3191155459431238 14:0.5170713059987839 15:0.1638131480580923 16:0.548140680039 17:0.544731215388 18:0.532999017767 19:0.3333333333333333 20:0.3333333333333333 21:0.3333333333333333 22:0.0 23:0.0 24:0.0 25:0.0 26:0.0 27:0.0 28:0.0 29:0.0 30:0.0 31:0.0 32:0.0 33:0.0 34:0.0 35:0.0 36:0.0 37:2.0 38:0.0 39:0.0 40:0.0 41:0.0 42:0.0 43:0.0 44:0.0 
0.9024677029235592 1:0.9955052062063178 2:7.941172880722637E-4 3:0.0037006765056099024 4:0.701909382322 5:0.51519302917 6:0.594427361696 7:0.5419578311506749 8:0.07410361432355553 9:0.0 10:0.0 11:0.0 12:0.0 13:0.848811904203152 14:0.1264293526985649 15:0.024758743098283017 16:0.568594764342 17:0.51519302917 18:0.594427361696 19:0.3333333333333333 20:0.3333333333333333 21:0.3333333333333333 22:0.0 23:0.0 24:0.0 25:0.0 26:0.0 27:0.0 28:0.0 29:0.0 30:0.0 31:0.0 32:0.0 33:0.0 34:0.0 35:0.0 36:0.0 37:0.0 38:0.0 39:0.0 40:0.0 41:0.0 42:0.0 43:0.0 44:0.0 
1.0 1:1.2485355041898055E-5 2:0.03371011138024826 3:0.9662774032647099 4:0.563157766252 5:0.71137774996 6:0.782908881111 7:0.37735734556251715 8:0.32793398031153065 9:0.0 10:0.0 11:0.0 12:0.0 13:0.05977479727170155 14:0.9401253542647636 15:9.984846353482809E-5 16:0.471449216941 17:0.603387768261 18:0.462968894018 19:0.3333333333333333 20:0.3333333333333333 21:0.3333333333333333 22:0.0 23:0.0 24:0.0 25:0.0 26:0.0 27:0.0 28:0.0 29:0.0 30:0.0 31:0.0 32:0.0 33:0.0 34:0.0 35:0.0 36:0.0 37:0.0 38:0.0 39:0.0 40:0.0 41:0.0 42:1.0 43:0.0 44:0.0 
1.0 1:0.535052636131851 2:7.350013646040424E-5 3:0.46487386373168854 4:0.689693708067 5:0.550295492601 6:0.866578592193 7:0.7584905662754148 8:0.18981039845743816 9:0.0 10:0.0 11:0.0 12:0.0 13:0.6525996305671841 14:0.3192446308216884 15:0.02815573861112734 16:0.424017903081 17:0.550295492601 18:0.551651522041 19:0.3333333333333333 20:0.3333333333333333 21:0.3333333333333333 22:0.0 23:0.0 24:0.0 25:0.0 26:0.0 27:0.0 28:0.0 29:0.0 30:0.0 31:0.0 32:1.0 33:1.0 34:0.0 35:1.0 36:0.0 37:0.0 38:0.0 39:0.0 40:0.0 41:0.0 42:0.0 43:0.0 44:0.0 
1.0 1:0.06388718981542733 2:4.247269161900164E-9 3:0.9361128059373035 4:0.795935856362 5:0.526215043165 6:0.814022814088 7:0.8098238845703244 8:0.0379427755270321 9:0.0 10:0.0 11:0.0 12:0.0 13:0.9160065443868657 14:0.010654185689715713 15:0.07333926992341858 16:0.733726880443 17:0.468144596594 18:0.693899081196 19:0.3333333333333333 20:0.3333333333333333 21:0.3333333333333333 22:0.0 23:0.0 24:0.0 25:0.0 26:0.0 27:0.0 28:0.0 29:0.0 30:0.0 31:0.0 32:0.0 33:0.0 34:0.0 35:0.0 36:0.0 37:1.0 38:0.0 39:0.0 40:0.0 41:0.0 42:0.0 43:0.0 44:0.0 
1.0 1:0.28976613512085764 2:0.020428531659003078 3:0.6898053332201393 4:0.361442859198 5:0.0962694914473 6:0.552998119776 7:0.3333333333333333 8:0.3333333333333333 9:0.0 10:0.0 11:0.0 12:0.0 13:0.3333333333333333 14:0.3333333333333333 15:0.3333333333333333 16:0.0 17:0.0 18:0.0 19:0.6970852847599999 20:0.19516172393199993 21:0.10775299130799999 22:0.69708528476 23:0.195161723932 24:0.107752991308 25:0.0 26:0.0 27:0.0 28:0.0 29:0.0 30:0.0 31:1.0 32:0.0 33:0.0 34:0.0 35:0.0 36:0.0 37:0.0 38:0.0 39:0.0 40:0.0 41:0.0 42:0.0 43:0.0 44:0.0 
1.0 1:0.9978519453377847 2:0.002148053942755403 3:7.194599591722612E-10 4:0.703535837481 5:0.59704568635 6:0.596185231011 7:0.8667845165757971 8:0.002850672795245505 9:0.0 10:0.0 11:0.0 12:0.0 13:0.30493079987525096 14:0.6950392149754666 15:2.99851492826273E-5 16:0.603387768261 17:0.579388889878 18:0.348106856584 19:0.3333333333333333 20:0.3333333333333333 21:0.3333333333333333 22:0.0 23:0.0 24:0.0 25:0.0 26:0.0 27:0.0 28:0.0 29:0.0 30:0.0 31:0.0 32:0.0 33:0.0 34:0.0 35:0.0 36:0.0 37:0.0 38:0.0 39:0.0 40:0.0 41:0.0 42:0.0 43:0.0 44:0.0 
1.0 1:0.9999587783430313 2:4.952796709793615E-8 3:4.1172129001705976E-5 4:0.91730648783 5:0.377748831711 6:0.752291920268 7:0.9999668911939666 8:1.732763249141904E-5 9:0.0 10:0.0 11:0.0 12:0.0 13:0.23025446490419954 14:0.05392683492878916 15:0.7158187001670113 16:0.411628137477 17:0.371068134553 18:0.752291920268 19:0.3333333333333333 20:0.3333333333333333 21:0.3333333333333333 22:0.0 23:0.0 24:0.0 25:0.0 26:0.0 27:0.0 28:0.0 29:0.0 30:0.0 31:0.0 32:0.0 33:0.0 34:0.0 35:0.0 36:0.0 37:0.0 38:0.0 39:0.0 40:0.0 41:0.0 42:0.0 43:0.0 44:0.0 
1.0 1:0.0011920618063482689 2:0.006691037572630142 3:0.9921169006210216 4:0.652850727594 5:0.611496946345 6:0.786805242481 7:0.15057678834237595 8:0.42255143084991914 9:0.0 10:0.0 11:0.0 12:0.0 13:0.26789999288480615 14:0.7292737162535625 15:0.0028262908616313704 16:0.521998764708 17:0.610130889717 18:0.613807527228 19:0.3333333333333333 20:0.3333333333333333 21:0.3333333333333333 22:0.0 23:0.0 24:0.0 25:0.0 26:0.0 27:0.0 28:0.0 29:0.0 30:0.0 31:0.0 32:0.0 33:2.0 34:0.0 35:0.0 36:0.0 37:0.0 38:0.0 39:0.0 40:0.0 41:0.0 42:0.0 43:0.0 44:0.0 
1.0 1:0.006738374229095641 2:2.887062198454164E-8 3:0.9932615969002824 4:0.499318163857 5:0.59704568635 6:0.914131534336 7:0.8472428383438271 8:0.028366415045970636 9:0.0 10:0.0 11:0.0 12:0.0 13:0.004447036390677984 14:0.9955360101654728 15:1.695344384936336E-5 16:0.479221400939 17:0.59032124889 18:0.462968894018 19:0.3333333333333333 20:0.3333333333333333 21:0.3333333333333333 22:0.0 23:0.0 24:0.0 25:0.0 26:0.0 27:0.0 28:0.0 29:0.0 30:0.0 31:0.0 32:2.0 33:0.0 34:0.0 35:0.0 36:0.0 37:0.0 38:0.0 39:0.0 40:0.0 41:0.0 42:1.0 43:0.0 44:0.0 
1.0 1:0.3685103667849435 2:0.004449565918593763 3:0.6270400672964628 4:0.834793113623 5:0.812351918466 6:0.760230983787 7:0.9160630386817027 8:0.0038433355863149348 9:0.0 10:0.0 11:0.0 12:0.0 13:0.587211894361428 14:0.36970423417840537 15:0.04308387146016672 16:0.494211202602 17:0.550295492601 18:0.697919410374 19:0.3333333333333333 20:0.3333333333333333 21:0.3333333333333333 22:0.0 23:0.0 24:0.0 25:0.0 26:0.0 27:0.0 28:0.0 29:0.0 30:0.0 31:1.0 32:0.0 33:0.0 34:0.0 35:0.0 36:0.0 37:0.0 38:0.0 39:0.0 40:0.0 41:0.0 42:0.0 43:0.0 44:0.0 
1.0 1:1.3433770793247257E-7 2:3.74501295167597E-10 3:0.9999998652877907 4:0.693087371445 5:0.524432819862 6:0.901401903077 7:0.7953809015532851 8:0.0015914194219670596 9:0.0 10:0.0 11:0.0 12:0.0 13:0.24575972710179786 14:0.7539290122934972 15:3.112606047049216E-4 16:0.597563469902 17:0.472357920466 18:0.673265276392 19:0.3333333333333333 20:0.3333333333333333 21:0.3333333333333333 22:0.0 23:0.0 24:0.0 25:0.0 26:0.0 27:0.0 28:0.0 29:0.0 30:0.0 31:0.0 32:0.0 33:0.0 34:0.0 35:0.0 36:0.0 37:0.0 38:0.0 39:0.0 40:0.0 41:0.0 42:0.0 43:0.0 44:0.0 
1.0 1:0.09676514468147451 2:1.0412275243382848E-17 3:0.9032348553185255 4:0.805342632431 5:0.564038475156 6:0.791609114936 7:0.9983248926324276 8:7.973429544511921E-5 9:0.0 10:0.0 11:0.0 12:0.0 13:0.8787752886779239 14:0.03744006745911814 15:0.0837846438629581 16:0.475236281832 17:0.399956778259 18:0.697919410374 19:0.3333333333333333 20:0.3333333333333333 21:0.3333333333333333 22:0.0 23:0.0 24:0.0 25:0.0 26:0.0 27:0.0 28:0.0 29:0.0 30:0.0 31:3.0 32:0.0 33:0.0 34:0.0 35:0.0 36:0.0 37:0.0 38:0.0 39:0.0 40:0.0 41:0.0 42:0.0 43:0.0 44:0.0 
1.0 1:0.031087999216883037 2:0.9687194088976173 3:1.925918854995896E-4 4:0.791597453166 5:0.683131367643 6:0.569699124523 7:0.129482161787 8:0.6831313676430001 9:0.0 10:0.0 11:0.0 12:0.0 13:0.41925212736564765 14:0.5803787563101488 15:3.691163242035309E-4 16:0.791597453166 17:0.51519302917 18:0.404319768756 19:0.3333333333333333 20:0.3333333333333333 21:0.3333333333333333 22:0.0 23:0.0 24:0.0 25:0.0 26:0.0 27:0.0 28:0.0 29:0.0 30:0.0 31:0.0 32:0.0 33:0.0 34:0.0 35:0.0 36:0.0 37:0.0 38:0.0 39:0.0 40:0.0 41:0.0 42:1.0 43:0.0 44:0.0 
1.0 1:0.050043454503292166 2:3.2063347509340815E-11 3:0.9499565454646445 4:0.689693708067 5:0.550295492601 6:0.786130310088 7:0.2527703401716082 8:3.6699020411818964E-6 9:0.0 10:0.0 11:0.0 12:0.0 13:0.31993772557623085 14:0.673302414673487 15:0.006759859750282161 16:0.424017903081 17:0.550295492601 18:0.578032250519 19:0.3333333333333333 20:0.3333333333333333 21:0.3333333333333333 22:0.0 23:0.0 24:0.0 25:0.0 26:0.0 27:0.0 28:0.0 29:0.0 30:0.0 31:0.0 32:0.0 33:0.0 34:0.0 35:9.0 36:0.0 37:0.0 38:0.0 39:0.0 40:0.0 41:0.0 42:0.0 43:0.0 44:0.0 
1.0 1:0.9999999033304057 2:9.022837907104298E-10 3:9.576731044038944E-8 4:0.722545974472 5:0.590055753371 6:0.692903991345 7:0.5912389717993564 8:3.5077671443632644E-5 9:0.0 10:0.0 11:0.0 12:0.0 13:0.37704423800000963 14:0.6229540013222452 15:1.7606777452797515E-6 16:0.603387768261 17:0.550295492601 18:0.549158451781 19:0.3333333333333333 20:0.3333333333333333 21:0.3333333333333333 22:0.0 23:0.0 24:0.0 25:0.0 26:0.0 27:0.0 28:0.0 29:0.0 30:0.0 31:0.0 32:1.0 33:0.0 34:0.0 35:0.0 36:0.0 37:0.0 38:0.0 39:0.0 40:0.0 41:0.0 42:0.0 43:0.0 44:0.0 
1.0 1:3.6512430605241186E-4 2:1.9437736632484388E-6 3:0.9996329319202844 4:0.560607925543 5:0.858639385729 6:0.835590228762 7:0.22078202390522084 8:0.40638855333640633 9:0.0 10:0.0 11:0.0 12:0.0 13:0.012758122125125344 14:0.016380984285797213 15:0.9708608935890773 16:0.537877091049 17:0.589887787806 18:0.835590228762 19:0.3333333333333333 20:0.3333333333333333 21:0.3333333333333333 22:0.0 23:0.0 24:0.0 25:0.0 26:0.0 27:0.0 28:0.0 29:0.0 30:0.0 31:1.0 32:0.0 33:0.0 34:0.0 35:0.0 36:0.0 37:1.0 38:0.0 39:0.0 40:0.0 41:0.0 42:0.0 43:0.0 44:0.0 
1.0 1:0.46614141948622956 2:0.16653356227658606 3:0.3673250182371845 4:0.583327955238 5:0.562770733256 6:0.693899081196 7:0.8086474196906972 8:0.045126298865684394 9:0.0 10:0.0 11:0.0 12:0.0 13:0.02214133904423703 14:0.9704077809891067 15:0.007450879966656315 16:0.411628137477 17:0.531663155652 18:0.693899081196 19:0.3333333333333333 20:0.3333333333333333 21:0.3333333333333333 22:0.0 23:0.0 24:0.0 25:0.0 26:0.0 27:0.0 28:0.0 29:0.0 30:0.0 31:0.0 32:0.0 33:0.0 34:0.0 35:0.0 36:0.0 37:0.0 38:0.0 39:0.0 40:0.0 41:0.0 42:0.0 43:0.0 44:0.0 
1.0 1:0.9894473982153363 2:0.0075375234048454575 3:0.0030150783798181522 4:0.876975553199 5:0.103571400311 6:0.0674066039623 7:0.3333333333333333 8:0.3333333333333333 9:0.0 10:0.0 11:0.0 12:0.0 13:0.3333333333333333 14:0.3333333333333333 15:0.3333333333333333 16:0.0 17:0.0 18:0.0 19:0.3333333333333333 20:0.3333333333333333 21:0.3333333333333333 22:0.0 23:0.0 24:0.0 25:0.0 26:0.0 27:0.0 28:0.0 29:0.0 30:0.0 31:0.0 32:0.0 33:0.0 34:0.0 35:0.0 36:0.0 37:0.0 38:0.0 39:0.0 40:0.0 41:0.0 42:0.0 43:0.0 44:0.0 
1.0 1:0.999881471735575 2:1.183695446503689E-4 3:1.5871977465787676E-7 4:0.874049302044 5:0.642680404256 6:0.711617252687 7:0.30409487548403136 8:0.05704163466735704 9:0.0 10:0.0 11:0.0 12:0.0 13:0.07131128099751147 14:0.9286817340345688 15:6.984967919877622E-6 16:0.673857318349 17:0.550295492601 18:0.472922912125 19:0.3333333333333333 20:0.3333333333333333 21:0.3333333333333333 22:0.0 23:0.0 24:0.0 25:0.0 26:0.0 27:0.0 28:0.0 29:0.0 30:0.0 31:0.0 32:0.0 33:0.0 34:0.0 35:0.0 36:0.0 37:0.0 38:0.0 39:0.0 40:0.0 41:0.0 42:0.0 43:0.0 44:0.0 
1.0 1:0.8488903840171751 2:0.0025534716171030586 3:0.14855614436572195 4:0.507274892286 5:0.662767353598 6:0.637829595343 7:0.6283559277576299 8:0.05900800385378559 9:0.0 10:0.0 11:0.0 12:0.0 13:0.5986477042056594 14:0.369320911415605 15:0.032031384378735615 16:0.424017903081 17:0.445716040481 18:0.462968894018 19:0.3333333333333333 20:0.3333333333333333 21:0.3333333333333333 22:0.0 23:0.0 24:0.0 25:0.0 26:0.0 27:0.0 28:0.0 29:0.0 30:0.0 31:0.0 32:0.0 33:0.0 34:0.0 35:0.0 36:0.0 37:0.0 38:0.0 39:0.0 40:0.0 41:0.0 42:0.0 43:0.0 44:0.0 
1.0 1:0.9878943656923026 2:0.012104366774494795 3:1.2675332025042845E-6 4:0.729992445481 5:0.608336247228 6:0.615775080927 7:0.6223694997187637 8:0.11463707344824679 9:0.0 10:0.0 11:0.0 12:0.0 13:0.4469826365452288 14:0.5530089486574027 15:8.414797368334169E-6 16:0.729992445481 17:0.608336247228 18:0.462968894018 19:0.3333333333333333 20:0.3333333333333333 21:0.3333333333333333 22:0.0 23:0.0 24:0.0 25:0.0 26:0.0 27:0.0 28:0.0 29:0.0 30:0.0 31:0.0 32:0.0 33:0.0 34:0.0 35:0.0 36:0.0 37:1.0 38:0.0 39:0.0 40:0.0 41:0.0 42:1.0 43:0.0 44:0.0 
1.0 1:1.2127704406840564E-6 2:3.2101240346335335E-18 3:0.9999987872295594 4:0.692409603491 5:0.608336247228 6:0.774119499033 7:0.5221786779635801 8:0.03523370875604877 9:0.0 10:0.0 11:0.0 12:0.0 13:0.04799529614508711 14:4.883010439858763E-4 15:0.951516402810927 16:0.424017903081 17:0.608336247228 18:0.774119499033 19:0.3333333333333333 20:0.3333333333333333 21:0.3333333333333333 22:0.0 23:0.0 24:0.0 25:0.0 26:0.0 27:0.0 28:0.0 29:0.0 30:0.0 31:0.0 32:0.0 33:0.0 34:0.0 35:0.0 36:0.0 37:0.0 38:0.0 39:0.0 40:0.0 41:0.0 42:0.0 43:0.0 44:0.0 
1.0 1:0.29128772220679894 2:7.404049485114791E-8 3:0.7087122037527063 4:0.689693708067 5:0.561178557346 6:0.80994067024 7:0.6549568241193624 8:0.0013523011772241893 9:0.0 10:0.0 11:0.0 12:0.0 13:0.4185927172938518 14:0.5616905748189499 15:0.019716707887198412 16:0.411628137477 17:0.51519302917 18:0.650585234834 19:0.3333333333333333 20:0.3333333333333333 21:0.3333333333333333 22:0.0 23:0.0 24:0.0 25:0.0 26:0.0 27:0.0 28:0.0 29:0.0 30:0.0 31:0.0 32:0.0 33:3.0 34:0.0 35:0.0 36:0.0 37:0.0 38:0.0 39:0.0 40:0.0 41:0.0 42:0.0 43:0.0 44:0.0 
1.0 1:1.1805219198240912E-8 2:2.1592962448206865E-16 3:0.9999999881947806 4:0.530322225821 5:0.578162225293 6:0.708278196144 7:0.416332590485 8:0.146431297817 9:0.0 10:0.0 11:0.0 12:0.0 13:4.169835849792603E-5 14:1.4982822674779414E-6 15:0.9999568033592346 16:0.456254201721 17:0.578162225293 18:0.601551179846 19:0.3333333333333333 20:0.3333333333333333 21:0.3333333333333333 22:0.0 23:0.0 24:0.0 25:0.0 26:0.0 27:0.0 28:0.0 29:0.0 30:0.0 31:0.0 32:0.0 33:0.0 34:0.0 35:0.0 36:0.0 37:0.0 38:0.0 39:0.0 40:0.0 41:0.0 42:1.0 43:0.0 44:0.0 
1.0 1:1.2594193843977016E-5 2:1.846615651216721E-7 3:0.9999872211445908 4:0.497602787337 5:0.567669298514 6:0.726951617067 7:8.592346680138653E-4 8:0.0021139663654383403 9:0.0 10:0.0 11:0.0 12:0.0 13:0.11506686762645335 14:0.18838837838008093 15:0.6965447539934658 16:0.491571274027 17:0.521551176392 18:0.598801436633 19:0.3333333333333333 20:0.3333333333333333 21:0.3333333333333333 22:0.0 23:0.0 24:0.0 25:0.0 26:0.0 27:0.0 28:0.0 29:0.0 30:0.0 31:0.0 32:0.0 33:2.0 34:0.0 35:0.0 36:0.0 37:0.0 38:0.0 39:0.0 40:0.0 41:0.0 42:3.0 43:0.0 44:0.0 
1.0 1:0.18747445669094193 2:0.6792067800404714 3:0.13331876326858672 4:0.735649196347 5:0.611496946345 6:0.710914526918 7:0.5604091349237069 8:0.047792770668488596 9:0.0 10:0.0 11:0.0 12:0.0 13:0.06628964637432763 14:0.9334401851448894 15:2.701684807830145E-4 16:0.534148143359 17:0.550295492601 18:0.594427361696 19:0.3333333333333333 20:0.3333333333333333 21:0.3333333333333333 22:0.0 23:0.0 24:0.0 25:0.0 26:0.0 27:0.0 28:0.0 29:0.0 30:0.0 31:0.0 32:0.0 33:0.0 34:0.0 35:0.0 36:0.0 37:0.0 38:0.0 39:0.0 40:0.0 41:0.0 42:0.0 43:0.0 44:0.0 
1.0 1:6.881525408093065E-14 2:2.0459116892318154E-15 3:0.9999999999999292 4:0.795935856362 5:0.608336247228 6:0.921736635579 7:0.7506797456201766 8:0.17944451461530364 9:0.0 10:0.0 11:0.0 12:0.0 13:0.24580033478921848 14:0.6430389636220915 15:0.11116070158869 16:0.597563469902 17:0.608336247228 18:0.744723481066 19:0.8264393139491654 20:0.08327545791391665 21:0.09028522813691806 22:0.826439313949 23:0.0832754579139 24:0.0902852281369 25:0.0 26:0.0 27:0.0 28:0.0 29:0.0 30:0.0 31:0.0 32:0.0 33:2.0 34:0.0 35:0.0 36:0.0 37:1.0 38:0.0 39:0.0 40:0.0 41:0.0 42:0.0 43:0.0 44:0.0 
1.0 1:0.2598100389353903 2:0.02245250143626711 3:0.7177374596283427 4:0.494587849646 5:0.520233488371 6:0.739457056023 7:0.494587849646 8:0.194924591263 9:0.0 10:0.0 11:0.0 12:0.0 13:0.4029832525502046 14:0.1788264154756582 15:0.4181903319741372 16:0.411628137477 17:0.520233488371 18:0.489679051583 19:0.8963370578980897 20:0.07018974669200702 21:0.03347319540990335 22:0.896337057898 23:0.070189746692 24:0.0334731954099 25:0.0 26:0.0 27:0.0 28:0.0 29:0.0 30:0.0 31:0.0 32:0.0 33:0.0 34:0.0 35:0.0 36:0.0 37:0.0 38:0.0 39:0.0 40:0.0 41:0.0 42:0.0 43:0.0 44:0.0 
1.0 1:0.9999945334393633 2:5.7886335531485484E-8 3:5.4086743012091285E-6 4:0.661646200293 5:0.539912722643 6:0.6293334656 7:0.8524049846975634 8:0.07537013139119206 9:0.0 10:0.0 11:0.0 12:0.0 13:0.2853551385466088 14:0.7142773785288171 15:3.674829245741344E-4 16:0.550190269102 17:0.539912722643 18:0.553667314195 19:0.3333333333333333 20:0.3333333333333333 21:0.3333333333333333 22:0.0 23:0.0 24:0.0 25:0.0 26:0.0 27:0.0 28:0.0 29:0.0 30:0.0 31:0.0 32:0.0 33:0.0 34:1.0 35:0.0 36:0.0 37:0.0 38:0.0 39:0.0 40:0.0 41:0.0 42:0.0 43:0.0 44:0.0 
1.0 1:3.004878196350974E-20 2:1.024159035631608E-14 3:0.9999999999999898 4:0.593868575237 5:0.563234579246 6:0.906304062232 7:0.37798686708267115 8:0.08606606137580695 9:0.0 10:0.0 11:0.0 12:0.0 13:0.011082005411396601 14:0.049727754933596775 15:0.9391902396550066 16:0.411628137477 17:0.513799842224 18:0.744723481066 19:0.3333333333333333 20:0.3333333333333333 21:0.3333333333333333 22:0.0 23:0.0 24:0.0 25:0.0 26:0.0 27:0.0 28:0.0 29:0.0 30:0.0 31:0.0 32:0.0 33:2.0 34:0.0 35:0.0 36:0.0 37:2.0 38:0.0 39:0.0 40:0.0 41:0.0 42:0.0 43:0.0 44:0.0 
1.0 1:0.5992591333021232 2:1.605221853106222E-8 3:0.40074085064565823 4:0.710675297596 5:0.480721027819 6:0.687940437781 7:0.812453853597086 8:0.05965599199483215 9:0.0 10:0.0 11:0.0 12:0.0 13:0.12632257716563877 14:0.012996880845459627 15:0.8606805419889016 16:0.495404129315 17:0.480721027819 18:0.650585234834 19:0.3333333333333333 20:0.3333333333333333 21:0.3333333333333333 22:0.0 23:0.0 24:0.0 25:0.0 26:0.0 27:0.0 28:0.0 29:0.0 30:0.0 31:0.0 32:0.0 33:2.0 34:0.0 35:0.0 36:0.0 37:0.0 38:0.0 39:0.0 40:0.0 41:0.0 42:0.0 43:0.0 44:0.0 
1.0 1:5.5842105459707236E-5 2:4.655562891091356E-13 3:0.9999441578940748 4:0.733726880443 5:0.44515240724 6:0.789334558608 7:0.6267090321040688 8:0.0016380141064854616 9:0.0 10:0.0 11:0.0 12:0.0 13:0.07124229343105047 14:5.05738026903465E-4 15:0.928251968542046 16:0.733726880443 17:0.259347884613 18:0.562808491169 19:0.3333333333333333 20:0.3333333333333333 21:0.3333333333333333 22:0.0 23:0.0 24:0.0 25:0.0 26:0.0 27:0.0 28:0.0 29:0.0 30:0.0 31:1.0 32:0.0 33:0.0 34:0.0 35:0.0 36:0.0 37:0.0 38:0.0 39:0.0 40:0.0 41:0.0 42:1.0 43:0.0 44:0.0 
1.0 1:1.1145185332688335E-6 2:9.091444025305728E-5 3:0.9999079710412135 4:0.693087371445 5:0.625587264875 6:0.752081853149 7:0.923468992757783 8:0.06487040976635475 9:0.0 10:0.0 11:0.0 12:0.0 13:0.016779445056595208 14:0.9783025396564393 15:0.004918015286965385 16:0.411628137477 17:0.625587264875 18:0.640406171696 19:0.3333333333333333 20:0.3333333333333333 21:0.3333333333333333 22:0.0 23:0.0 24:0.0 25:0.0 26:0.0 27:0.0 28:0.0 29:0.0 30:0.0 31:4.0 32:0.0 33:0.0 34:0.0 35:0.0 36:0.0 37:0.0 38:0.0 39:0.0 40:0.0 41:0.0 42:1.0 43:0.0 44:0.0 
1.0 1:0.03594518792760595 2:1.0565294440793444E-6 3:0.96405375554295 4:0.699949424164 5:0.809498484705 6:0.75623317702 7:0.6156906604382917 8:0.04110657542629775 9:0.0 10:0.0 11:0.0 12:0.0 13:0.07186779329258101 14:0.907180152111907 15:0.020952054595512058 16:0.440079878096 17:0.690571458754 18:0.741502466006 19:0.3333333333333333 20:0.3333333333333333 21:0.3333333333333333 22:0.0 23:0.0 24:0.0 25:0.0 26:0.0 27:0.0 28:0.0 29:0.0 30:0.0 31:0.0 32:0.0 33:1.0 34:0.0 35:0.0 36:0.0 37:0.0 38:0.0 39:0.0 40:0.0 41:0.0 42:0.0 43:0.0 44:0.0 
1.0 1:6.38545245975445E-9 2:2.23424577657938E-5 3:0.9999776511567817 4:0.849411934663 5:0.690571458754 6:0.845831276327 7:0.37944581552245293 8:0.1833439348777318 9:0.0 10:0.0 11:0.0 12:0.0 13:7.915071689731964E-4 14:0.9990220427457398 15:1.8645008528690892E-4 16:0.614045615247 17:0.690571458754 18:0.697551844 19:0.3333333333333333 20:0.3333333333333333 21:0.3333333333333333 22:0.0 23:0.0 24:0.0 25:0.0 26:0.0 27:0.0 28:0.0 29:0.0 30:0.0 31:6.0 32:1.0 33:3.0 34:0.0 35:0.0 36:0.0 37:0.0 38:0.0 39:0.0 40:0.0 41:0.0 42:2.0 43:0.0 44:0.0 
1.0 1:0.21573113525979196 2:0.7842651887461501 3:3.675994057880979E-6 4:0.670059137737 5:0.550295492601 6:0.576433535991 7:0.750071368060052 8:0.17006983448759005 9:0.0 10:0.0 11:0.0 12:0.0 13:0.02951596118287076 14:0.9704606544798341 15:2.3384337295118588E-5 16:0.603387768261 17:0.550295492601 18:0.548932298209 19:0.3333333333333333 20:0.3333333333333333 21:0.3333333333333333 22:0.0 23:0.0 24:0.0 25:0.0 26:0.0 27:0.0 28:0.0 29:0.0 30:0.0 31:0.0 32:0.0 33:0.0 34:0.0 35:0.0 36:0.0 37:0.0 38:0.0 39:0.0 40:0.0 41:0.0 42:0.0 43:0.0 44:0.0 
1.0 1:0.6719493858242325 2:4.8128475604377485E-8 3:0.32805056604729205 4:0.727071317195 5:0.559305498599 6:0.747847162165 7:0.361014769218 8:0.48383779997199994 9:0.0 10:0.0 11:0.0 12:0.0 13:0.187774326233873 14:0.8092123648962327 15:0.0030133088698942804 16:0.555857447643 17:0.559305498599 18:0.573203991524 19:0.3333333333333333 20:0.3333333333333333 21:0.3333333333333333 22:0.0 23:0.0 24:0.0 25:0.0 26:0.0 27:0.0 28:0.0 29:0.0 30:0.0 31:0.0 32:0.0 33:0.0 34:0.0 35:0.0 36:0.0 37:0.0 38:0.0 39:0.0 40:0.0 41:0.0 42:0.0 43:0.0 44:0.0 
1.0 1:8.384305210308216E-12 2:7.625378990138948E-23 3:0.9999999999916156 4:0.605472323402 5:0.803432336011 6:0.873522480021 7:0.07621439074075888 8:0.001093928610793007 9:0.0 10:0.0 11:0.0 12:0.0 13:1.619611717537612E-5 14:6.669535339974647E-9 15:0.9999837972132893 16:0.430734721916 17:0.803432336011 18:0.713423706218 19:0.3333333333333333 20:0.3333333333333333 21:0.3333333333333333 22:0.0 23:0.0 24:0.0 25:0.0 26:0.0 27:0.0 28:0.0 29:0.0 30:0.0 31:0.0 32:0.0 33:0.0 34:0.0 35:0.0 36:0.0 37:1.0 38:0.0 39:0.0 40:0.0 41:0.0 42:1.0 43:0.0 44:0.0 
1.0 1:2.9106860695817498E-15 2:6.410076341948699E-21 3:0.9999999999999971 4:0.520802111085 5:0.625587264875 6:0.929556530712 7:0.5413741884233964 8:0.08571705850954056 9:0.0 10:0.0 11:0.0 12:0.0 13:0.0063038359656191045 14:0.010699320509811344 15:0.9829968435245696 16:0.411628137477 17:0.625587264875 18:0.759093601803 19:0.3333333333333333 20:0.3333333333333333 21:0.3333333333333333 22:0.0 23:0.0 24:0.0 25:0.0 26:0.0 27:0.0 28:0.0 29:0.0 30:0.0 31:0.0 32:0.0 33:0.0 34:0.0 35:0.0 36:0.0 37:0.0 38:0.0 39:0.0 40:0.0 41:0.0 42:0.0 43:0.0 44:0.0 
1.0 1:3.942973436826428E-20 2:8.790385037064623E-15 3:0.9999999999999912 4:0.538422069982 5:0.577776004498 6:0.838921123288 7:0.25550919546555895 8:0.5109518300956865 9:0.0 10:0.0 11:0.0 12:0.0 13:0.16690694734627898 14:0.0624641039837442 15:0.7706289486699768 16:0.424017903081 17:0.534739513576 18:0.81817348658 19:0.3333333333333333 20:0.3333333333333333 21:0.3333333333333333 22:0.0 23:0.0 24:0.0 25:0.0 26:0.0 27:0.0 28:0.0 29:0.0 30:0.0 31:0.0 32:0.0 33:1.0 34:0.0 35:0.0 36:0.0 37:0.0 38:0.0 39:0.0 40:0.0 41:0.0 42:1.0 43:0.0 44:0.0 
1.0 1:0.03940463264111289 2:7.374769070685595E-11 3:0.9605953672851394 4:0.708260496272 5:0.608336247228 6:0.76765367649 7:0.705668753214268 8:6.03515891978016E-6 9:0.0 10:0.0 11:0.0 12:0.0 13:0.0435123143374045 14:0.9564208136279204 15:6.687203467514884E-5 16:0.707901132908 17:0.608336247228 18:0.614085337986 19:0.3333333333333333 20:0.3333333333333333 21:0.3333333333333333 22:0.0 23:0.0 24:0.0 25:0.0 26:0.0 27:0.0 28:0.0 29:0.0 30:0.0 31:0.0 32:0.0 33:0.0 34:0.0 35:0.0 36:0.0 37:0.0 38:0.0 39:0.0 40:0.0 41:0.0 42:0.0 43:0.0 44:0.0 
1.0 1:7.189329403113802E-11 2:1.8429733179940466E-19 3:0.9999999999281067 4:0.808239799916 5:0.560184437834 6:0.839457940354 7:0.956255794876351 8:2.7655233152592515E-4 9:0.0 10:0.0 11:0.0 12:0.0 13:0.034733318949928586 14:0.009521399536756636 15:0.9557452815133147 16:0.424017903081 17:0.508816041006 18:0.774119499033 19:0.3333333333333333 20:0.3333333333333333 21:0.3333333333333333 22:0.0 23:0.0 24:0.0 25:0.0 26:0.0 27:0.0 28:0.0 29:0.0 30:0.0 31:0.0 32:1.0 33:4.0 34:0.0 35:0.0 36:0.0 37:0.0 38:0.0 39:0.0 40:0.0 41:0.0 42:0.0 43:0.0 44:0.0 
1.0 1:0.8998807228269495 2:4.1981187757031297E-8 3:0.10011923519186268 4:0.803918134457 5:0.550295492601 6:0.720826062248 7:0.7934821807095536 8:0.01263010585625493 9:0.0 10:0.0 11:0.0 12:0.0 13:0.7118511236776339 14:0.28152003200331827 15:0.006628844319047781 16:0.597563469902 17:0.550295492601 18:0.522329304415 19:0.3333333333333333 20:0.3333333333333333 21:0.3333333333333333 22:0.0 23:0.0 24:0.0 25:0.0 26:0.0 27:0.0 28:0.0 29:0.0 30:0.0 31:0.0 32:0.0 33:0.0 34:0.0 35:0.0 36:0.0 37:0.0 38:0.0 39:0.0 40:0.0 41:0.0 42:0.0 43:0.0 44:0.0 
1.0 1:0.0039811912738766525 2:1.327695210775733E-6 3:0.9960174810309126 4:0.874049302044 5:0.558288536426 6:0.908900207914 7:0.277922971911797 8:0.603891640477067 9:0.0 10:0.0 11:0.0 12:0.0 13:0.16445741211974327 14:0.08390946745217025 15:0.7516331204280865 16:0.517254953566 17:0.51519302917 18:0.828249199148 19:0.3333333333333333 20:0.3333333333333333 21:0.3333333333333333 22:0.0 23:0.0 24:0.0 25:0.0 26:0.0 27:0.0 28:0.0 29:0.0 30:0.0 31:1.0 32:0.0 33:0.0 34:0.0 35:0.0 36:0.0 37:0.0 38:0.0 39:0.0 40:0.0 41:0.0 42:1.0 43:0.0 44:0.0 
1.0 1:0.2685396989494738 2:0.06278411340883777 3:0.6686761876416885 4:0.504986501824 5:0.53063193835 6:0.645209302917 7:0.33333333333333337 8:0.33333333333333337 9:0.0 10:0.0 11:0.0 12:0.0 13:0.10983315773234736 14:0.8869069872131901 15:0.003259855054462452 16:0.479221400939 17:0.520902710501 18:0.594427361696 19:0.3333333333333333 20:0.3333333333333333 21:0.3333333333333333 22:0.0 23:0.0 24:0.0 25:0.0 26:0.0 27:0.0 28:0.0 29:0.0 30:0.0 31:0.0 32:0.0 33:0.0 34:0.0 35:0.0 36:0.0 37:0.0 38:0.0 39:0.0 40:0.0 41:0.0 42:0.0 43:0.0 44:0.0 
1.0 1:0.9785675969063157 2:0.02142886319762106 3:3.539896063213468E-6 4:0.603387768261 5:0.51519302917 6:0.798558468945 7:0.808915971374765 8:0.12301956494683307 9:0.0 10:0.0 11:0.0 12:0.0 13:0.3948529798379852 14:0.6050668149434604 15:8.020521855445263E-5 16:0.603387768261 17:0.51519302917 18:0.304072220383 19:0.3333333333333333 20:0.3333333333333333 21:0.3333333333333333 22:0.0 23:0.0 24:0.0 25:0.0 26:0.0 27:0.0 28:0.0 29:0.0 30:0.0 31:1.0 32:0.0 33:0.0 34:0.0 35:0.0 36:0.0 37:0.0 38:0.0 39:0.0 40:0.0 41:0.0 42:0.0 43:0.0 44:0.0 
1.0 1:5.101429193139958E-14 2:5.565808713915828E-26 3:0.9999999999999489 4:0.769461885264 5:0.445716040481 6:0.908891936623 7:0.9213807985994885 8:0.024295944069057374 9:0.0 10:0.0 11:0.0 12:0.0 13:0.18114394736154749 14:0.0183510235987935 15:0.800505029039659 16:0.411628137477 17:0.445716040481 18:0.744532097142 19:0.3333333333333333 20:0.3333333333333333 21:0.3333333333333333 22:0.0 23:0.0 24:0.0 25:0.0 26:0.0 27:0.0 28:0.0 29:0.0 30:0.0 31:1.0 32:0.0 33:0.0 34:0.0 35:0.0 36:0.0 37:0.0 38:0.0 39:0.0 40:0.0 41:0.0 42:0.0 43:0.0 44:0.0 
1.0 1:0.20791451455532953 2:2.72877636927623E-10 3:0.7920854851717929 4:0.784220004417 5:0.536513393024 6:0.756524149184 7:0.8403884801241306 8:0.0022963049297467846 9:0.0 10:0.0 11:0.0 12:0.0 13:0.16343263720854317 14:0.7019290897122895 15:0.13463827307916723 16:0.411628137477 17:0.536513393024 18:0.756524149184 19:0.3333333333333333 20:0.3333333333333333 21:0.3333333333333333 22:0.0 23:0.0 24:0.0 25:0.0 26:0.0 27:0.0 28:0.0 29:0.0 30:0.0 31:0.0 32:0.0 33:0.0 34:0.0 35:0.0 36:0.0 37:1.0 38:0.0 39:0.0 40:0.0 41:0.0 42:0.0 43:0.0 44:0.0 
1.0 1:0.5601669604211958 2:0.10961210885832046 3:0.3302209307204837 4:0.411628137477 5:0.57327211165 6:0.699079665578 7:0.3333333333333333 8:0.3333333333333333 9:0.0 10:0.0 11:0.0 12:0.0 13:0.4116281374765884 14:0.37106813455262894 15:0.21730372797078268 16:0.411628137477 17:0.371068134553 18:0.217303727971 19:0.3333333333333333 20:0.3333333333333333 21:0.3333333333333333 22:0.0 23:0.0 24:0.0 25:0.0 26:0.0 27:0.0 28:0.0 29:0.0 30:0.0 31:1.0 32:0.0 33:0.0 34:0.0 35:0.0 36:0.0 37:1.0 38:0.0 39:0.0 40:0.0 41:0.0 42:0.0 43:0.0 44:0.0 
1.0 1:0.32037462070566514 2:1.6505793909711676E-5 3:0.6796088735004252 4:0.540526054 5:0.247164504157 6:0.643624310103 7:0.51004487369749 8:0.16983869486683018 9:0.0 10:0.0 11:0.0 12:0.0 13:0.33333333333333337 14:0.33333333333333337 15:0.33333333333333337 16:0.0 17:0.0 18:0.0 19:0.3333333333333333 20:0.3333333333333333 21:0.3333333333333333 22:0.0 23:0.0 24:0.0 25:0.0 26:0.0 27:0.0 28:0.0 29:0.0 30:0.0 31:2.0 32:0.0 33:0.0 34:0.0 35:0.0 36:0.0 37:1.0 38:0.0 39:0.0 40:0.0 41:0.0 42:0.0 43:0.0 44:0.0 
1.0 1:0.7166324768846511 2:4.895052131761469E-4 3:0.28287801790217276 4:0.556364104358 5:0.51519302917 6:0.758372463349 7:0.6031373923258952 8:0.0049988209305015675 9:0.0 10:0.0 11:0.0 12:0.0 13:0.7846803613048762 14:0.19326239146958282 15:0.022057247225541022 16:0.424017903081 17:0.51519302917 18:0.374904640962 19:0.3333333333333333 20:0.3333333333333333 21:0.3333333333333333 22:0.0 23:0.0 24:0.0 25:0.0 26:0.0 27:0.0 28:0.0 29:0.0 30:0.0 31:0.0 32:0.0 33:0.0 34:0.0 35:0.0 36:0.0 37:0.0 38:0.0 39:0.0 40:0.0 41:0.0 42:0.0 43:0.0 44:0.0 
1.0 1:0.13141421908983378 2:5.60139355027268E-7 3:0.8685852207708112 4:0.788902918654 5:0.552092139211 6:0.823111014667 7:0.7884291026280632 8:0.03099981835537365 9:0.0 10:0.0 11:0.0 12:0.0 13:0.49495894653526235 14:0.4950039590334869 15:0.01003709443125077 16:0.438309046749 17:0.47944680749 18:0.273184374238 19:0.3333333333333333 20:0.3333333333333333 21:0.3333333333333333 22:0.0 23:0.0 24:0.0 25:0.0 26:0.0 27:0.0 28:0.0 29:0.0 30:0.0 31:0.0 32:0.0 33:0.0 34:0.0 35:0.0 36:0.0 37:0.0 38:0.0 39:0.0 40:0.0 41:0.0 42:0.0 43:0.0 44:0.0 
1.0 1:2.662290721889697E-4 2:3.93560950391945E-8 3:0.9997337315717161 4:0.47920252245 5:0.702687113606 6:0.713418839626 7:0.15531219241192526 8:0.020221571364740343 9:0.0 10:0.0 11:0.0 12:0.0 13:0.1075229938042421 14:0.8434245877033343 15:0.04905241849242364 16:0.424017903081 17:0.702687113606 18:0.625828077201 19:0.3333333333333333 20:0.3333333333333333 21:0.3333333333333333 22:0.0 23:0.0 24:0.0 25:0.0 26:0.0 27:0.0 28:0.0 29:0.0 30:0.0 31:0.0 32:0.0 33:0.0 34:0.0 35:0.0 36:0.0 37:0.0 38:0.0 39:0.0 40:0.0 41:0.0 42:0.0 43:0.0 44:0.0 
1.0 1:0.01551913897105915 2:0.8720053085931833 3:0.11247555243575752 4:0.675973136536 5:0.829417909525 6:0.681906192896 7:0.09393523720569305 8:0.8095341605744325 9:0.0 10:0.0 11:0.0 12:0.0 13:0.06419711242652659 14:0.9356591467612966 15:1.4374081217680566E-4 16:0.411628137477 17:0.717847545587 18:0.681906192896 19:0.3333333333333333 20:0.3333333333333333 21:0.3333333333333333 22:0.0 23:0.0 24:0.0 25:0.0 26:0.0 27:0.0 28:0.0 29:0.0 30:0.0 31:0.0 32:0.0 33:0.0 34:0.0 35:0.0 36:0.0 37:0.0 38:0.0 39:0.0 40:0.0 41:0.0 42:0.0 43:1.0 44:0.0 
1.0 1:0.010592093149091342 2:1.2827786016428054E-8 3:0.9894078940231227 4:0.575806509741 5:0.473148490664 6:0.742522174052 7:0.48611931853916696 8:0.013549380246129093 9:0.0 10:0.0 11:0.0 12:0.0 13:0.17153189383546658 14:0.8241260408802674 15:0.0043420652842660595 16:0.424017903081 17:0.460696346969 18:0.659895190035 19:0.6199181083968139 20:0.3183992137449045 21:0.061682677858281486 22:0.619918108397 23:0.318399213745 24:0.0616826778583 25:0.0 26:0.0 27:0.0 28:0.0 29:0.0 30:0.0 31:0.0 32:0.0 33:3.0 34:0.0 35:0.0 36:0.0 37:1.0 38:0.0 39:0.0 40:0.0 41:0.0 42:0.0 43:0.0 44:0.0 
1.0 1:0.8258649729158885 2:4.8156110689428815E-6 3:0.1741302114730426 4:0.632370843397 5:0.809254176937 6:0.775266489062 7:0.9364127964511963 8:4.563510874632259E-5 9:0.0 10:0.0 11:0.0 12:0.0 13:0.388544523842211 14:0.01945654196345437 15:0.5919989341943347 16:0.597563469902 17:0.809254176937 18:0.775266489062 19:0.3333333333333333 20:0.3333333333333333 21:0.3333333333333333 22:0.0 23:0.0 24:0.0 25:0.0 26:0.0 27:0.0 28:0.0 29:0.0 30:0.0 31:2.0 32:0.0 33:1.0 34:0.0 35:0.0 36:0.0 37:0.0 38:0.0 39:0.0 40:0.0 41:0.0 42:1.0 43:0.0 44:0.0 
1.0 1:0.03259650695089934 2:0.9673397357169494 3:6.375733215118513E-5 4:0.441826525147 5:0.531663155652 6:0.612774072971 7:0.36275491424932127 8:0.5793803786351032 9:0.0 10:0.0 11:0.0 12:0.0 13:0.005588139892027234 14:0.9944095848805119 15:2.2752274608536063E-6 16:0.411628137477 17:0.531663155652 18:0.609748333355 19:0.3333333333333333 20:0.3333333333333333 21:0.3333333333333333 22:0.0 23:0.0 24:0.0 25:0.0 26:0.0 27:0.0 28:0.0 29:0.0 30:0.0 31:0.0 32:0.0 33:0.0 34:0.0 35:0.0 36:0.0 37:0.0 38:0.0 39:0.0 40:0.0 41:0.0 42:0.0 43:0.0 44:0.0 
1.0 1:0.05434280142722704 2:1.4348432059058995E-5 3:0.9456428501407139 4:0.566034172082 5:0.680251668082 6:0.846341967365 7:0.5078167979221699 8:0.05357608626403279 9:0.0 10:0.0 11:0.0 12:0.0 13:0.0018639140484028674 14:0.9979431343913913 15:1.929515602058247E-4 16:0.484124123049 17:0.51519302917 18:0.691314241486 19:0.3333333333333333 20:0.3333333333333333 21:0.3333333333333333 22:0.0 23:0.0 24:0.0 25:0.0 26:0.0 27:0.0 28:0.0 29:0.0 30:0.0 31:0.0 32:0.0 33:0.0 34:0.0 35:0.0 36:0.0 37:0.0 38:0.0 39:0.0 40:0.0 41:0.0 42:0.0 43:0.0 44:0.0 
1.0 1:6.044222287410426E-7 2:3.502694733209986E-14 3:0.9999993955777362 4:0.632370843397 5:0.680251668082 6:0.752291920268 7:0.046366650950330594 8:2.02495953690129E-6 9:0.0 10:0.0 11:0.0 12:0.0 13:0.2279600595953957 14:0.551583928083748 15:0.22045601232085632 16:0.411628137477 17:0.531663155652 18:0.752291920268 19:0.3333333333333333 20:0.3333333333333333 21:0.3333333333333333 22:0.0 23:0.0 24:0.0 25:0.0 26:0.0 27:0.0 28:0.0 29:0.0 30:0.0 31:1.0 32:0.0 33:3.0 34:0.0 35:0.0 36:0.0 37:0.0 38:0.0 39:0.0 40:0.0 41:0.0 42:0.0 43:0.0 44:0.0 
1.0 1:0.025059933553357616 2:4.4320411937558215E-8 3:0.9749400221262304 4:0.795935856362 5:0.555663676977 6:0.714548784255 7:0.6073608753590697 8:0.008620514117224877 9:0.0 10:0.0 11:0.0 12:0.0 13:0.2949203191271911 14:0.2365013719745736 15:0.4685783088982353 16:0.430647069612 17:0.555663676977 18:0.658299304046 19:0.8264393139491654 20:0.08327545791391665 21:0.09028522813691806 22:0.826439313949 23:0.0832754579139 24:0.0902852281369 25:0.0 26:0.0 27:0.0 28:0.0 29:0.0 30:0.0 31:0.0 32:0.0 33:0.0 34:0.0 35:0.0 36:0.0 37:0.0 38:0.0 39:0.0 40:0.0 41:0.0 42:0.0 43:0.0 44:0.0 
1.0 1:0.8418539503354785 2:0.13963203274591052 3:0.018514016918611008 4:0.587649851264 5:0.552092139211 6:0.68953570522 7:0.40489004692551034 8:0.40930551616775607 9:0.0 10:0.0 11:0.0 12:0.0 13:0.38441824921297996 14:0.6138341789838121 15:0.001747571803207988 16:0.587649851264 17:0.514024313272 18:0.68953570522 19:0.3333333333333333 20:0.3333333333333333 21:0.3333333333333333 22:0.0 23:0.0 24:0.0 25:0.0 26:0.0 27:0.0 28:0.0 29:0.0 30:0.0 31:0.0 32:0.0 33:0.0 34:0.0 35:0.0 36:0.0 37:0.0 38:0.0 39:0.0 40:0.0 41:0.0 42:0.0 43:0.0 44:0.0 
1.0 1:0.46907560013653093 2:2.6544932424847333E-11 3:0.5309243998369241 4:0.791125206668 5:0.550295492601 6:0.730776417141 7:0.761074670164807 8:0.07093013254603606 9:0.0 10:0.0 11:0.0 12:0.0 13:0.11757950726774079 14:0.6178421020615446 15:0.26457839067071465 16:0.411628137477 17:0.550295492601 18:0.697919410374 19:0.3333333333333333 20:0.3333333333333333 21:0.3333333333333333 22:0.0 23:0.0 24:0.0 25:0.0 26:0.0 27:0.0 28:0.0 29:0.0 30:0.0 31:2.0 32:0.0 33:0.0 34:0.0 35:0.0 36:0.0 37:0.0 38:0.0 39:0.0 40:0.0 41:0.0 42:0.0 43:0.0 44:0.0 
1.0 1:0.9999598166561982 2:4.004144834029998E-5 3:1.4189546149864509E-7 4:0.708876523698 5:0.550295492601 6:0.532890695255 7:0.5715803558422823 8:0.11049011100995369 9:0.0 10:0.0 11:0.0 12:0.0 13:0.03712435037162772 14:0.9628711580309631 15:4.491597409169071E-6 16:0.424017903081 17:0.550295492601 18:0.470859649143 19:0.3333333333333333 20:0.3333333333333333 21:0.3333333333333333 22:0.0 23:0.0 24:0.0 25:0.0 26:0.0 27:0.0 28:0.0 29:0.0 30:0.0 31:0.0 32:0.0 33:0.0 34:0.0 35:0.0 36:0.0 37:0.0 38:0.0 39:0.0 40:0.0 41:0.0 42:0.0 43:0.0 44:0.0 
1.0 1:2.1327728743137118E-9 2:2.5775325858271833E-7 3:0.9999997401139686 4:0.801622586972 5:0.691771040621 6:0.85519849555 7:0.8543056890747769 8:0.13187488491335597 9:0.0 10:0.0 11:0.0 12:0.0 13:0.08673476694521569 14:0.2757772785920481 15:0.6374879544627362 16:0.415989972731 17:0.550295492601 18:0.658299304046 19:0.3333333333333333 20:0.3333333333333333 21:0.3333333333333333 22:0.0 23:0.0 24:0.0 25:0.0 26:0.0 27:0.0 28:0.0 29:0.0 30:0.0 31:0.0 32:0.0 33:2.0 34:0.0 35:0.0 36:0.0 37:0.0 38:0.0 39:0.0 40:0.0 41:0.0 42:0.0 43:0.0 44:0.0 
1.0 1:0.02751378377459036 2:9.632875849355521E-13 3:0.9724862162244464 4:0.7349988027 5:0.590657036864 6:0.801008003171 7:0.7349988027005881 8:0.051263631220241 9:0.0 10:0.0 11:0.0 12:0.0 13:0.8360286345346636 14:0.03990141571211653 15:0.12406994975322005 16:0.411628137477 17:0.445716040481 18:0.551651522041 19:0.3333333333333333 20:0.3333333333333333 21:0.3333333333333333 22:0.0 23:0.0 24:0.0 25:0.0 26:0.0 27:0.0 28:0.0 29:0.0 30:0.0 31:0.0 32:0.0 33:0.0 34:0.0 35:0.0 36:0.0 37:0.0 38:0.0 39:0.0 40:0.0 41:0.0 42:0.0 43:0.0 44:0.0 
1.0 1:0.955750015099545 2:0.027704933488226037 3:0.016545051412228815 4:0.6513126395 5:0.569393362712 6:0.686973189363 7:0.41478751315151485 8:0.09802316086216271 9:0.0 10:0.0 11:0.0 12:0.0 13:0.12738931421621597 14:0.8714647578134604 15:0.0011459279703237236 16:0.597563469902 17:0.569393362712 18:0.443966307463 19:0.3333333333333333 20:0.3333333333333333 21:0.3333333333333333 22:0.0 23:0.0 24:0.0 25:0.0 26:0.0 27:0.0 28:0.0 29:0.0 30:0.0 31:0.0 32:0.0 33:0.0 34:0.0 35:0.0 36:0.0 37:0.0 38:0.0 39:0.0 40:0.0 41:0.0 42:0.0 43:0.0 44:0.0 
1.0 1:0.0012197544817099842 2:2.268661187092825E-13 3:0.9987802455180631 4:0.675047937918 5:0.508816041006 6:0.842244538274 7:0.8294123862486145 8:0.005453516143018035 9:0.0 10:0.0 11:0.0 12:0.0 13:0.016057775960618803 14:0.0029616582991572205 15:0.980980565740224 16:0.32379281285 17:0.508816041006 18:0.693899081196 19:0.9752028383702803 20:0.003360667587586032 21:0.021436494042133596 22:0.845931364455 23:0.0526762609305 24:0.14805038345 25:0.0 26:0.0 27:0.0 28:0.0 29:0.0 30:0.0 31:0.0 32:0.0 33:1.0 34:0.0 35:0.0 36:0.0 37:1.0 38:0.0 39:0.0 40:0.0 41:0.0 42:0.0 43:0.0 44:0.0 
1.0 1:0.3184818261801488 2:0.5240414015530303 3:0.157476772266821 4:0.41269052995 5:0.508865512749 6:0.450480581284 7:0.3333333333333333 8:0.3333333333333333 9:0.0 10:0.0 11:0.0 12:0.0 13:0.2681083763772613 14:0.6363845455221786 15:0.0955070781005599 16:0.41269052995 17:0.508865512749 18:0.430201919206 19:0.3333333333333333 20:0.3333333333333333 21:0.3333333333333333 22:0.0 23:0.0 24:0.0 25:0.0 26:0.0 27:0.0 28:0.0 29:0.0 30:0.0 31:0.0 32:0.0 33:0.0 34:0.0 35:0.0 36:0.0 37:0.0 38:0.0 39:0.0 40:0.0 41:0.0 42:0.0 43:0.0 44:0.0 
1.0 1:5.663987355842814E-6 2:1.2964093194692E-10 3:0.9999943358830032 4:0.614524856682 5:0.601862959543 6:0.837424880512 7:0.3219618600879262 8:0.022727623789419605 9:0.0 10:0.0 11:0.0 12:0.0 13:0.04379219345285022 14:0.00847820964078052 15:0.9477295969063692 16:0.41269052995 17:0.508865512749 18:0.676561508979 19:0.3333333333333333 20:0.3333333333333333 21:0.3333333333333333 22:0.0 23:0.0 24:0.0 25:0.0 26:0.0 27:0.0 28:0.0 29:0.0 30:0.0 31:1.0 32:0.0 33:0.0 34:0.0 35:0.0 36:0.0 37:0.0 38:0.0 39:0.0 40:0.0 41:0.0 42:0.0 43:0.0 44:0.0 
1.0 1:6.858661166858055E-9 2:5.585389059647042E-20 3:0.9999999931413388 4:0.675047937918 5:0.593077414349 6:0.807054882672 7:0.300268119546169 8:0.0014451312865713744 9:0.0 10:0.0 11:0.0 12:0.0 13:0.1607832932754143 14:6.678449767599292E-4 15:0.8385488617478258 16:0.424017903081 17:0.550295492601 18:0.693899081196 19:0.3333333333333333 20:0.3333333333333333 21:0.3333333333333333 22:0.0 23:0.0 24:0.0 25:0.0 26:0.0 27:0.0 28:0.0 29:0.0 30:0.0 31:0.0 32:0.0 33:2.0 34:0.0 35:0.0 36:0.0 37:0.0 38:0.0 39:0.0 40:0.0 41:0.0 42:0.0 43:0.0 44:0.0 
1.0 1:0.06284289070477146 2:4.462142174468823E-14 3:0.9371571092951839 4:0.74254050105 5:0.437662763475 6:0.692933321937 7:0.014433388197582702 8:1.4991341824618373E-4 9:0.0 10:0.0 11:0.0 12:0.0 13:0.9634049394483835 14:1.5106163923279728E-4 15:0.03644399891238371 16:0.680762205225 17:0.412899439923 18:0.67794659396 19:0.3333333333333333 20:0.3333333333333333 21:0.3333333333333333 22:0.0 23:0.0 24:0.0 25:0.0 26:0.0 27:2.0 28:0.0 29:0.0 30:0.0 31:0.0 32:0.0 33:0.0 34:0.0 35:0.0 36:0.0 37:1.0 38:0.0 39:0.0 40:0.0 41:0.0 42:1.0 43:0.0 44:0.0 
1.0 1:1.7987407601406823E-12 2:6.251021462908468E-16 3:0.9999999999982007 4:0.701909382322 5:0.537236408499 6:0.835590228762 7:0.3333333333333333 8:0.3333333333333333 9:0.0 10:0.0 11:0.0 12:0.0 13:0.0012016920684357851 14:0.0012124577979620123 15:0.9975858501336021 16:0.444652992887 17:0.513799842224 18:0.835590228762 19:0.3333333333333333 20:0.3333333333333333 21:0.3333333333333333 22:0.0 23:0.0 24:0.0 25:0.0 26:0.0 27:0.0 28:0.0 29:0.0 30:0.0 31:0.0 32:0.0 33:0.0 34:0.0 35:0.0 36:0.0 37:1.0 38:0.0 39:0.0 40:0.0 41:0.0 42:1.0 43:0.0 44:0.0 
1.0 1:0.3515595398104336 2:0.0077307386401466345 3:0.6407097215494197 4:0.569724076475 5:0.560972536451 6:0.615726598929 7:0.21186764242321182 8:0.2846854924862847 9:0.0 10:0.0 11:0.0 12:0.0 13:0.2670874220058369 14:0.7240311144639222 15:0.008881463530240802 16:0.411628137477 17:0.560972536451 18:0.292578620214 19:0.649026423308935 20:0.2676723683699732 21:0.08330120832109167 22:0.649026423309 23:0.26767236837 24:0.0833012083211 25:0.0 26:0.0 27:0.0 28:0.0 29:0.0 30:0.0 31:0.0 32:0.0 33:0.0 34:0.0 35:0.0 36:0.0 37:1.0 38:0.0 39:0.0 40:0.0 41:0.0 42:0.0 43:0.0 44:0.0 
1.0 1:1.454158612762622E-5 2:3.327612408164413E-4 3:0.9996526971730559 4:0.575806509741 5:0.530742050873 6:0.786805242481 7:0.552050975738756 8:0.24024898456471327 9:0.0 10:0.0 11:0.0 12:0.0 13:0.34045492859165116 14:0.658936846065995 15:6.082253423537325E-4 16:0.424017903081 17:0.51519302917 18:0.440099095061 19:0.3333333333333333 20:0.3333333333333333 21:0.3333333333333333 22:0.0 23:0.0 24:0.0 25:0.0 26:0.0 27:0.0 28:0.0 29:0.0 30:0.0 31:1.0 32:0.0 33:0.0 34:0.0 35:1.0 36:0.0 37:0.0 38:0.0 39:0.0 40:0.0 41:0.0 42:1.0 43:0.0 44:0.0 
1.0 1:0.9969982817373005 2:2.958366988704844E-15 3:0.0030017182626965065 4:0.632370843397 5:0.55400534794 6:0.717502050716 7:0.7585311056546366 8:2.4426439987122815E-4 9:0.0 10:0.0 11:0.0 12:0.0 13:0.9994804302900158 14:2.3162452139841643E-4 15:2.879451885858904E-4 16:0.603387768261 17:0.513799842224 18:0.524861119094 19:0.3333333333333333 20:0.3333333333333333 21:0.3333333333333333 22:0.0 23:0.0 24:0.0 25:0.0 26:0.0 27:0.0 28:0.0 29:0.0 30:0.0 31:0.0 32:0.0 33:1.0 34:0.0 35:0.0 36:0.0 37:0.0 38:0.0 39:0.0 40:0.0 41:0.0 42:0.0 43:0.0 44:0.0 
1.0 1:0.869479520113201 2:6.51983456959559E-7 3:0.13051982790334213 4:0.729978076967 5:0.558288536426 6:0.885618853388 7:0.5748147380398682 8:0.35799094583133056 9:0.0 10:0.0 11:0.0 12:0.0 13:0.19382232245923928 14:0.014735988537016569 15:0.7914416890037441 16:0.694012719359 17:0.520902710501 18:0.885618853388 19:0.3333333333333333 20:0.3333333333333333 21:0.3333333333333333 22:0.0 23:0.0 24:0.0 25:0.0 26:0.0 27:0.0 28:0.0 29:0.0 30:0.0 31:2.0 32:0.0 33:0.0 34:0.0 35:0.0 36:0.0 37:1.0 38:0.0 39:0.0 40:0.0 41:0.0 42:1.0 43:0.0 44:0.0 
1.0 1:0.0037436865797609055 2:8.457625268514222E-9 3:0.9962563049626139 4:0.610330883916 5:0.47282530042 6:0.650585234834 7:0.404201395080851 8:3.463271861100408E-4 9:0.0 10:0.0 11:0.0 12:0.0 13:0.2808836963957149 14:0.02501350458784703 15:0.694102799016438 16:0.432944867924 17:0.371068134553 18:0.650585234834 19:0.3333333333333333 20:0.3333333333333333 21:0.3333333333333333 22:0.0 23:0.0 24:0.0 25:0.0 26:0.0 27:0.0 28:0.0 29:0.0 30:0.0 31:0.0 32:0.0 33:0.0 34:0.0 35:0.0 36:0.0 37:0.0 38:0.0 39:0.0 40:0.0 41:0.0 42:0.0 43:0.0 44:0.0 
1.0 1:0.046908783335578894 2:0.055334806073054923 3:0.8977564105913662 4:0.659692578679 5:0.797751615571 6:0.778134372087 7:0.5017974491381016 8:0.0565498420423568 9:0.0 10:0.0 11:0.0 12:0.0 13:0.008892959545530156 14:0.9867275639157852 15:0.004379476538684656 16:0.434097617925 17:0.608336247228 18:0.612618876451 19:0.3333333333333333 20:0.3333333333333333 21:0.3333333333333333 22:0.0 23:0.0 24:0.0 25:0.0 26:0.0 27:0.0 28:0.0 29:0.0 30:0.0 31:0.0 32:0.0 33:0.0 34:0.0 35:0.0 36:0.0 37:0.0 38:0.0 39:0.0 40:0.0 41:0.0 42:0.0 43:0.0 44:0.0 
1.0 1:2.0298262102225635E-19 2:6.069137182231693E-22 3:1.0 4:0.597563469902 5:0.600945505552 6:0.888017519798 7:0.33292497461950943 8:0.10281729563009862 9:0.0 10:0.0 11:0.0 12:0.0 13:1.3899800470617684E-5 14:2.8385092053941073E-6 15:0.9999832616903239 16:0.597563469902 17:0.4297921056 18:0.87480699819 19:0.127505908689949 20:0.8133286257936746 21:0.05916546551637633 22:0.12750590869 23:0.813328625794 24:0.0591654655164 25:0.0 26:0.0 27:0.0 28:0.0 29:0.0 30:0.0 31:2.0 32:0.0 33:0.0 34:1.0 35:0.0 36:0.0 37:3.0 38:0.0 39:0.0 40:0.0 41:0.0 42:0.0 43:0.0 44:0.0 
1.0 1:0.9943422722532677 2:1.982789494744992E-9 3:0.005657725763942935 4:0.61153001273 5:0.5085665092 6:0.693899081196 7:0.36810479021507875 8:0.13275393129475233 9:0.0 10:0.0 11:0.0 12:0.0 13:0.8532615612716603 14:0.017719574042133274 15:0.12901886468620632 16:0.475862151698 17:0.390187409868 18:0.693899081196 19:0.3333333333333333 20:0.3333333333333333 21:0.3333333333333333 22:0.0 23:0.0 24:0.0 25:0.0 26:0.0 27:0.0 28:0.0 29:0.0 30:0.0 31:0.0 32:0.0 33:1.0 34:0.0 35:0.0 36:0.0 37:0.0 38:0.0 39:0.0 40:0.0 41:0.0 42:0.0 43:0.0 44:0.0 
