svm_type c_svc
kernel_type linear
nr_class 2
total_sv 1361
rho -0.6223772627766784
label 0 1
probA -1.2448910479763509
probB -0.1776236157502876
nr_sv 684 677
SV
1.0 1:0.013655502889847125 2:0.9860007357750881 3:3.4376133506476266E-4 4:0.603387768261 5:0.927923153522 6:0.426053311123 7:0.07866627724007035 8:0.8937669954722745 9:0.0 10:0.0 11:0.0 12:0.0 13:0.10496477957201283 14:0.878275278216904 15:0.016759942211083144 16:0.603387768261 17:0.608336247228 18:0.426053311123 19:0.3333333333333333 20:0.3333333333333333 21:0.3333333333333333 22:0.0 23:0.0 24:0.0 25:0.0 26:0.0 27:0.0 28:0.0 29:0.0 30:0.0 31:12.0 32:0.0 33:0.0 34:0.0 35:0.0 36:0.0 37:0.0 38:0.0 39:0.0 40:0.0 41:0.0 42:0.0 43:0.0 44:0.0 
1.0 1:0.8274530460224868 2:2.4580646646771333E-6 3:0.1725444959128485 4:0.514024313272 5:0.515564278968 6:0.845393858259 7:0.3333333333333333 8:0.3333333333333333 9:0.0 10:0.0 11:0.0 12:0.0 13:0.9159884343026264 14:0.08216903425194962 15:0.001842531445424036 16:0.514024313272 17:0.452984225716 18:0.598801436633 19:0.3333333333333333 20:0.3333333333333333 21:0.3333333333333333 22:0.0 23:0.0 24:0.0 25:0.0 26:0.0 27:0.0 28:0.0 29:0.0 30:0.0 31:2.0 32:5.0 33:0.0 34:0.0 35:0.0 36:0.0 37:0.0 38:0.0 39:0.0 40:0.0 41:0.0 42:0.0 43:0.0 44:0.0 
1.0 1:0.010144591547191979 2:0.989137066059133 3:7.183423936748969E-4 4:0.560978417827 5:0.746532312127 6:0.63019404578 7:0.3333333333333333 8:0.3333333333333333 9:0.0 10:0.0 11:0.0 12:0.0 13:0.12658615510428922 14:0.6532116549369902 15:0.2202021899587206 16:0.41269052995 17:0.611136780231 18:0.63019404578 19:0.3333333333333333 20:0.3333333333333333 21:0.3333333333333333 22:0.0 23:0.0 24:0.0 25:0.0 26:0.0 27:0.0 28:0.0 29:0.0 30:0.0 31:0.0 32:0.0 33:0.0 34:0.0 35:0.0 36:0.0 37:0.0 38:0.0 39:0.0 40:0.0 41:0.0 42:0.0 43:0.0 44:0.0 
1.0 1:0.008087389773670297 2:0.0015216076523589229 3:0.9903910025739707 4:0.604548666566 5:0.929136346555 6:0.74019301529 7:0.05948879452524932 8:0.9102139578761245 9:0.0 10:0.0 11:0.0 12:0.0 13:0.46034878839097515 14:0.5377703648793909 15:0.0018808467296340297 16:0.482397407092 17:0.508865512749 18:0.665179581389 19:0.3333333333333333 20:0.3333333333333333 21:0.3333333333333333 22:0.0 23:0.0 24:0.0 25:0.0 26:0.0 27:0.0 28:0.0 29:0.0 30:0.0 31:2.0 32:0.0 33:0.0 34:0.0 35:0.0 36:0.0 37:1.0 38:0.0 39:0.0 40:0.0 41:0.0 42:0.0 43:0.0 44:0.0 
1.0 1:0.133876466786551 2:0.859957272921267 3:0.006166260292181951 4:0.689693708067 5:0.59032124889 6:0.744723481066 7:0.6815587914536205 8:0.13592953790533327 9:0.0 10:0.0 11:0.0 12:0.0 13:0.001921919583091408 14:0.984526710089253 15:0.013551370327655599 16:0.521270564503 17:0.59032124889 18:0.744723481066 19:0.3333333333333333 20:0.3333333333333333 21:0.3333333333333333 22:0.0 23:0.0 24:0.0 25:0.0 26:0.0 27:0.0 28:0.0 29:0.0 30:0.0 31:0.0 32:3.0 33:0.0 34:0.0 35:0.0 36:0.0 37:0.0 38:0.0 39:0.0 40:0.0 41:0.0 42:2.0 43:0.0 44:0.0 
1.0 1:0.05569941299624413 2:0.9443005870037539 3:1.928229739297797E-15 4:0.872584862823 5:0.936508208382 6:0.500445500139 7:0.45685154216227547 8:0.53769180541223 9:0.0 10:0.0 11:0.0 12:0.0 13:0.05026076111118203 14:0.9497392143955664 15:2.4493251611647253E-8 16:0.728952388601 17:0.685429846134 18:0.500445500139 19:0.977049879053778 20:0.022731177634304572 21:2.1894331191734924E-4 22:0.896337057898 23:0.765741921953 24:0.0334731954099 25:0.0 26:0.0 27:0.0 28:0.0 29:0.0 30:0.0 31:2.0 32:0.0 33:0.0 34:0.0 35:0.0 36:0.0 37:0.0 38:0.0 39:0.0 40:0.0 41:0.0 42:0.0 43:0.0 44:0.0 
1.0 1:0.34388896111236433 2:0.6561092379462812 3:1.8009413546505417E-6 4:0.874049302044 5:0.65356726918 6:0.505357659379 7:0.17055490717345426 8:0.6153195212385172 9:0.0 10:0.0 11:0.0 12:0.0 13:0.20917743765202257 14:0.7906208583504718 15:2.0170399750558648E-4 16:0.463334894019 17:0.534739513576 18:0.413365483192 19:0.3333333333333333 20:0.3333333333333333 21:0.3333333333333333 22:0.0 23:0.0 24:0.0 25:0.0 26:0.0 27:0.0 28:0.0 29:0.0 30:0.0 31:0.0 32:0.0 33:0.0 34:0.0 35:0.0 36:0.0 37:0.0 38:0.0 39:0.0 40:0.0 41:0.0 42:0.0 43:0.0 44:0.0 
1.0 1:0.18604872606837705 2:0.8139497073213124 3:1.566610310538571E-6 4:0.464802640811 5:0.531663155652 6:0.548688698745 7:0.46480264081146483 8:0.2656199324932656 9:0.0 10:0.0 11:0.0 12:0.0 13:0.11534213150180705 14:0.8846529842469765 15:4.884251216460353E-6 16:0.438309046749 17:0.531663155652 18:0.374189092856 19:0.6199181083968139 20:0.3183992137449045 21:0.061682677858281486 22:0.619918108397 23:0.318399213745 24:0.0616826778583 25:0.0 26:0.0 27:0.0 28:0.0 29:0.0 30:0.0 31:0.0 32:0.0 33:0.0 34:0.0 35:0.0 36:0.0 37:0.0 38:0.0 39:0.0 40:0.0 41:0.0 42:0.0 43:0.0 44:0.0 
1.0 1:0.32351339945885094 2:0.6571117404815657 3:0.01937486005958324 4:0.704070529837 5:0.611496946345 6:0.589859412845 7:0.293068130344 8:0.36500468708600003 9:0.0 10:0.0 11:0.0 12:0.0 13:0.10313045282962884 14:0.8946982053057553 15:0.00217134186461586 16:0.479221400939 17:0.559305498599 18:0.380836646906 19:0.886319003728422 20:0.09763086193191735 21:0.016050134339660686 22:0.69708528476 23:0.260458745101 24:0.107752991308 25:0.0 26:0.0 27:0.0 28:0.0 29:0.0 30:0.0 31:0.0 32:1.0 33:0.0 34:0.0 35:0.0 36:0.0 37:0.0 38:0.0 39:0.0 40:0.0 41:0.0 42:0.0 43:0.0 44:0.0 
1.0 1:0.9349767853930111 2:0.0649232128165579 3:1.0000179043109835E-4 4:0.755683474994 5:0.59704568635 6:0.591459357776 7:0.9726997165820717 8:0.025471065577889012 9:0.0 10:0.0 11:0.0 12:0.0 13:0.4415086900774574 14:0.5509064359487973 15:0.0075848739737453845 16:0.430217609087 17:0.531663155652 18:0.575898154249 19:0.3333333333333333 20:0.3333333333333333 21:0.3333333333333333 22:0.0 23:0.0 24:0.0 25:0.0 26:0.0 27:0.0 28:0.0 29:0.0 30:0.0 31:1.0 32:0.0 33:0.0 34:0.0 35:0.0 36:0.0 37:0.0 38:0.0 39:0.0 40:0.0 41:0.0 42:0.0 43:0.0 44:0.0 
1.0 1:0.2539839997623634 2:0.7447128683833556 3:0.0013031318542810256 4:0.603387768261 5:0.704830740818 6:0.681217416242 7:0.5309633208338178 8:0.18744539490540124 9:0.0 10:0.0 11:0.0 12:0.0 13:0.23292197396845493 14:0.7670560326521635 15:2.1993379381609814E-5 16:0.603387768261 17:0.550295492601 18:0.519373277217 19:0.3333333333333333 20:0.3333333333333333 21:0.3333333333333333 22:0.0 23:0.0 24:0.0 25:0.0 26:0.0 27:0.0 28:0.0 29:0.0 30:0.0 31:2.0 32:0.0 33:0.0 34:0.0 35:0.0 36:2.0 37:1.0 38:0.0 39:0.0 40:0.0 41:0.0 42:1.0 43:0.0 44:2.0 
1.0 1:0.04628394242702553 2:0.9537160322416451 3:2.5331329397243566E-8 4:0.91730648783 5:0.672065764641 6:0.642784527818 7:0.9376113171580633 8:0.05590671230947849 9:0.0 10:0.0 11:0.0 12:0.0 13:0.025074137757088135 14:0.9749231530359705 15:2.709206941301845E-6 16:0.438840406599 17:0.534739513576 18:0.408567935823 19:0.3333333333333333 20:0.3333333333333333 21:0.3333333333333333 22:0.0 23:0.0 24:0.0 25:0.0 26:0.0 27:0.0 28:0.0 29:0.0 30:0.0 31:2.0 32:0.0 33:0.0 34:0.0 35:0.0 36:0.0 37:0.0 38:0.0 39:0.0 40:0.0 41:0.0 42:0.0 43:0.0 44:0.0 
1.0 1:0.0014105318478311894 2:0.998589468151275 3:8.937147073187922E-13 4:0.780759342646 5:0.872313465816 6:0.779143508983 7:0.253864205777 8:0.239103862487 9:0.0 10:0.0 11:0.0 12:0.0 13:0.011939022901639024 14:0.9880605803025586 15:3.9679580244357625E-7 16:0.619273230486 17:0.65509232138 18:0.434046736966 19:0.3333333333333333 20:0.3333333333333333 21:0.3333333333333333 22:0.0 23:0.0 24:0.0 25:0.0 26:0.0 27:0.0 28:0.0 29:0.0 30:0.0 31:2.0 32:0.0 33:0.0 34:0.0 35:0.0 36:0.0 37:0.0 38:0.0 39:0.0 40:0.0 41:0.0 42:0.0 43:0.0 44:0.0 
0.7631168572282568 1:0.9970171694946169 2:0.002982810247024078 3:2.0258358984368302E-8 4:0.790184636115 5:0.808451908966 6:0.668106723605 7:0.8645994742726983 8:0.03651325919632397 9:0.0 10:0.0 11:0.0 12:0.0 13:0.0747513807824115 14:0.9252484460666474 15:1.7315094113718584E-7 16:0.729992445481 17:0.808451908966 18:0.376012518383 19:0.3333333333333333 20:0.3333333333333333 21:0.3333333333333333 22:0.0 23:0.0 24:0.0 25:0.0 26:0.0 27:0.0 28:0.0 29:0.0 30:0.0 31:3.0 32:0.0 33:0.0 34:0.0 35:0.0 36:0.0 37:0.0 38:0.0 39:0.0 40:0.0 41:0.0 42:0.0 43:0.0 44:0.0 
1.0 1:0.8244625519194927 2:0.17553403232440895 3:3.4157560982821252E-6 4:0.647866384177 5:0.613529828866 6:0.581807742196 7:0.18619987685800002 8:0.300280912732 9:0.0 10:0.0 11:0.0 12:0.0 13:0.6100174913607034 14:0.3899588217578815 15:2.368688141529349E-5 16:0.521998764708 17:0.520902710501 18:0.485832523315 19:0.3333333333333333 20:0.3333333333333333 21:0.3333333333333333 22:0.0 23:0.0 24:0.0 25:0.0 26:0.0 27:0.0 28:0.0 29:0.0 30:0.0 31:0.0 32:0.0 33:0.0 34:0.0 35:0.0 36:0.0 37:1.0 38:0.0 39:1.0 40:0.0 41:0.0 42:1.0 43:0.0 44:0.0 
1.0 1:0.023021962371279542 2:0.0024758768469212928 3:0.9745021607817992 4:0.509856514645 5:0.678311205299 6:0.736678826049 7:0.3333333333333333 8:0.3333333333333333 9:0.0 10:0.0 11:0.0 12:0.0 13:0.11886004605291113 14:0.3356177816211801 15:0.5455221723259088 16:0.438309046749 17:0.678311205299 18:0.736678826049 19:0.3333333333333333 20:0.3333333333333333 21:0.3333333333333333 22:0.0 23:0.0 24:0.0 25:0.0 26:0.0 27:0.0 28:0.0 29:0.0 30:0.0 31:0.0 32:0.0 33:0.0 34:0.0 35:0.0 36:0.0 37:0.0 38:0.0 39:0.0 40:0.0 41:0.0 42:0.0 43:0.0 44:0.0 
1.0 1:0.7337737202018135 2:0.152804142887645 3:0.11342213691054158 4:0.652850727594 5:0.300632680403 6:0.275349416516 7:0.3333333333333333 8:0.3333333333333333 9:0.0 10:0.0 11:0.0 12:0.0 13:0.42401790308099996 14:0.300632680403 15:0.275349416516 16:0.424017903081 17:0.300632680403 18:0.275349416516 19:0.3333333333333333 20:0.3333333333333333 21:0.3333333333333333 22:0.0 23:0.0 24:0.0 25:0.0 26:1.0 27:0.0 28:0.0 29:0.0 30:0.0 31:1.0 32:0.0 33:0.0 34:0.0 35:0.0 36:0.0 37:0.0 38:0.0 39:0.0 40:0.0 41:0.0 42:0.0 43:0.0 44:0.0 
1.0 1:0.031941953908074104 2:0.2906775794085617 3:0.6773804666833642 4:0.79193877634 5:0.812351918466 6:0.71226217402 7:0.8737845040750714 8:0.01708644501699459 9:0.0 10:0.0 11:0.0 12:0.0 13:0.0036704278984278325 14:0.9938390006396428 15:0.002490571461929282 16:0.478101320911 17:0.702768754933 18:0.57138240934 19:0.3333333333333333 20:0.3333333333333333 21:0.3333333333333333 22:0.0 23:0.0 24:0.0 25:0.0 26:0.0 27:0.0 28:0.0 29:0.0 30:0.0 31:3.0 32:2.0 33:0.0 34:0.0 35:0.0 36:0.0 37:0.0 38:0.0 39:0.0 40:0.0 41:0.0 42:4.0 43:0.0 44:0.0 
1.0 1:0.002104999722652678 2:0.9978947444079234 3:2.5586942388898914E-7 4:0.604548666566 5:0.716493435492 6:0.612241163775 7:0.480348341308 8:0.11298591858700001 9:0.0 10:0.0 11:0.0 12:0.0 13:0.0012829946430065406 14:0.9986975843330631 15:1.9421023930342333E-5 16:0.41269052995 17:0.689910917823 18:0.612241163775 19:0.3333333333333333 20:0.3333333333333333 21:0.3333333333333333 22:0.0 23:0.0 24:0.0 25:0.0 26:0.0 27:0.0 28:0.0 29:0.0 30:0.0 31:0.0 32:0.0 33:0.0 34:0.0 35:0.0 36:0.0 37:0.0 38:0.0 39:0.0 40:0.0 41:0.0 42:0.0 43:0.0 44:0.0 
1.0 1:6.177162819469311E-4 2:0.9993822720597443 3:1.16583088442455E-8 4:0.692409603491 5:0.723112504112 6:0.870860304031 7:0.3301144618393827 8:0.6374290583346772 9:0.0 10:0.0 11:0.0 12:0.0 13:6.011716764270454E-4 14:0.9993987735227169 15:5.480085621222068E-8 16:0.548140680039 17:0.723112504112 18:0.552168497402 19:0.3333333333333333 20:0.3333333333333333 21:0.3333333333333333 22:0.0 23:0.0 24:0.0 25:0.0 26:0.0 27:0.0 28:0.0 29:0.0 30:0.0 31:1.0 32:0.0 33:0.0 34:0.0 35:0.0 36:0.0 37:0.0 38:0.0 39:0.0 40:0.0 41:0.0 42:0.0 43:0.0 44:0.0 
1.0 1:0.857828362355355 2:0.1421715864712028 3:5.117344229911969E-8 4:0.872584862823 5:0.841099949725 6:0.740071266856 7:0.9962614387316973 8:0.002459198546492117 9:0.0 10:0.0 11:0.0 12:0.0 13:1.0847039051159331E-4 14:0.9998894697655422 15:2.0598439461011443E-6 16:0.555857447643 17:0.595804102947 18:0.661897931897 19:0.3333333333333333 20:0.3333333333333333 21:0.3333333333333333 22:0.0 23:0.0 24:0.0 25:0.0 26:0.0 27:0.0 28:0.0 29:0.0 30:0.0 31:0.0 32:0.0 33:0.0 34:0.0 35:1.0 36:0.0 37:0.0 38:0.0 39:0.0 40:0.0 41:0.0 42:0.0 43:0.0 44:0.0 
1.0 1:0.1263596822845935 2:0.8736314832195746 3:8.834495831933614E-6 4:0.595003902918 5:0.839279285022 6:0.631869703272 7:0.5910791689814026 8:0.3591631960964038 9:0.0 10:0.0 11:0.0 12:0.0 13:0.3524348639585316 14:0.6389618741223682 15:0.008603261919100148 16:0.548140680039 17:0.531663155652 18:0.603033231706 19:0.3333333333333333 20:0.3333333333333333 21:0.3333333333333333 22:0.0 23:0.0 24:0.0 25:0.0 26:0.0 27:0.0 28:0.0 29:0.0 30:0.0 31:0.0 32:0.0 33:0.0 34:0.0 35:0.0 36:0.0 37:0.0 38:0.0 39:0.0 40:0.0 41:0.0 42:0.0 43:0.0 44:0.0 
1.0 1:0.9999889889815903 2:9.775205821347438E-6 3:1.235812588401656E-6 4:0.729992445481 5:0.797732287806 6:0.798558468945 7:0.6825671827040001 8:0.16179877037299997 9:0.0 10:0.0 11:0.0 12:0.0 13:0.9440093647374393 14:0.05591558697652156 15:7.504828603900286E-5 16:0.729992445481 17:0.520902710501 18:0.640681502298 19:0.3333333333333333 20:0.3333333333333333 21:0.3333333333333333 22:0.0 23:0.0 24:0.0 25:0.0 26:0.0 27:0.0 28:0.0 29:0.0 30:0.0 31:0.0 32:0.0 33:0.0 34:0.0 35:0.0 36:0.0 37:0.0 38:0.0 39:0.0 40:0.0 41:0.0 42:0.0 43:0.0 44:0.0 
1.0 1:3.293567518628704E-5 2:0.9999670274798259 3:3.6844987672916937E-8 4:0.729992445481 5:0.853414899573 6:0.744723481066 7:0.06267625451209137 8:0.8930905280749003 9:0.0 10:0.0 11:0.0 12:0.0 13:0.016703310585143207 14:0.9830822772069125 15:2.144122079441929E-4 16:0.729992445481 17:0.59032124889 18:0.744723481066 19:0.3333333333333333 20:0.3333333333333333 21:0.3333333333333333 22:0.0 23:0.0 24:0.0 25:0.0 26:0.0 27:0.0 28:0.0 29:0.0 30:0.0 31:1.0 32:2.0 33:0.0 34:0.0 35:0.0 36:0.0 37:0.0 38:0.0 39:0.0 40:0.0 41:0.0 42:0.0 43:0.0 44:0.0 
1.0 1:0.9983475121814748 2:0.0016524878137440296 3:4.78122360065264E-12 4:0.784220004417 5:0.685348325441 6:0.583493905935 7:0.9240881812428352 8:0.008653817057582263 9:0.0 10:0.0 11:0.0 12:0.0 13:0.9616978711893028 14:0.03830201640806759 15:1.1240262953131878E-7 16:0.603387768261 17:0.531663155652 18:0.553667314195 19:0.3333333333333333 20:0.3333333333333333 21:0.3333333333333333 22:0.0 23:0.0 24:0.0 25:0.0 26:0.0 27:0.0 28:0.0 29:0.0 30:0.0 31:1.0 32:2.0 33:0.0 34:0.0 35:0.0 36:0.0 37:0.0 38:0.0 39:0.0 40:0.0 41:0.0 42:0.0 43:0.0 44:0.0 
1.0 1:0.8517406330786956 2:0.14812855539065564 3:1.3081153064887447E-4 4:0.692409603491 5:0.692072768104 6:0.392852895921 7:0.4443968356446924 8:0.2560472661374421 9:0.0 10:0.0 11:0.0 12:0.0 13:0.5616893178068776 14:0.39820870918888474 15:0.04010197300423748 16:0.424017903081 17:0.445716040481 18:0.357243269888 19:0.3333333333333333 20:0.3333333333333333 21:0.3333333333333333 22:0.0 23:0.0 24:0.0 25:0.0 26:0.0 27:0.0 28:0.0 29:0.0 30:0.0 31:13.0 32:3.0 33:0.0 34:0.0 35:0.0 36:0.0 37:0.0 38:0.0 39:0.0 40:0.0 41:0.0 42:0.0 43:0.0 44:0.0 
1.0 1:0.9999670032374868 2:3.2381425633470527E-5 3:6.153368797433557E-7 4:0.872584862823 5:0.685348325441 6:0.692903991345 7:0.36303332216063694 8:0.4249193896425752 9:0.0 10:0.0 11:0.0 12:0.0 13:0.01444417741526792 14:0.9855494180811473 15:6.404503584749858E-6 16:0.424017903081 17:0.608336247228 18:0.448737402153 19:0.3333333333333333 20:0.3333333333333333 21:0.3333333333333333 22:0.0 23:0.0 24:0.0 25:0.0 26:0.0 27:0.0 28:0.0 29:0.0 30:0.0 31:4.0 32:1.0 33:0.0 34:0.0 35:0.0 36:0.0 37:0.0 38:0.0 39:0.0 40:0.0 41:0.0 42:0.0 43:0.0 44:0.0 
1.0 1:9.08922448119418E-6 2:0.9999909107753194 3:1.9933596924995703E-13 4:0.70276986903 5:0.710779858212 6:0.649656203026 7:0.24219272448276163 8:0.31557460794385794 9:0.0 10:0.0 11:0.0 12:0.0 13:4.032024378145498E-5 14:0.9999596797521821 15:4.03646573339245E-12 16:0.41269052995 17:0.608336247228 18:0.380836646906 19:0.941163624132523 20:0.05732316063557887 21:0.0015132152318981674 22:0.661988754884 23:0.260458745101 24:0.0775525000145 25:0.0 26:0.0 27:0.0 28:0.0 29:0.0 30:0.0 31:1.0 32:0.0 33:0.0 34:0.0 35:0.0 36:0.0 37:0.0 38:0.0 39:0.0 40:0.0 41:0.0 42:0.0 43:0.0 44:0.0 
0.7940870102102182 1:0.117990395738766 2:0.8820096040972779 3:1.6395590850386894E-10 4:0.795518303013 5:0.640118541808 6:0.553667314195 7:0.9733016203752562 8:0.025150736479214526 9:0.0 10:0.0 11:0.0 12:0.0 13:0.8291690521395292 14:0.170830810347568 15:1.3751290288193876E-7 16:0.737558837447 17:0.550295492601 18:0.553667314195 19:0.9998959708703137 20:4.7992958037472397E-5 21:5.6036171648907934E-5 22:0.854878178846 23:0.0711557346123 24:0.0739660865415 25:0.0 26:0.0 27:0.0 28:0.0 29:0.0 30:0.0 31:0.0 32:0.0 33:0.0 34:0.0 35:0.0 36:0.0 37:0.0 38:0.0 39:0.0 40:0.0 41:0.0 42:0.0 43:0.0 44:0.0 
1.0 1:0.001068319608226987 2:0.13470424138201167 3:0.8642274390097614 4:0.689693708067 5:0.657735238038 6:0.719729853008 7:0.023098696183036907 8:0.6444252254924472 9:0.0 10:0.0 11:0.0 12:0.0 13:0.737644865508848 14:0.2620458772194872 15:3.092572716647417E-4 16:0.623120478806 17:0.571199005887 18:0.598801436633 19:0.3333333333333333 20:0.3333333333333333 21:0.3333333333333333 22:0.0 23:0.0 24:0.0 25:0.0 26:0.0 27:0.0 28:0.0 29:0.0 30:0.0 31:0.0 32:0.0 33:0.0 34:0.0 35:0.0 36:0.0 37:0.0 38:0.0 39:0.0 40:0.0 41:0.0 42:0.0 43:0.0 44:0.0 
1.0 1:0.0015309509575184134 2:0.8882181171335887 3:0.11025093190889286 4:0.689693708067 5:0.719256605613 6:0.751541433951 7:0.55760790006985 8:0.06383358778501622 9:0.0 10:0.0 11:0.0 12:0.0 13:0.0025026550036874352 14:0.9974819153196883 15:1.542967662436314E-5 16:0.603387768261 17:0.719256605613 18:0.57138240934 19:0.3333333333333333 20:0.3333333333333333 21:0.3333333333333333 22:0.0 23:0.0 24:0.0 25:0.0 26:0.0 27:0.0 28:0.0 29:0.0 30:0.0 31:6.0 32:1.0 33:0.0 34:0.0 35:0.0 36:0.0 37:0.0 38:0.0 39:0.0 40:0.0 41:0.0 42:4.0 43:0.0 44:0.0 
0.8700299748036389 1:0.9992608898521348 2:7.351132642426124E-4 3:3.99688362245898E-6 4:0.611479879677 5:0.68429351471 6:0.80511302186 7:0.35421922320378046 8:0.6136347692345873 9:0.0 10:0.0 11:0.0 12:0.0 13:0.004919367851556326 14:0.9950804986817443 15:1.3346669942650783E-7 16:0.603387768261 17:0.68429351471 18:0.481994816343 19:0.3333333333333333 20:0.3333333333333333 21:0.3333333333333333 22:0.0 23:0.0 24:0.0 25:0.0 26:0.0 27:0.0 28:0.0 29:0.0 30:0.0 31:0.0 32:0.0 33:0.0 34:0.0 35:0.0 36:0.0 37:0.0 38:0.0 39:0.0 40:0.0 41:0.0 42:0.0 43:0.0 44:0.0 
1.0 1:0.2808893556635955 2:0.7191084359791071 3:2.208357297434604E-6 4:0.637613616834 5:0.743684461204 6:0.500134789973 7:0.7394191366446793 8:0.15838930708259344 9:0.0 10:0.0 11:0.0 12:0.0 13:0.3024559112448963 14:0.6965001613114719 15:0.0010439274436318446 16:0.424017903081 17:0.531663155652 18:0.500134789973 19:0.3333333333333333 20:0.3333333333333333 21:0.3333333333333333 22:0.0 23:0.0 24:0.0 25:0.0 26:0.0 27:0.0 28:0.0 29:0.0 30:0.0 31:0.0 32:0.0 33:0.0 34:0.0 35:0.0 36:0.0 37:0.0 38:0.0 39:0.0 40:0.0 41:0.0 42:0.0 43:0.0 44:0.0 
1.0 1:0.06743912531362646 2:0.9325608746652925 3:2.1081017910294117E-11 4:0.689693708067 5:0.710437579884 6:0.647912887299 7:0.9600221957401334 8:0.02963906245408962 9:0.0 10:0.0 11:0.0 12:0.0 13:9.633621299528595E-6 14:0.9999903662773914 15:1.013090546212362E-10 16:0.430217609087 17:0.65552931626 18:0.640406171696 19:0.3333333333333333 20:0.3333333333333333 21:0.3333333333333333 22:0.0 23:0.0 24:0.0 25:0.0 26:0.0 27:0.0 28:0.0 29:0.0 30:0.0 31:0.0 32:1.0 33:0.0 34:0.0 35:0.0 36:0.0 37:0.0 38:0.0 39:0.0 40:0.0 41:0.0 42:0.0 43:0.0 44:0.0 
1.0 1:0.49437137243492746 2:0.2202696789376428 3:0.2853589486274297 4:0.874049302044 5:0.550295492601 6:0.769510604921 7:0.13463526111 8:0.095854133969 9:0.0 10:0.0 11:0.0 12:0.0 13:0.2264602118037362 14:0.7400594236457423 15:0.03348036455052156 16:0.411628137477 17:0.550295492601 18:0.273184374238 19:0.3333333333333333 20:0.3333333333333333 21:0.3333333333333333 22:0.0 23:0.0 24:0.0 25:0.0 26:0.0 27:0.0 28:0.0 29:0.0 30:0.0 31:0.0 32:0.0 33:0.0 34:0.0 35:0.0 36:0.0 37:0.0 38:0.0 39:0.0 40:0.0 41:0.0 42:0.0 43:0.0 44:0.0 
1.0 1:1.984186842319521E-5 2:0.9999801576042268 3:5.273499780542229E-10 4:0.64189327515 5:0.682204386419 6:0.744723481066 7:0.25301282961594007 8:0.46376091361631 9:0.0 10:0.0 11:0.0 12:0.0 13:0.026903246237769313 14:0.9730961675512649 15:5.862109658050435E-7 16:0.521998764708 17:0.631551084504 18:0.744723481066 19:0.3333333333333333 20:0.3333333333333333 21:0.3333333333333333 22:0.0 23:0.0 24:0.0 25:0.0 26:0.0 27:0.0 28:0.0 29:0.0 30:0.0 31:0.0 32:0.0 33:0.0 34:0.0 35:0.0 36:0.0 37:0.0 38:0.0 39:0.0 40:0.0 41:0.0 42:0.0 43:0.0 44:0.0 
1.0 1:0.8743415298133841 2:3.674031241196209E-5 3:0.125621729874204 4:0.563540121174 5:0.604881466767 6:0.81817348658 7:0.12186327073940371 8:0.6022056171602945 9:0.0 10:0.0 11:0.0 12:0.0 13:0.002491733530513335 14:0.9975045711289703 15:3.6953405164291357E-6 16:0.424017903081 17:0.571199005887 18:0.81817348658 19:0.3333333333333333 20:0.3333333333333333 21:0.3333333333333333 22:0.0 23:0.0 24:0.0 25:0.0 26:0.0 27:0.0 28:0.0 29:0.0 30:0.0 31:1.0 32:0.0 33:0.0 34:0.0 35:0.0 36:0.0 37:0.0 38:0.0 39:0.0 40:0.0 41:0.0 42:0.0 43:0.0 44:0.0 
1.0 1:0.8626810849512914 2:0.1373121971302957 3:6.71791841301627E-6 4:0.803182998713 5:0.796300046749 6:0.692933321937 7:0.871613597400226 8:0.08946422901332152 9:0.0 10:0.0 11:0.0 12:0.0 13:0.4124302054150549 14:0.5875332641772575 15:3.653040768768529E-5 16:0.632249214701 17:0.796300046749 18:0.495402997101 19:0.3333333333333333 20:0.3333333333333333 21:0.3333333333333333 22:0.0 23:0.0 24:0.0 25:0.0 26:0.0 27:0.0 28:0.0 29:0.0 30:0.0 31:0.0 32:1.0 33:0.0 34:0.0 35:0.0 36:0.0 37:0.0 38:0.0 39:0.0 40:0.0 41:0.0 42:0.0 43:0.0 44:0.0 
0.6629048030675538 1:0.4965323470287577 2:0.503463535789544 3:4.117181698444484E-6 4:0.603387768261 5:0.71137774996 6:0.634586811648 7:0.2832263283125495 8:0.6615320019178251 9:0.0 10:0.0 11:0.0 12:0.0 13:0.16558205789476366 14:0.8326988216840989 15:0.0017191204211374615 16:0.603387768261 17:0.660254659265 18:0.338709934467 19:0.3333333333333333 20:0.3333333333333333 21:0.3333333333333333 22:0.0 23:0.0 24:0.0 25:0.0 26:0.0 27:0.0 28:0.0 29:0.0 30:0.0 31:0.0 32:0.0 33:0.0 34:0.0 35:0.0 36:2.0 37:0.0 38:0.0 39:0.0 40:0.0 41:0.0 42:0.0 43:0.0 44:2.0 
1.0 1:0.942540660864773 2:0.053475273594832805 3:0.003984065540394237 4:0.615564171287 5:0.598366518582 6:0.710188078786 7:0.6867875170658446 8:0.09581273584154905 9:0.0 10:0.0 11:0.0 12:0.0 13:0.6144893367658943 14:0.3839733636158249 15:0.0015372996182806667 16:0.457591004111 17:0.51519302917 18:0.413365483192 19:0.3333333333333333 20:0.3333333333333333 21:0.3333333333333333 22:0.0 23:0.0 24:0.0 25:0.0 26:0.0 27:0.0 28:0.0 29:0.0 30:0.0 31:1.0 32:0.0 33:0.0 34:0.0 35:0.0 36:0.0 37:0.0 38:0.0 39:0.0 40:0.0 41:0.0 42:0.0 43:0.0 44:0.0 
1.0 1:1.0829368395327583E-8 2:3.5980965355067E-13 3:0.9999999891702719 4:0.861780888433 5:0.715191420303 6:0.925799519879 7:0.3114012287147581 8:0.0016452685130744656 9:0.0 10:0.0 11:0.0 12:0.0 13:0.05303944734307228 14:0.9462037589450859 15:7.567937118418453E-4 16:0.411628137477 17:0.556516293 18:0.553667314195 19:0.3333333333333333 20:0.3333333333333333 21:0.3333333333333333 22:0.0 23:0.0 24:0.0 25:0.0 26:0.0 27:0.0 28:0.0 29:0.0 30:0.0 31:0.0 32:0.0 33:0.0 34:0.0 35:0.0 36:0.0 37:0.0 38:0.0 39:0.0 40:0.0 41:0.0 42:0.0 43:0.0 44:0.0 
1.0 1:0.06178283116632269 2:0.9382171688283701 3:5.307278236754328E-12 4:0.663883078206 5:0.685348325441 6:0.749149430965 7:0.1732931143698686 8:0.8010575622528117 9:0.0 10:0.0 11:0.0 12:0.0 13:0.009074308292107116 14:0.9909256423450026 15:4.9362890335505755E-8 16:0.555857447643 17:0.631551084504 18:0.284702404049 19:0.661988754884331 20:0.2604587451011302 21:0.07755250001453877 22:0.661988754884 23:0.260458745101 24:0.0775525000145 25:0.0 26:0.0 27:0.0 28:0.0 29:0.0 30:0.0 31:1.0 32:3.0 33:0.0 34:0.0 35:0.0 36:0.0 37:0.0 38:0.0 39:0.0 40:0.0 41:0.0 42:0.0 43:0.0 44:0.0 
1.0 1:0.8538359179603099 2:0.14616287878813136 3:1.203251558813405E-6 4:0.807711449875 5:0.731504138204 6:0.626194382325 7:0.9506149938122151 8:0.027325577074342015 9:0.0 10:0.0 11:0.0 12:0.0 13:0.018714701951938504 14:0.9726926978156945 15:0.00859260023236706 16:0.673857318349 17:0.59032124889 18:0.532383528203 19:0.3333333333333333 20:0.3333333333333333 21:0.3333333333333333 22:0.0 23:0.0 24:0.0 25:0.0 26:0.0 27:0.0 28:0.0 29:0.0 30:0.0 31:0.0 32:0.0 33:0.0 34:0.0 35:0.0 36:0.0 37:0.0 38:0.0 39:0.0 40:0.0 41:0.0 42:0.0 43:0.0 44:0.0 
1.0 1:0.49909602204954595 2:0.5009030249995892 3:9.529508649704633E-7 4:0.857222699258 5:0.793667354042 6:0.534494633976 7:0.8813654060239606 8:0.02155624013371887 9:0.0 10:0.0 11:0.0 12:0.0 13:0.056814923278484704 14:0.9426762147242707 15:5.088619972446033E-4 16:0.495687536691 17:0.793667354042 18:0.534494633976 19:0.6199181083968139 20:0.3183992137449045 21:0.061682677858281486 22:0.619918108397 23:0.318399213745 24:0.0616826778583 25:0.0 26:0.0 27:0.0 28:0.0 29:0.0 30:0.0 31:0.0 32:0.0 33:0.0 34:0.0 35:0.0 36:0.0 37:0.0 38:0.0 39:0.0 40:0.0 41:0.0 42:0.0 43:0.0 44:0.0 
1.0 1:0.057919110651379814 2:0.9420808701119097 3:1.923671069606339E-8 4:0.784220004417 5:0.71137774996 6:0.663528661502 7:0.6870833046598712 8:0.038581373885638925 9:0.0 10:0.0 11:0.0 12:0.0 13:4.584073615184611E-6 14:0.9999954157816551 15:1.447296495757127E-10 16:0.499161653342 17:0.638360321089 18:0.562808491169 19:0.5980204632369999 20:0.18092825780199998 21:0.22105127896099996 22:0.598020463237 23:0.180928257802 24:0.221051278961 25:0.0 26:0.0 27:0.0 28:0.0 29:0.0 30:0.0 31:0.0 32:0.0 33:0.0 34:0.0 35:0.0 36:0.0 37:0.0 38:0.0 39:0.0 40:0.0 41:0.0 42:1.0 43:0.0 44:0.0 
1.0 1:0.9105764034887475 2:0.08925839204164122 3:1.6520446961135982E-4 4:0.827138366696 5:0.694994058654 6:0.663431155163 7:0.8271383666960826 8:0.1271402423470127 9:0.0 10:0.0 11:0.0 12:0.0 13:0.4407652572336034 14:0.553380486348632 15:0.005854256417764717 16:0.430217609087 17:0.531663155652 18:0.498587636302 19:0.3333333333333333 20:0.3333333333333333 21:0.3333333333333333 22:0.0 23:0.0 24:0.0 25:0.0 26:0.0 27:0.0 28:0.0 29:0.0 30:0.0 31:0.0 32:0.0 33:0.0 34:0.0 35:0.0 36:0.0 37:0.0 38:0.0 39:0.0 40:0.0 41:0.0 42:0.0 43:0.0 44:0.0 
1.0 1:0.19716881127658054 2:0.7213684687722266 3:0.08146271995119297 4:0.466322772972 5:0.715191420303 6:0.4306925777 7:0.3333333333333333 8:0.3333333333333333 9:0.0 10:0.0 11:0.0 12:0.0 13:0.2719897168684691 14:0.3484073377037232 15:0.37960294542780776 16:0.411628137477 17:0.371068134553 18:0.4306925777 19:0.6199181083968139 20:0.3183992137449045 21:0.061682677858281486 22:0.619918108397 23:0.318399213745 24:0.0616826778583 25:0.0 26:0.0 27:0.0 28:0.0 29:0.0 30:0.0 31:0.0 32:0.0 33:0.0 34:0.0 35:0.0 36:0.0 37:0.0 38:0.0 39:0.0 40:0.0 41:0.0 42:0.0 43:0.0 44:0.0 
0.40081134071062463 1:0.8770161671672438 2:0.02091635481322411 3:0.10206747801953199 4:0.611016489677 5:0.51519302917 6:0.604502012736 7:0.3333333333333333 8:0.3333333333333333 9:0.0 10:0.0 11:0.0 12:0.0 13:0.3538051349627908 14:0.579131447733839 15:0.06706341730337016 16:0.396239103315 17:0.51519302917 18:0.175987194671 19:0.11517158338283469 20:2.3462144768188196E-7 21:0.8848281819957177 22:0.822452242897 23:0.0946544335586 24:0.799587950519 25:0.0 26:0.0 27:0.0 28:0.0 29:0.0 30:0.0 31:9.0 32:0.0 33:0.0 34:0.0 35:0.0 36:0.0 37:0.0 38:0.0 39:0.0 40:0.0 41:0.0 42:0.0 43:0.0 44:0.0 
1.0 1:0.952398015586976 2:0.011698483677451401 3:0.03590350073557256 4:0.647234681127 5:0.695698204265 6:0.772138713863 7:0.1796406564662325 8:0.8023292164404746 9:0.0 10:0.0 11:0.0 12:0.0 13:0.32873980490410926 14:0.6499568953924971 15:0.021303299703393622 16:0.568594764342 17:0.608336247228 18:0.671639821625 19:0.3333333333333333 20:0.3333333333333333 21:0.3333333333333333 22:0.0 23:0.0 24:0.0 25:0.0 26:0.0 27:0.0 28:0.0 29:0.0 30:0.0 31:0.0 32:0.0 33:2.0 34:0.0 35:0.0 36:0.0 37:2.0 38:0.0 39:0.0 40:0.0 41:0.0 42:0.0 43:0.0 44:0.0 
1.0 1:0.9195369701451368 2:0.08006922763655672 3:3.938022183064808E-4 4:0.805342632431 5:0.680251668082 6:0.620162757457 7:0.9030538172742893 8:0.09438182582015281 9:0.0 10:0.0 11:0.0 12:0.0 13:0.4829161308801349 14:0.3726826032551714 15:0.14440126586469387 16:0.411628137477 17:0.453770161684 18:0.489504782719 19:0.3333333333333333 20:0.3333333333333333 21:0.3333333333333333 22:0.0 23:0.0 24:0.0 25:0.0 26:0.0 27:0.0 28:0.0 29:0.0 30:0.0 31:1.0 32:0.0 33:0.0 34:0.0 35:0.0 36:0.0 37:0.0 38:0.0 39:0.0 40:0.0 41:0.0 42:0.0 43:0.0 44:0.0 
1.0 1:0.05418827419810476 2:0.9458117244687952 3:1.3331000623322981E-9 4:0.872584862823 5:0.808451908966 6:0.510482785281 7:0.3526957472513528 8:0.5257834099135257 9:0.0 10:0.0 11:0.0 12:0.0 13:7.858102748296676E-4 14:0.9992141889972728 15:7.27897557610975E-10 16:0.548140680039 17:0.808451908966 18:0.312979394997 19:0.3333333333333333 20:0.3333333333333333 21:0.3333333333333333 22:0.0 23:0.0 24:0.0 25:0.0 26:0.0 27:0.0 28:0.0 29:0.0 30:0.0 31:0.0 32:0.0 33:0.0 34:0.0 35:0.0 36:0.0 37:0.0 38:0.0 39:0.0 40:0.0 41:0.0 42:0.0 43:0.0 44:0.0 
1.0 1:0.040205185063791275 2:0.953130954879686 3:0.00666386005652266 4:0.464802640811 5:0.777151094966 6:0.656198207413 7:0.46480264081146483 8:0.2656199324932656 9:0.0 10:0.0 11:0.0 12:0.0 13:0.24280707088192754 14:0.7359890655003826 15:0.021203863617689916 16:0.444652992887 17:0.608336247228 18:0.503740914758 19:0.0011744895451392707 20:0.9986676059377263 21:1.5790451713442832E-4 22:0.212587371442 23:0.99452641516 24:0.0728579486705 25:0.0 26:0.0 27:0.0 28:0.0 29:0.0 30:0.0 31:2.0 32:0.0 33:0.0 34:0.0 35:0.0 36:0.0 37:0.0 38:0.0 39:0.0 40:0.0 41:0.0 42:0.0 43:0.0 44:0.0 
1.0 1:0.0011668500592214076 2:0.9988276175392338 3:5.532401544906489E-6 4:0.694012719359 5:0.737202392074 6:0.736678826049 7:0.33333333333333337 8:0.33333333333333337 9:0.0 10:0.0 11:0.0 12:0.0 13:0.03657787221984378 14:0.9585218808548897 15:0.0049002469252666225 16:0.694012719359 17:0.737202392074 18:0.736678826049 19:0.07541741751845732 20:0.9180388564026694 21:0.006543726078873267 22:0.661988754884 23:0.946735597451 24:0.0775525000145 25:0.0 26:0.0 27:1.0 28:0.0 29:0.0 30:0.0 31:0.0 32:0.0 33:0.0 34:0.0 35:0.0 36:0.0 37:0.0 38:0.0 39:0.0 40:0.0 41:0.0 42:0.0 43:0.0 44:0.0 
1.0 1:0.0019388430098823206 2:0.9902652518928567 3:0.007795905097260932 4:0.790826453492 5:0.733516414354 6:0.644312881406 7:0.22546938434776986 8:0.5747652959517615 9:0.0 10:0.0 11:0.0 12:0.0 13:0.021123225578982274 14:0.6848772661992107 15:0.29399950822180704 16:0.432410213027 17:0.56827368519 18:0.592928512368 19:0.3333333333333333 20:0.3333333333333333 21:0.3333333333333333 22:0.0 23:0.0 24:0.0 25:0.0 26:0.0 27:0.0 28:0.0 29:0.0 30:0.0 31:0.0 32:0.0 33:0.0 34:0.0 35:0.0 36:0.0 37:0.0 38:0.0 39:0.0 40:0.0 41:0.0 42:0.0 43:0.0 44:0.0 
1.0 1:0.09730059575886817 2:0.9026930092564741 3:6.3949846577168765E-6 4:0.834793113623 5:0.59704568635 6:0.74491421545 7:0.7946295284103733 8:0.12861280707096917 9:0.0 10:0.0 11:0.0 12:0.0 13:0.0026131327971738523 14:0.9973484397238028 15:3.8427479023227676E-5 16:0.499161653342 17:0.59032124889 18:0.305854965351 19:0.3333333333333333 20:0.3333333333333333 21:0.3333333333333333 22:0.0 23:0.0 24:0.0 25:0.0 26:0.0 27:0.0 28:0.0 29:0.0 30:0.0 31:0.0 32:1.0 33:0.0 34:0.0 35:0.0 36:0.0 37:1.0 38:0.0 39:0.0 40:0.0 41:0.0 42:0.0 43:0.0 44:0.0 
1.0 1:1.5207203092812247E-6 2:1.1548488699844723E-13 3:0.9999984792795753 4:0.752240908821 5:0.810600184771 6:0.756781844913 7:0.34626466902406833 8:0.026730151724923476 9:0.0 10:0.0 11:0.0 12:0.0 13:4.647385338696242E-4 14:0.0036132674811353497 15:0.995921993984995 16:0.429585750739 17:0.793667354042 18:0.741502466006 19:0.3333333333333333 20:0.3333333333333333 21:0.3333333333333333 22:0.0 23:0.0 24:0.0 25:0.0 26:0.0 27:0.0 28:0.0 29:0.0 30:0.0 31:2.0 32:0.0 33:1.0 34:0.0 35:0.0 36:0.0 37:0.0 38:0.0 39:0.0 40:0.0 41:0.0 42:0.0 43:0.0 44:0.0 
1.0 1:0.3945353754671674 2:0.6054219656275246 3:4.2658905308085696E-5 4:0.879917844998 5:0.709308663386 6:0.547808116688 7:0.8799178449980881 8:0.055605378759205557 9:0.0 10:0.0 11:0.0 12:0.0 13:0.2374769060274984 14:0.7595490147449994 15:0.0029740792275022745 16:0.632109677449 17:0.638360321089 18:0.547808116688 19:0.3333333333333333 20:0.3333333333333333 21:0.3333333333333333 22:0.0 23:0.0 24:0.0 25:0.0 26:0.0 27:0.0 28:0.0 29:0.0 30:0.0 31:0.0 32:0.0 33:0.0 34:0.0 35:0.0 36:0.0 37:0.0 38:0.0 39:0.0 40:0.0 41:0.0 42:0.0 43:0.0 44:0.0 
1.0 1:9.781133636243923E-6 2:0.9999902188663534 3:1.0158493905282613E-14 4:0.790184636115 5:0.774043391759 6:0.549229171507 7:0.7472287201909448 8:0.2493044864568162 9:0.0 10:0.0 11:0.0 12:0.0 13:9.373390022122813E-4 14:0.9990626184672774 15:4.253051037572518E-8 16:0.534148143359 17:0.707976922695 18:0.549229171507 19:0.661988754884331 20:0.2604587451011302 21:0.07755250001453877 22:0.661988754884 23:0.260458745101 24:0.0775525000145 25:0.0 26:0.0 27:0.0 28:0.0 29:0.0 30:0.0 31:4.0 32:1.0 33:0.0 34:0.0 35:0.0 36:0.0 37:0.0 38:0.0 39:0.0 40:0.0 41:0.0 42:0.0 43:0.0 44:0.0 
1.0 1:0.6244041505072373 2:0.3586607644884619 3:0.01693508500430072 4:0.603387768261 5:0.591258955254 6:0.640467380679 7:0.47378835922100004 8:0.312107271301 9:0.0 10:0.0 11:0.0 12:0.0 13:0.5385226127637606 14:0.3603147419389071 15:0.10116264529733225 16:0.603387768261 17:0.520902710501 18:0.640467380679 19:0.4156121574635655 20:0.4088852838178765 21:0.17550255871855797 22:0.396067417715 23:0.714554679887 24:0.488005648762 25:0.0 26:0.0 27:0.0 28:0.0 29:0.0 30:0.0 31:3.0 32:3.0 33:0.0 34:0.0 35:0.0 36:0.0 37:0.0 38:0.0 39:0.0 40:0.0 41:0.0 42:0.0 43:0.0 44:0.0 
1.0 1:0.732842987553709 2:0.2671570020425625 3:1.0403728601609349E-8 4:0.603387768261 5:0.65269213612 6:0.371429091777 7:0.3333333333333333 8:0.3333333333333333 9:0.0 10:0.0 11:0.0 12:0.0 13:0.43353127954292003 14:0.5664247290220723 15:4.399143500771474E-5 16:0.603387768261 17:0.531663155652 18:0.371429091777 19:0.3333333333333333 20:0.3333333333333333 21:0.3333333333333333 22:0.0 23:0.0 24:0.0 25:0.0 26:0.0 27:0.0 28:0.0 29:0.0 30:0.0 31:0.0 32:0.0 33:0.0 34:0.0 35:0.0 36:0.0 37:0.0 38:0.0 39:0.0 40:0.0 41:0.0 42:0.0 43:0.0 44:0.0 
1.0 1:0.7530157319782241 2:0.24455492828511477 3:0.0024293397366610438 4:0.805342632431 5:0.71137774996 6:0.67867932792 7:0.9017463022928079 8:0.04168547535275121 9:0.0 10:0.0 11:0.0 12:0.0 13:0.2146470245137656 14:0.7853188880414688 15:3.408744476563374E-5 16:0.557708349174 17:0.51519302917 18:0.519610060839 19:0.3333333333333333 20:0.3333333333333333 21:0.3333333333333333 22:0.0 23:0.0 24:0.0 25:0.0 26:0.0 27:0.0 28:0.0 29:0.0 30:0.0 31:3.0 32:0.0 33:0.0 34:0.0 35:0.0 36:0.0 37:0.0 38:0.0 39:0.0 40:0.0 41:0.0 42:0.0 43:0.0 44:0.0 
1.0 1:0.9366826186218672 2:0.025582004194017415 3:0.03773537718411539 4:0.518444752726 5:0.692370448467 6:0.652342775134 7:0.39159611142000006 8:0.202686484551 9:0.0 10:0.0 11:0.0 12:0.0 13:0.38295932019094847 14:0.5968950230269117 15:0.020145656782139868 16:0.517254953566 17:0.692370448467 18:0.652342775134 19:0.3333333333333333 20:0.3333333333333333 21:0.3333333333333333 22:0.0 23:0.0 24:0.0 25:0.0 26:0.0 27:0.0 28:0.0 29:0.0 30:0.0 31:4.0 32:0.0 33:0.0 34:0.0 35:0.0 36:0.0 37:0.0 38:0.0 39:0.0 40:0.0 41:0.0 42:0.0 43:0.0 44:0.0 
1.0 1:0.7277943032574045 2:0.25192885145496524 3:0.020276845287630234 4:0.577631142764 5:0.59704568635 6:0.782903226371 7:0.577631142764 8:0.183160190095 9:0.0 10:0.0 11:0.0 12:0.0 13:0.19591335108362512 14:0.7953037405043184 15:0.00878290841205643 16:0.428612320456 17:0.508816041006 18:0.472922912125 19:0.3333333333333333 20:0.3333333333333333 21:0.3333333333333333 22:0.0 23:0.0 24:0.0 25:0.0 26:0.0 27:0.0 28:0.0 29:0.0 30:0.0 31:3.0 32:0.0 33:0.0 34:0.0 35:0.0 36:0.0 37:0.0 38:0.0 39:0.0 40:0.0 41:0.0 42:1.0 43:0.0 44:0.0 
1.0 1:0.7417499074478859 2:0.2582500708371442 3:2.171496991308394E-8 4:0.755683474994 5:0.550295492601 6:0.472141134615 7:0.7556834749941511 8:0.17586013194503522 9:0.0 10:0.0 11:0.0 12:0.0 13:0.09130954221542341 14:0.9083065061137872 15:3.8395167078940985E-4 16:0.438309046749 17:0.550295492601 18:0.431173298017 19:0.3333333333333333 20:0.3333333333333333 21:0.3333333333333333 22:0.0 23:0.0 24:0.0 25:0.0 26:0.0 27:0.0 28:0.0 29:0.0 30:0.0 31:0.0 32:0.0 33:0.0 34:0.0 35:0.0 36:0.0 37:0.0 38:0.0 39:0.0 40:0.0 41:0.0 42:1.0 43:0.0 44:0.0 
1.0 1:0.9466870140126991 2:1.2743314581909649E-11 3:0.05331298597455756 4:0.717841157142 5:0.549253547552 6:0.741418436308 7:0.691839406900266 8:0.0013601277165083113 9:0.0 10:0.0 11:0.0 12:0.0 13:0.17951637923641672 14:0.7389497247410052 15:0.08153389602257803 16:0.468473377908 17:0.51519302917 18:0.57138240934 19:0.3333333333333333 20:0.3333333333333333 21:0.3333333333333333 22:0.0 23:0.0 24:0.0 25:0.0 26:0.0 27:0.0 28:0.0 29:0.0 30:0.0 31:16.0 32:1.0 33:0.0 34:0.0 35:0.0 36:0.0 37:0.0 38:0.0 39:0.0 40:0.0 41:0.0 42:0.0 43:0.0 44:0.0 
1.0 1:2.271509291774935E-4 2:0.00246548719169679 3:0.9973073618791257 4:0.874049302044 5:0.531663155652 6:0.876737434909 7:0.1490181791255972 8:0.6136528866173241 9:0.0 10:0.0 11:0.0 12:0.0 13:0.07768448128582271 14:0.9218443555802754 15:4.711631339018899E-4 16:0.597563469902 17:0.531663155652 18:0.378923445821 19:0.3333333333333333 20:0.3333333333333333 21:0.3333333333333333 22:0.0 23:0.0 24:0.0 25:0.0 26:0.0 27:0.0 28:0.0 29:0.0 30:0.0 31:1.0 32:2.0 33:0.0 34:0.0 35:0.0 36:0.0 37:0.0 38:0.0 39:0.0 40:0.0 41:0.0 42:0.0 43:0.0 44:0.0 
1.0 1:8.982298990846077E-9 2:0.9999999910177011 3:2.077247559676135E-20 4:0.672788588227 5:0.841099949725 6:0.712533860887 7:0.7395641286199346 8:0.1542105112295358 9:0.0 10:0.0 11:0.0 12:0.0 13:4.9834427534906286E-6 14:0.9999950165572238 15:2.2777336546135544E-14 16:0.603387768261 17:0.708059576631 18:0.712533860887 19:0.3333333333333333 20:0.3333333333333333 21:0.3333333333333333 22:0.0 23:0.0 24:0.0 25:0.0 26:0.0 27:0.0 28:0.0 29:0.0 30:0.0 31:7.0 32:1.0 33:0.0 34:0.0 35:0.0 36:0.0 37:0.0 38:0.0 39:0.0 40:0.0 41:0.0 42:0.0 43:0.0 44:0.0 
1.0 1:0.999980663088509 2:1.7671242257501017E-5 3:1.6656692335274647E-6 4:0.853109976935 5:0.903076500574 6:0.760428665265 7:0.877173689421353 8:0.035764767072282905 9:0.0 10:0.0 11:0.0 12:0.0 13:0.8019593959811401 14:0.18821658243981187 15:0.009824021579048034 16:0.54065872183 17:0.722211320406 18:0.627100923315 19:0.3333333333333333 20:0.3333333333333333 21:0.3333333333333333 22:0.0 23:0.0 24:0.0 25:0.0 26:0.0 27:0.0 28:0.0 29:0.0 30:0.0 31:1.0 32:0.0 33:0.0 34:0.0 35:0.0 36:0.0 37:0.0 38:0.0 39:0.0 40:0.0 41:0.0 42:0.0 43:0.0 44:0.0 
1.0 1:0.24637419386635429 2:0.004645661325032429 3:0.7489801448086133 4:0.795935856362 5:0.642697290898 6:0.673462337031 7:0.7959358563623185 8:0.07587761226863035 9:0.0 10:0.0 11:0.0 12:0.0 13:0.8254246776493775 14:0.09086017238070415 15:0.08371514996991843 16:0.568594764342 17:0.427773702014 18:0.672510785002 19:0.3333333333333333 20:0.3333333333333333 21:0.3333333333333333 22:0.0 23:0.0 24:0.0 25:0.0 26:0.0 27:1.0 28:0.0 29:0.0 30:0.0 31:2.0 32:0.0 33:0.0 34:0.0 35:0.0 36:0.0 37:0.0 38:0.0 39:0.0 40:0.0 41:0.0 42:0.0 43:0.0 44:0.0 
1.0 1:0.6008622541179743 2:0.3954029432864835 3:0.0037348025955422025 4:0.577631142764 5:0.550295492601 6:0.75455833767 7:0.7377150228097455 8:0.04146267126188775 9:0.0 10:0.0 11:0.0 12:0.0 13:0.1932151069101862 14:0.80546618964223 15:0.001318703447583835 16:0.424017903081 17:0.550295492601 18:0.380836646906 19:0.3333333333333333 20:0.3333333333333333 21:0.3333333333333333 22:0.0 23:0.0 24:0.0 25:0.0 26:0.0 27:0.0 28:0.0 29:0.0 30:0.0 31:0.0 32:0.0 33:0.0 34:0.0 35:0.0 36:0.0 37:0.0 38:0.0 39:0.0 40:0.0 41:0.0 42:0.0 43:0.0 44:0.0 
1.0 1:3.919839816244452E-4 2:8.194465482405896E-11 3:0.9996080159364309 4:0.568735431426 5:0.655867966705 6:0.800959097939 7:0.4723688502003757 8:0.3036075480029166 9:0.0 10:0.0 11:0.0 12:0.0 13:0.7913548994830407 14:0.14498538869992766 15:0.06365971181703167 16:0.424017903081 17:0.550295492601 18:0.697919410374 19:0.3333333333333333 20:0.3333333333333333 21:0.3333333333333333 22:0.0 23:0.0 24:0.0 25:0.0 26:0.0 27:0.0 28:0.0 29:0.0 30:0.0 31:0.0 32:0.0 33:0.0 34:0.0 35:0.0 36:0.0 37:0.0 38:0.0 39:0.0 40:0.0 41:0.0 42:0.0 43:0.0 44:0.0 
1.0 1:0.015265233577292404 2:4.538181033715293E-12 3:0.9847347664181694 4:0.5888992679 5:0.638523392766 6:0.762376677309 7:0.43632620909408976 8:0.09902430881954769 9:0.0 10:0.0 11:0.0 12:0.0 13:0.4260596293240574 14:0.5608609080698994 15:0.013079462606043223 16:0.411628137477 17:0.51519302917 18:0.515684993302 19:0.3333333333333333 20:0.3333333333333333 21:0.3333333333333333 22:0.0 23:0.0 24:0.0 25:0.0 26:0.0 27:0.0 28:0.0 29:0.0 30:0.0 31:0.0 32:0.0 33:0.0 34:0.0 35:0.0 36:0.0 37:0.0 38:0.0 39:0.0 40:0.0 41:0.0 42:0.0 43:0.0 44:0.0 
1.0 1:0.02620191116223139 2:0.9737946871775413 3:3.401660227251697E-6 4:0.699949424164 5:0.611496946345 6:0.284702404049 7:0.3333333333333333 8:0.3333333333333333 9:0.0 10:0.0 11:0.0 12:0.0 13:0.09657764078718196 14:0.9021488665290754 15:0.0012734926837426692 16:0.521998764708 17:0.550295492601 18:0.284702404049 19:0.9983475361925533 20:5.214027281257929E-4 21:0.0011310610793207846 22:0.854878178846 23:0.0832754579139 24:0.101392374614 25:0.0 26:0.0 27:0.0 28:0.0 29:0.0 30:0.0 31:0.0 32:0.0 33:0.0 34:0.0 35:0.0 36:0.0 37:0.0 38:0.0 39:0.0 40:0.0 41:0.0 42:0.0 43:0.0 44:0.0 
1.0 1:0.041897008482943136 2:0.9571017772280955 3:0.00100121428896141 4:0.803182998713 5:0.809254176937 6:0.735686309403 7:0.8345162375264488 8:0.12116252062217678 9:0.0 10:0.0 11:0.0 12:0.0 13:0.004542405785893279 14:0.9953503170259183 15:1.0727718818850266E-4 16:0.411628137477 17:0.809254176937 18:0.36295592071 19:0.8796356663105934 20:0.0812937501104516 21:0.039070583578954876 22:0.619918108397 23:0.318399213745 24:0.274479365468 25:0.0 26:0.0 27:0.0 28:0.0 29:0.0 30:0.0 31:0.0 32:0.0 33:0.0 34:0.0 35:0.0 36:0.0 37:0.0 38:0.0 39:0.0 40:0.0 41:0.0 42:0.0 43:0.0 44:0.0 
1.0 1:0.8997466879684992 2:0.10025330223998367 3:9.791517165490011E-9 4:0.689693708067 5:0.710437579884 6:0.772695397561 7:0.851814886358202 8:0.1309551853614648 9:0.0 10:0.0 11:0.0 12:0.0 13:0.037476501161331284 14:0.9625185661848663 15:4.932653802611349E-6 16:0.534148143359 17:0.608336247228 18:0.363242604904 19:0.3333333333333333 20:0.3333333333333333 21:0.3333333333333333 22:0.0 23:0.0 24:0.0 25:0.0 26:0.0 27:0.0 28:0.0 29:0.0 30:0.0 31:0.0 32:0.0 33:0.0 34:0.0 35:0.0 36:0.0 37:2.0 38:0.0 39:0.0 40:0.0 41:0.0 42:0.0 43:0.0 44:0.0 
1.0 1:0.9872421733110599 2:0.01275782632156092 3:3.673790994707367E-10 4:0.704934367885 5:0.599850137042 6:0.531687276212 7:0.240619287284391 8:0.6820346629610127 9:0.0 10:0.0 11:0.0 12:0.0 13:0.9366389478209097 14:0.06335983126344501 15:1.2209156453905857E-6 16:0.673857318349 17:0.537877091049 18:0.531687276212 19:0.3333333333333333 20:0.3333333333333333 21:0.3333333333333333 22:0.0 23:0.0 24:0.0 25:0.0 26:0.0 27:0.0 28:0.0 29:0.0 30:0.0 31:11.0 32:1.0 33:0.0 34:0.0 35:0.0 36:0.0 37:0.0 38:0.0 39:0.0 40:0.0 41:0.0 42:0.0 43:0.0 44:0.0 
1.0 1:0.6158772905817801 2:0.38391090059504684 3:2.118088231731642E-4 4:0.661646200293 5:0.550295492601 6:0.594287212025 7:0.6616462002929999 8:0.15875630171199998 9:0.0 10:0.0 11:0.0 12:0.0 13:0.23049901523983687 14:0.7684331251796421 15:0.001067859580521091 16:0.426029938029 17:0.550295492601 18:0.594287212025 19:0.3333333333333333 20:0.3333333333333333 21:0.3333333333333333 22:0.0 23:0.0 24:0.0 25:0.0 26:0.0 27:0.0 28:0.0 29:0.0 30:0.0 31:0.0 32:0.0 33:0.0 34:0.0 35:0.0 36:0.0 37:0.0 38:0.0 39:0.0 40:0.0 41:0.0 42:0.0 43:0.0 44:0.0 
1.0 1:0.963751295899346 2:0.023240715020393165 3:0.013007989080260754 4:0.647710819686 5:0.795295824499 6:0.664120837531 7:0.694598344427447 8:0.021457074681155548 9:0.0 10:0.0 11:0.0 12:0.0 13:0.03378817641094415 14:0.9656540354767983 15:5.577881122574914E-4 16:0.534148143359 17:0.795295824499 18:0.462968894018 19:0.3333333333333333 20:0.3333333333333333 21:0.3333333333333333 22:0.0 23:0.0 24:0.0 25:0.0 26:0.0 27:0.0 28:0.0 29:0.0 30:0.0 31:0.0 32:0.0 33:0.0 34:0.0 35:0.0 36:0.0 37:0.0 38:0.0 39:0.0 40:0.0 41:0.0 42:0.0 43:0.0 44:0.0 
1.0 1:1.237902875491435E-10 2:4.6540512022004006E-14 3:0.9999999998761633 4:0.685233941321 5:0.619869568938 6:0.907916244045 7:0.22479686711790486 8:0.12503546519374986 9:0.0 10:0.0 11:0.0 12:0.0 13:0.38545192916506266 14:0.5927867011177231 15:0.02176136971721412 16:0.521998764708 17:0.603387768261 18:0.697919410374 19:0.3333333333333333 20:0.3333333333333333 21:0.3333333333333333 22:0.0 23:0.0 24:0.0 25:0.0 26:0.0 27:0.0 28:0.0 29:0.0 30:0.0 31:1.0 32:0.0 33:1.0 34:0.0 35:0.0 36:0.0 37:0.0 38:0.0 39:0.0 40:0.0 41:0.0 42:0.0 43:0.0 44:0.0 
1.0 1:6.765020656637136E-7 2:0.999909142379601 3:9.018111833314783E-5 4:0.834793113623 5:0.762904871308 6:0.835590228762 7:0.8576966595357584 8:0.06736472619030381 9:0.0 10:0.0 11:0.0 12:0.0 13:0.022048580037151776 14:0.9734211451441849 15:0.004530274818663434 16:0.438309046749 17:0.597804785989 18:0.835590228762 19:0.3333333333333333 20:0.3333333333333333 21:0.3333333333333333 22:0.0 23:0.0 24:0.0 25:0.0 26:0.0 27:0.0 28:0.0 29:0.0 30:0.0 31:4.0 32:0.0 33:0.0 34:0.0 35:0.0 36:0.0 37:1.0 38:0.0 39:0.0 40:0.0 41:0.0 42:0.0 43:0.0 44:0.0 
1.0 1:1.6574934222033868E-4 2:0.9998342506394968 3:1.8282809027714728E-11 4:0.874049302044 5:0.715191420303 6:0.689102132798 7:0.38031706142336885 8:0.5069908474458381 9:0.0 10:0.0 11:0.0 12:0.0 13:0.053364789396985815 14:0.9466346092386231 15:6.013643911357406E-7 16:0.568594764342 17:0.594948695877 18:0.276858741934 19:0.9492575201610238 20:0.04916364970641523 21:0.0015788301325609865 22:0.714808504856 23:0.318399213745 24:0.101992205694 25:0.0 26:0.0 27:0.0 28:0.0 29:0.0 30:0.0 31:0.0 32:0.0 33:0.0 34:0.0 35:2.0 36:0.0 37:0.0 38:0.0 39:0.0 40:0.0 41:0.0 42:0.0 43:0.0 44:0.0 
1.0 1:0.5111154959073737 2:0.4888662138056656 3:1.8290286960790053E-5 4:0.603387768261 5:0.680251668082 6:0.775015015653 7:0.601549698259008 8:0.3252986014649741 9:0.0 10:0.0 11:0.0 12:0.0 13:0.019686682485766327 14:0.9802649148282269 15:4.8402686006825424E-5 16:0.603387768261 17:0.534739513576 18:0.650585234834 19:0.3333333333333333 20:0.3333333333333333 21:0.3333333333333333 22:0.0 23:0.0 24:0.0 25:0.0 26:0.0 27:0.0 28:0.0 29:0.0 30:0.0 31:0.0 32:0.0 33:0.0 34:0.0 35:0.0 36:0.0 37:0.0 38:0.0 39:0.0 40:0.0 41:0.0 42:0.0 43:0.0 44:0.0 
1.0 1:0.7911885583757473 2:0.06179325109996551 3:0.14701819052428708 4:0.563688392416 5:0.544731215388 6:0.532999017767 7:0.20420837088000002 8:0.527691646761 9:0.0 10:0.0 11:0.0 12:0.0 13:0.3191155459431238 14:0.5170713059987839 15:0.1638131480580923 16:0.548140680039 17:0.544731215388 18:0.532999017767 19:0.3333333333333333 20:0.3333333333333333 21:0.3333333333333333 22:0.0 23:0.0 24:0.0 25:0.0 26:0.0 27:0.0 28:0.0 29:0.0 30:0.0 31:0.0 32:0.0 33:0.0 34:0.0 35:0.0 36:0.0 37:2.0 38:0.0 39:0.0 40:0.0 41:0.0 42:0.0 43:0.0 44:0.0 
0.8652232138709741 1:1.2485355041898055E-5 2:0.03371011138024826 3:0.9662774032647099 4:0.563157766252 5:0.71137774996 6:0.782908881111 7:0.37735734556251715 8:0.32793398031153065 9:0.0 10:0.0 11:0.0 12:0.0 13:0.05977479727170155 14:0.9401253542647636 15:9.984846353482809E-5 16:0.471449216941 17:0.603387768261 18:0.462968894018 19:0.3333333333333333 20:0.3333333333333333 21:0.3333333333333333 22:0.0 23:0.0 24:0.0 25:0.0 26:0.0 27:0.0 28:0.0 29:0.0 30:0.0 31:0.0 32:0.0 33:0.0 34:0.0 35:0.0 36:0.0 37:0.0 38:0.0 39:0.0 40:0.0 41:0.0 42:1.0 43:0.0 44:0.0 
1.0 1:3.113444364390524E-4 2:0.9996859186169963 3:2.7369465646784585E-6 4:0.567936859506 5:0.616571761469 6:0.686959973853 7:0.005962366868011942 8:0.9785752534614118 9:0.0 10:0.0 11:0.0 12:0.0 13:0.08124091517726559 14:0.9186757415773855 15:8.33432453489567E-5 16:0.567936859506 17:0.571199005887 18:0.686959973853 19:0.9182339991430919 20:0.04236005342050424 21:0.03940594743640395 22:0.918233999143 23:0.0423600534205 24:0.0394059474364 25:0.0 26:0.0 27:0.0 28:0.0 29:0.0 30:0.0 31:0.0 32:0.0 33:0.0 34:0.0 35:0.0 36:0.0 37:0.0 38:0.0 39:0.0 40:0.0 41:0.0 42:0.0 43:0.0 44:0.0 
1.0 1:0.0723394287908452 2:0.9276605084783497 3:6.273080506049388E-8 4:0.874049302044 5:0.682739186552 6:0.566446109731 7:0.46924461299219816 8:0.45270284947850936 9:0.0 10:0.0 11:0.0 12:0.0 13:0.00131167538287907 14:0.9986869648327752 15:1.3597843456826064E-6 16:0.427106131569 17:0.682739186552 18:0.566446109731 19:0.3333333333333333 20:0.3333333333333333 21:0.3333333333333333 22:0.0 23:0.0 24:0.0 25:0.0 26:0.0 27:0.0 28:0.0 29:0.0 30:0.0 31:0.0 32:0.0 33:0.0 34:0.0 35:0.0 36:0.0 37:1.0 38:0.0 39:0.0 40:0.0 41:0.0 42:0.0 43:0.0 44:0.0 
1.0 1:0.9312868667671984 2:0.06802945874007577 3:6.836744927257783E-4 4:0.589761946795 5:0.685348325441 6:0.525753639212 7:0.7057198374960006 8:0.18815197019412383 9:0.0 10:0.0 11:0.0 12:0.0 13:0.02036121371335229 14:0.9763464080088933 15:0.0032923782777543784 16:0.411628137477 17:0.550295492601 18:0.380836646906 19:0.3333333333333333 20:0.3333333333333333 21:0.3333333333333333 22:0.0 23:0.0 24:0.0 25:0.0 26:0.0 27:0.0 28:0.0 29:0.0 30:0.0 31:3.0 32:0.0 33:0.0 34:0.0 35:0.0 36:0.0 37:0.0 38:0.0 39:0.0 40:0.0 41:0.0 42:0.0 43:0.0 44:0.0 
1.0 1:0.3685103667849435 2:0.004449565918593763 3:0.6270400672964628 4:0.834793113623 5:0.812351918466 6:0.760230983787 7:0.9160630386817027 8:0.0038433355863149348 9:0.0 10:0.0 11:0.0 12:0.0 13:0.587211894361428 14:0.36970423417840537 15:0.04308387146016672 16:0.494211202602 17:0.550295492601 18:0.697919410374 19:0.3333333333333333 20:0.3333333333333333 21:0.3333333333333333 22:0.0 23:0.0 24:0.0 25:0.0 26:0.0 27:0.0 28:0.0 29:0.0 30:0.0 31:1.0 32:0.0 33:0.0 34:0.0 35:0.0 36:0.0 37:0.0 38:0.0 39:0.0 40:0.0 41:0.0 42:0.0 43:0.0 44:0.0 
1.0 1:0.06579123053935444 2:0.9342087694408366 3:1.980895931045774E-11 4:0.857222699258 5:0.936508208382 6:0.594427361696 7:0.009173831426622434 8:0.9897878818049999 9:0.0 10:0.0 11:0.0 12:0.0 13:0.009215372227387574 14:0.9907840940730113 15:5.336996011765505E-7 16:0.601312473211 17:0.595351381068 18:0.594427361696 19:0.3333333333333333 20:0.3333333333333333 21:0.3333333333333333 22:0.0 23:0.0 24:0.0 25:0.0 26:0.0 27:0.0 28:0.0 29:0.0 30:0.0 31:2.0 32:0.0 33:0.0 34:0.0 35:0.0 36:0.0 37:0.0 38:0.0 39:0.0 40:0.0 41:0.0 42:0.0 43:0.0 44:0.0 
1.0 1:0.9346835407091771 2:0.06531635016993034 3:1.0912089265287688E-7 4:0.91730648783 5:0.707976922695 6:0.407064416675 7:0.926490420554784 8:0.06986221416758809 9:0.0 10:0.0 11:0.0 12:0.0 13:0.29453051281280845 14:0.702989189040814 15:0.002480298146377653 16:0.438309046749 17:0.707976922695 18:0.3082728744 19:0.3333333333333333 20:0.3333333333333333 21:0.3333333333333333 22:0.0 23:0.0 24:0.0 25:0.0 26:0.0 27:0.0 28:0.0 29:0.0 30:0.0 31:0.0 32:0.0 33:0.0 34:0.0 35:0.0 36:0.0 37:0.0 38:0.0 39:0.0 40:0.0 41:0.0 42:0.0 43:0.0 44:0.0 
0.996654408379717 1:0.9999974531823521 2:2.1549082401588807E-6 3:3.919094078353848E-7 4:0.93665253102 5:0.86871794679 6:0.467841369488 7:0.7724694609885867 8:0.10592013962133282 9:0.0 10:0.0 11:0.0 12:0.0 13:0.19757316706700448 14:0.7993637916950799 15:0.0030630412379155825 16:0.424017903081 17:0.51519302917 18:0.410922580505 19:0.3333333333333333 20:0.3333333333333333 21:0.3333333333333333 22:0.0 23:0.0 24:0.0 25:0.0 26:0.0 27:0.0 28:0.0 29:0.0 30:0.0 31:1.0 32:0.0 33:0.0 34:0.0 35:0.0 36:0.0 37:0.0 38:0.0 39:0.0 40:0.0 41:0.0 42:0.0 43:0.0 44:0.0 
1.0 1:0.9999245015133943 2:7.549760533910759E-5 3:8.812665362041021E-10 4:0.91730648783 5:0.681535812608 6:0.771804233459 7:0.5940567693916847 8:0.38319139551653464 9:0.0 10:0.0 11:0.0 12:0.0 13:0.9840111104582603 14:0.015960075380918905 15:2.8814160820857484E-5 16:0.729992445481 17:0.538826883475 18:0.569539555788 19:0.2125873714421063 20:0.7145546798873572 21:0.07285794867053642 22:0.212587371442 23:0.714554679887 24:0.0728579486705 25:0.0 26:0.0 27:0.0 28:0.0 29:0.0 30:0.0 31:0.0 32:0.0 33:0.0 34:0.0 35:0.0 36:0.0 37:0.0 38:0.0 39:0.0 40:0.0 41:0.0 42:0.0 43:0.0 44:0.0 
1.0 1:0.9990288551542638 2:9.707943751313129E-4 3:3.50470604932732E-7 4:0.93665253102 5:0.611886810827 6:0.810166975116 7:0.8356394677828389 8:0.15995715003080496 9:0.0 10:0.0 11:0.0 12:0.0 13:0.21112113158634604 14:0.7871405359088401 15:0.0017383325048136908 16:0.555857447643 17:0.597804785989 18:0.44217428948 19:0.3333333333333333 20:0.3333333333333333 21:0.3333333333333333 22:0.0 23:0.0 24:0.0 25:0.0 26:0.0 27:0.0 28:0.0 29:0.0 30:0.0 31:1.0 32:11.0 33:0.0 34:0.0 35:0.0 36:0.0 37:0.0 38:0.0 39:0.0 40:0.0 41:0.0 42:0.0 43:0.0 44:0.0 
1.0 1:0.031087999216883037 2:0.9687194088976173 3:1.925918854995896E-4 4:0.791597453166 5:0.683131367643 6:0.569699124523 7:0.129482161787 8:0.6831313676430001 9:0.0 10:0.0 11:0.0 12:0.0 13:0.41925212736564765 14:0.5803787563101488 15:3.691163242035309E-4 16:0.791597453166 17:0.51519302917 18:0.404319768756 19:0.3333333333333333 20:0.3333333333333333 21:0.3333333333333333 22:0.0 23:0.0 24:0.0 25:0.0 26:0.0 27:0.0 28:0.0 29:0.0 30:0.0 31:0.0 32:0.0 33:0.0 34:0.0 35:0.0 36:0.0 37:0.0 38:0.0 39:0.0 40:0.0 41:0.0 42:1.0 43:0.0 44:0.0 
1.0 1:0.9477400194994476 2:0.0460556890119552 3:0.006204291488597053 4:0.876975553199 5:0.662767353598 6:0.553667314195 7:0.3333333333333333 8:0.3333333333333333 9:0.0 10:0.0 11:0.0 12:0.0 13:0.2442098023876306 14:0.7551206925773871 15:6.695050349822215E-4 16:0.424017903081 17:0.628592127731 18:0.553667314195 19:0.3333333333333333 20:0.3333333333333333 21:0.3333333333333333 22:0.0 23:0.0 24:0.0 25:0.0 26:0.0 27:0.0 28:0.0 29:0.0 30:0.0 31:1.0 32:0.0 33:0.0 34:0.0 35:0.0 36:0.0 37:0.0 38:0.0 39:0.0 40:0.0 41:0.0 42:0.0 43:0.0 44:0.0 
1.0 1:0.026914063954672614 2:0.9730859358820976 3:1.6322963910917475E-10 4:0.872584862823 5:0.707976922695 6:0.545574804479 7:0.4048584130341947 8:0.41435763173219164 9:0.0 10:0.0 11:0.0 12:0.0 13:0.008500575881350378 14:0.9914993527258098 15:7.139283982469343E-8 16:0.603387768261 17:0.707976922695 18:0.545574804479 19:0.6199181083968139 20:0.3183992137449045 21:0.061682677858281486 22:0.619918108397 23:0.318399213745 24:0.0616826778583 25:0.0 26:0.0 27:0.0 28:0.0 29:0.0 30:0.0 31:0.0 32:0.0 33:0.0 34:0.0 35:0.0 36:0.0 37:0.0 38:0.0 39:0.0 40:0.0 41:0.0 42:0.0 43:0.0 44:0.0 
1.0 1:0.02052460008969041 2:0.9794753902507493 3:9.659560480226038E-9 4:0.91730648783 5:0.749090088933 6:0.725495574873 7:0.9708477110374711 8:0.011802637437980221 9:0.0 10:0.0 11:0.0 12:0.0 13:5.643545384523429E-4 14:0.999435401915812 15:2.435457355860149E-7 16:0.41269052995 17:0.573545501762 18:0.645509899236 19:0.3333333333333333 20:0.3333333333333333 21:0.3333333333333333 22:0.0 23:0.0 24:0.0 25:0.0 26:0.0 27:0.0 28:0.0 29:0.0 30:0.0 31:0.0 32:0.0 33:0.0 34:0.0 35:0.0 36:0.0 37:1.0 38:0.0 39:0.0 40:0.0 41:0.0 42:0.0 43:0.0 44:0.0 
1.0 1:0.9390831806475426 2:0.06091675460003757 3:6.475241995967905E-8 4:0.93665253102 5:0.593180500257 6:0.561814030597 7:0.3333333333333333 8:0.3333333333333333 9:0.0 10:0.0 11:0.0 12:0.0 13:0.017801218211083318 14:0.9821965632635659 15:2.218525350894337E-6 16:0.45123920413 17:0.593180500257 18:0.529919882546 19:0.3333333333333333 20:0.3333333333333333 21:0.3333333333333333 22:0.0 23:0.0 24:0.0 25:0.0 26:0.0 27:0.0 28:0.0 29:0.0 30:0.0 31:9.0 32:0.0 33:0.0 34:0.0 35:0.0 36:0.0 37:0.0 38:0.0 39:0.0 40:0.0 41:0.0 42:0.0 43:0.0 44:0.0 
1.0 1:0.9210371235006024 2:0.07895590229268858 3:6.974206709034258E-6 4:0.93665253102 5:0.64635554417 6:0.581450418728 7:0.33333333333333337 8:0.33333333333333337 9:0.0 10:0.0 11:0.0 12:0.0 13:0.043078155857640806 14:0.9566241826243862 15:2.9766151797301887E-4 16:0.424017903081 17:0.534739513576 18:0.454842585642 19:0.3333333333333333 20:0.3333333333333333 21:0.3333333333333333 22:0.0 23:0.0 24:0.0 25:0.0 26:0.0 27:0.0 28:0.0 29:0.0 30:0.0 31:0.0 32:0.0 33:0.0 34:0.0 35:0.0 36:0.0 37:0.0 38:0.0 39:0.0 40:0.0 41:0.0 42:0.0 43:0.0 44:0.0 
1.0 1:0.012194702946768452 2:0.9878050185210998 3:2.7853213165668426E-7 4:0.872584862823 5:0.604211160506 6:0.574609198235 7:0.3682480152073683 8:0.19948688751519947 9:0.0 10:0.0 11:0.0 12:0.0 13:8.753699496036016E-4 14:0.9991240280303638 15:6.020200326282729E-7 16:0.495187585412 17:0.604211160506 18:0.539649648209 19:0.3333333333333333 20:0.3333333333333333 21:0.3333333333333333 22:0.0 23:0.0 24:0.0 25:0.0 26:0.0 27:0.0 28:0.0 29:0.0 30:0.0 31:0.0 32:0.0 33:0.0 34:0.0 35:0.0 36:0.0 37:0.0 38:0.0 39:0.0 40:0.0 41:0.0 42:0.0 43:0.0 44:0.0 
1.0 1:3.6512430605241186E-4 2:1.9437736632484388E-6 3:0.9996329319202844 4:0.560607925543 5:0.858639385729 6:0.835590228762 7:0.22078202390522084 8:0.40638855333640633 9:0.0 10:0.0 11:0.0 12:0.0 13:0.012758122125125344 14:0.016380984285797213 15:0.9708608935890773 16:0.537877091049 17:0.589887787806 18:0.835590228762 19:0.3333333333333333 20:0.3333333333333333 21:0.3333333333333333 22:0.0 23:0.0 24:0.0 25:0.0 26:0.0 27:0.0 28:0.0 29:0.0 30:0.0 31:1.0 32:0.0 33:0.0 34:0.0 35:0.0 36:0.0 37:1.0 38:0.0 39:0.0 40:0.0 41:0.0 42:0.0 43:0.0 44:0.0 
1.0 1:0.5481551586480681 2:3.977564627987736E-5 3:0.4518050657056522 4:0.568594764342 5:0.468770616154 6:0.658240033791 7:0.638365453740884 8:0.12856057772677276 9:0.0 10:0.0 11:0.0 12:0.0 13:0.8652250929292712 14:0.12251139481354839 15:0.01226351225718043 16:0.568594764342 17:0.445713349028 18:0.567795616837 19:0.2125873714421063 20:0.7145546798873572 21:0.07285794867053642 22:0.212587371442 23:0.714554679887 24:0.0728579486705 25:0.0 26:0.0 27:0.0 28:0.0 29:0.0 30:0.0 31:2.0 32:1.0 33:0.0 34:0.0 35:0.0 36:0.0 37:0.0 38:0.0 39:0.0 40:0.0 41:0.0 42:0.0 43:0.0 44:0.0 
1.0 1:0.9998283532371269 2:1.7164676102083063E-4 3:1.8521797706842814E-12 4:0.853109976935 5:0.892210527772 6:0.462968894018 7:0.3055243097992922 8:0.6826116677864397 9:0.0 10:0.0 11:0.0 12:0.0 13:0.2087850815541018 14:0.7912147686457535 15:1.4980014452654869E-7 16:0.617315506841 17:0.631551084504 18:0.462968894018 19:0.3333333333333333 20:0.3333333333333333 21:0.3333333333333333 22:0.0 23:0.0 24:0.0 25:0.0 26:0.0 27:0.0 28:0.0 29:0.0 30:0.0 31:2.0 32:0.0 33:0.0 34:0.0 35:0.0 36:0.0 37:1.0 38:0.0 39:0.0 40:0.0 41:0.0 42:0.0 43:0.0 44:0.0 
1.0 1:0.46614141948622956 2:0.16653356227658606 3:0.3673250182371845 4:0.583327955238 5:0.562770733256 6:0.693899081196 7:0.8086474196906972 8:0.045126298865684394 9:0.0 10:0.0 11:0.0 12:0.0 13:0.02214133904423703 14:0.9704077809891067 15:0.007450879966656315 16:0.411628137477 17:0.531663155652 18:0.693899081196 19:0.3333333333333333 20:0.3333333333333333 21:0.3333333333333333 22:0.0 23:0.0 24:0.0 25:0.0 26:0.0 27:0.0 28:0.0 29:0.0 30:0.0 31:0.0 32:0.0 33:0.0 34:0.0 35:0.0 36:0.0 37:0.0 38:0.0 39:0.0 40:0.0 41:0.0 42:0.0 43:0.0 44:0.0 
1.0 1:0.8488903840171751 2:0.0025534716171030586 3:0.14855614436572195 4:0.507274892286 5:0.662767353598 6:0.637829595343 7:0.6283559277576299 8:0.05900800385378559 9:0.0 10:0.0 11:0.0 12:0.0 13:0.5986477042056594 14:0.369320911415605 15:0.032031384378735615 16:0.424017903081 17:0.445716040481 18:0.462968894018 19:0.3333333333333333 20:0.3333333333333333 21:0.3333333333333333 22:0.0 23:0.0 24:0.0 25:0.0 26:0.0 27:0.0 28:0.0 29:0.0 30:0.0 31:0.0 32:0.0 33:0.0 34:0.0 35:0.0 36:0.0 37:0.0 38:0.0 39:0.0 40:0.0 41:0.0 42:0.0 43:0.0 44:0.0 
1.0 1:0.008281909032932338 2:0.9917177997775644 3:2.911895031931082E-7 4:0.632370843397 5:0.659646369564 6:0.51988737156 7:0.8090657137957846 8:0.009372835034363416 9:0.0 10:0.0 11:0.0 12:0.0 13:0.018613056911041717 14:0.981374840469959 15:1.21026189992708E-5 16:0.411628137477 17:0.659646369564 18:0.51988737156 19:0.9922657098038115 20:0.0041760750213592065 21:0.0035582151748293233 22:0.992265709804 23:0.00417607502136 24:0.00355821517483 25:0.0 26:0.0 27:0.0 28:0.0 29:0.0 30:0.0 31:0.0 32:1.0 33:0.0 34:0.0 35:0.0 36:0.0 37:1.0 38:0.0 39:0.0 40:0.0 41:0.0 42:0.0 43:0.0 44:0.0 
1.0 1:0.03583775398847759 2:0.9641562446746706 3:6.001336851865483E-6 4:0.686057070484 5:0.644312354078 6:0.51575914771 7:0.33333333333333337 8:0.33333333333333337 9:0.0 10:0.0 11:0.0 12:0.0 13:0.23088329370329969 14:0.7689069293170323 15:2.097769796680586E-4 16:0.555857447643 17:0.531663155652 18:0.38116278287 19:0.3333333333333333 20:0.3333333333333333 21:0.3333333333333333 22:0.0 23:0.0 24:0.0 25:0.0 26:0.0 27:0.0 28:0.0 29:0.0 30:0.0 31:0.0 32:0.0 33:0.0 34:0.0 35:0.0 36:0.0 37:0.0 38:0.0 39:0.0 40:0.0 41:0.0 42:0.0 43:0.0 44:0.0 
1.0 1:9.476840802754818E-5 2:0.9999048993400597 3:3.322519128762565E-7 4:0.748387743362 5:0.656108391096 6:0.777064637222 7:0.20776420242013857 8:0.7600196073760596 9:0.0 10:0.0 11:0.0 12:0.0 13:0.008168481679257072 14:0.9917715110127446 15:6.0007307998458196E-5 16:0.424017903081 17:0.564421048646 18:0.380478045837 19:0.3333333333333333 20:0.3333333333333333 21:0.3333333333333333 22:0.0 23:0.0 24:0.0 25:0.0 26:0.0 27:0.0 28:0.0 29:0.0 30:0.0 31:0.0 32:0.0 33:0.0 34:0.0 35:0.0 36:0.0 37:1.0 38:0.0 39:0.0 40:0.0 41:0.0 42:0.0 43:0.0 44:0.0 
1.0 1:0.18747445669094193 2:0.6792067800404714 3:0.13331876326858672 4:0.735649196347 5:0.611496946345 6:0.710914526918 7:0.5604091349237069 8:0.047792770668488596 9:0.0 10:0.0 11:0.0 12:0.0 13:0.06628964637432763 14:0.9334401851448894 15:2.701684807830145E-4 16:0.534148143359 17:0.550295492601 18:0.594427361696 19:0.3333333333333333 20:0.3333333333333333 21:0.3333333333333333 22:0.0 23:0.0 24:0.0 25:0.0 26:0.0 27:0.0 28:0.0 29:0.0 30:0.0 31:0.0 32:0.0 33:0.0 34:0.0 35:0.0 36:0.0 37:0.0 38:0.0 39:0.0 40:0.0 41:0.0 42:0.0 43:0.0 44:0.0 
1.0 1:0.7659639069793347 2:0.23403598832313585 3:1.04697529409129E-7 4:0.76281811952 5:0.865635657734 6:0.75007784727 7:0.9784260102544357 8:0.019797046283466003 9:0.0 10:0.0 11:0.0 12:0.0 13:7.653449091427623E-6 14:0.9999923465507845 15:1.2410460342676684E-13 16:0.471449216941 17:0.865635657734 18:0.525204225364 19:0.3333333333333333 20:0.3333333333333333 21:0.3333333333333333 22:0.0 23:0.0 24:0.0 25:0.0 26:0.0 27:0.0 28:0.0 29:0.0 30:0.0 31:4.0 32:0.0 33:0.0 34:0.0 35:0.0 36:0.0 37:0.0 38:0.0 39:0.0 40:0.0 41:0.0 42:0.0 43:0.0 44:0.0 
1.0 1:0.0020599328386437903 2:0.9979400369968393 3:3.0164516762135705E-8 4:0.667307078956 5:0.710437579884 6:0.539738296054 7:0.8484726732319232 8:0.11421051389138714 9:0.0 10:0.0 11:0.0 12:0.0 13:0.012852431555491067 14:0.9867607215248771 15:3.8684691963194697E-4 16:0.517254953566 17:0.638360321089 18:0.539738296054 19:0.8224522428970822 20:0.09465443355860945 21:0.08289332354430828 22:0.822452242897 23:0.0946544335586 24:0.0828933235443 25:0.0 26:0.0 27:0.0 28:0.0 29:0.0 30:0.0 31:2.0 32:0.0 33:0.0 34:0.0 35:0.0 36:0.0 37:1.0 38:0.0 39:0.0 40:0.0 41:0.0 42:0.0 43:0.0 44:0.0 
1.0 1:2.5762503361052716E-4 2:0.9997422383197174 3:1.3664667194390465E-7 4:0.597563469902 5:0.767893937818 6:0.527110721734 7:0.404911502795385 8:0.4524558957827747 9:0.0 10:0.0 11:0.0 12:0.0 13:8.268160600350378E-4 14:0.9991716082563723 15:1.5756835925845275E-6 16:0.597563469902 17:0.520902710501 18:0.527110721734 19:0.3333333333333333 20:0.3333333333333333 21:0.3333333333333333 22:0.0 23:0.0 24:0.0 25:0.0 26:0.0 27:1.0 28:0.0 29:0.0 30:0.0 31:0.0 32:0.0 33:0.0 34:0.0 35:0.0 36:0.0 37:1.0 38:0.0 39:0.0 40:0.0 41:0.0 42:0.0 43:0.0 44:0.0 
1.0 1:0.999997259380996 2:2.664622059273417E-12 3:2.7406163393199135E-6 4:0.924905814535 5:0.669040163028 6:0.68953570522 7:0.9991877770150253 8:1.5031246763739197E-4 9:0.0 10:0.0 11:0.0 12:0.0 13:0.6172123695126447 14:0.1330617305747157 15:0.24972589991263966 16:0.673857318349 17:0.669040163028 18:0.68953570522 19:0.3333333333333333 20:0.3333333333333333 21:0.3333333333333333 22:0.0 23:0.0 24:0.0 25:0.0 26:0.0 27:0.0 28:0.0 29:0.0 30:0.0 31:23.0 32:1.0 33:0.0 34:0.0 35:0.0 36:0.0 37:1.0 38:0.0 39:0.0 40:0.0 41:0.0 42:0.0 43:0.0 44:0.0 
1.0 1:0.03594518792760595 2:1.0565294440793444E-6 3:0.96405375554295 4:0.699949424164 5:0.809498484705 6:0.75623317702 7:0.6156906604382917 8:0.04110657542629775 9:0.0 10:0.0 11:0.0 12:0.0 13:0.07186779329258101 14:0.907180152111907 15:0.020952054595512058 16:0.440079878096 17:0.690571458754 18:0.741502466006 19:0.3333333333333333 20:0.3333333333333333 21:0.3333333333333333 22:0.0 23:0.0 24:0.0 25:0.0 26:0.0 27:0.0 28:0.0 29:0.0 30:0.0 31:0.0 32:0.0 33:1.0 34:0.0 35:0.0 36:0.0 37:0.0 38:0.0 39:0.0 40:0.0 41:0.0 42:0.0 43:0.0 44:0.0 
1.0 1:0.41197001253071536 2:0.5880199352923317 3:1.005217695293724E-5 4:0.770010145882 5:0.673857318349 6:0.649668098956 7:0.473460365447 8:0.404515146971 9:0.0 10:0.0 11:0.0 12:0.0 13:5.964977595340054E-4 14:0.999403282010262 15:2.2023020415003598E-7 16:0.673857318349 17:0.673857318349 18:0.649668098956 19:0.3333333333333333 20:0.3333333333333333 21:0.3333333333333333 22:0.0 23:0.0 24:0.0 25:0.0 26:0.0 27:0.0 28:0.0 29:0.0 30:0.0 31:5.0 32:0.0 33:0.0 34:0.0 35:5.0 36:0.0 37:0.0 38:0.0 39:0.0 40:0.0 41:0.0 42:0.0 43:0.0 44:0.0 
1.0 1:0.3639762403138556 2:0.6360229132829863 3:8.464031582400418E-7 4:0.749399744154 5:0.695698204265 6:0.599059698951 7:0.28822973137071173 8:0.5095688963014905 9:0.0 10:0.0 11:0.0 12:0.0 13:0.2639195675462239 14:0.7359971794731432 15:8.325298063277311E-5 16:0.749399744154 17:0.585323236404 18:0.599059698951 19:0.3333333333333333 20:0.3333333333333333 21:0.3333333333333333 22:0.0 23:0.0 24:0.0 25:0.0 26:0.0 27:0.0 28:0.0 29:0.0 30:0.0 31:2.0 32:0.0 33:0.0 34:0.0 35:0.0 36:0.0 37:0.0 38:0.0 39:0.0 40:0.0 41:0.0 42:0.0 43:0.0 44:0.0 
1.0 1:0.10677696105901792 2:0.892023146832895 3:0.0011998921080869785 4:0.558137192934 5:0.691771040621 6:0.772517914962 7:0.8464053571220402 8:0.022247710897680417 9:0.0 10:0.0 11:0.0 12:0.0 13:0.0029449916998094045 14:0.9970189861817186 15:3.602211847196111E-5 16:0.424017903081 17:0.51519302917 18:0.772517914962 19:0.3333333333333333 20:0.3333333333333333 21:0.3333333333333333 22:0.0 23:0.0 24:0.0 25:0.0 26:0.0 27:0.0 28:0.0 29:0.0 30:0.0 31:1.0 32:1.0 33:0.0 34:0.0 35:1.0 36:0.0 37:0.0 38:0.0 39:0.0 40:0.0 41:0.0 42:0.0 43:0.0 44:0.0 
1.0 1:0.5421028237885183 2:0.45769759283548406 3:1.9958337599756113E-4 4:0.731455618263 5:0.887625190557 6:0.532840483666 7:0.6248419229163249 8:0.22717585020226042 9:0.0 10:0.0 11:0.0 12:0.0 13:0.07824420543157655 14:0.9208779682091535 15:8.778263592698474E-4 16:0.411628137477 17:0.521551176392 18:0.413365483192 19:0.3333333333333333 20:0.3333333333333333 21:0.3333333333333333 22:0.0 23:0.0 24:0.0 25:0.0 26:0.0 27:0.0 28:0.0 29:0.0 30:0.0 31:0.0 32:0.0 33:0.0 34:0.0 35:0.0 36:0.0 37:0.0 38:0.0 39:0.0 40:0.0 41:0.0 42:0.0 43:0.0 44:0.0 
1.0 1:0.21573113525979196 2:0.7842651887461501 3:3.675994057880979E-6 4:0.670059137737 5:0.550295492601 6:0.576433535991 7:0.750071368060052 8:0.17006983448759005 9:0.0 10:0.0 11:0.0 12:0.0 13:0.02951596118287076 14:0.9704606544798341 15:2.3384337295118588E-5 16:0.603387768261 17:0.550295492601 18:0.548932298209 19:0.3333333333333333 20:0.3333333333333333 21:0.3333333333333333 22:0.0 23:0.0 24:0.0 25:0.0 26:0.0 27:0.0 28:0.0 29:0.0 30:0.0 31:0.0 32:0.0 33:0.0 34:0.0 35:0.0 36:0.0 37:0.0 38:0.0 39:0.0 40:0.0 41:0.0 42:0.0 43:0.0 44:0.0 
1.0 1:0.06965493240575199 2:0.9303433774570945 3:1.690137153530322E-6 4:0.694430085555 5:0.724831941711 6:0.556229167898 7:0.4564480640621781 8:0.5029482302971852 9:0.0 10:0.0 11:0.0 12:0.0 13:0.04570946643390421 14:0.9541751582615019 15:1.1537530459376205E-4 16:0.430217609087 17:0.550295492601 18:0.47188922303 19:0.3333333333333333 20:0.3333333333333333 21:0.3333333333333333 22:0.0 23:0.0 24:0.0 25:0.0 26:0.0 27:0.0 28:0.0 29:0.0 30:0.0 31:9.0 32:0.0 33:0.0 34:0.0 35:0.0 36:0.0 37:0.0 38:0.0 39:0.0 40:0.0 41:0.0 42:0.0 43:0.0 44:0.0 
1.0 1:0.9999852010716018 2:1.7582066208367156E-8 3:1.4781346331955413E-5 4:0.935233365413 5:0.615225349427 6:0.787687818088 7:0.9776724836816871 8:1.2794291593348405E-5 9:0.0 10:0.0 11:0.0 12:0.0 13:0.004195989413896673 14:0.9957948841283469 15:9.126457756469534E-6 16:0.729992445481 17:0.59032124889 18:0.517817420827 19:0.3333333333333333 20:0.3333333333333333 21:0.3333333333333333 22:0.0 23:0.0 24:0.0 25:0.0 26:0.0 27:0.0 28:0.0 29:0.0 30:0.0 31:0.0 32:6.0 33:0.0 34:0.0 35:0.0 36:0.0 37:2.0 38:0.0 39:0.0 40:0.0 41:0.0 42:0.0 43:0.0 44:0.0 
1.0 1:0.1455054072704329 2:0.6833036456763505 3:0.1711909470532166 4:0.581761921002 5:0.86075714942 6:0.670024097595 7:0.5715120912497559 8:0.008108328499004886 9:0.0 10:0.0 11:0.0 12:0.0 13:0.2844869717183922 14:0.6078203681838942 15:0.1076926600977136 16:0.411628137477 17:0.531663155652 18:0.55989425497 19:0.3333333333333333 20:0.3333333333333333 21:0.3333333333333333 22:0.0 23:0.0 24:0.0 25:0.0 26:0.0 27:0.0 28:0.0 29:0.0 30:0.0 31:1.0 32:2.0 33:0.0 34:0.0 35:0.0 36:0.0 37:0.0 38:0.0 39:0.0 40:0.0 41:0.0 42:0.0 43:0.0 44:0.0 
1.0 1:0.31176468940059326 2:0.6741536094450041 3:0.0140817011544026 4:0.805342632431 5:0.805342632431 6:0.284702404049 7:0.4699958745465666 8:0.4699958745465666 9:0.0 10:0.0 11:0.0 12:0.0 13:0.183867561349 14:0.531430034602 15:0.284702404049 16:0.183867561349 17:0.531430034602 18:0.284702404049 19:0.3333333333333333 20:0.3333333333333333 21:0.3333333333333333 22:0.0 23:0.0 24:0.0 25:0.0 26:0.0 27:0.0 28:0.0 29:0.0 30:0.0 31:0.0 32:1.0 33:0.0 34:0.0 35:0.0 36:0.0 37:0.0 38:0.0 39:0.0 40:0.0 41:0.0 42:0.0 43:0.0 44:0.0 
1.0 1:0.7762287334526776 2:0.22372233458989077 3:4.893195743169935E-5 4:0.615130679319 5:0.710437579884 6:0.523720178711 7:0.7320991646105449 8:0.07438338014721071 9:0.0 10:0.0 11:0.0 12:0.0 13:0.5343092741594951 14:0.46008830442827603 15:0.00560242141222885 16:0.424908534616 17:0.531663155652 18:0.479569386157 19:0.3333333333333333 20:0.3333333333333333 21:0.3333333333333333 22:0.0 23:0.0 24:0.0 25:0.0 26:0.0 27:0.0 28:0.0 29:0.0 30:0.0 31:0.0 32:0.0 33:0.0 34:0.0 35:0.0 36:0.0 37:0.0 38:0.0 39:0.0 40:0.0 41:0.0 42:0.0 43:0.0 44:0.0 
1.0 1:0.2685396989494738 2:0.06278411340883777 3:0.6686761876416885 4:0.504986501824 5:0.53063193835 6:0.645209302917 7:0.33333333333333337 8:0.33333333333333337 9:0.0 10:0.0 11:0.0 12:0.0 13:0.10983315773234736 14:0.8869069872131901 15:0.003259855054462452 16:0.479221400939 17:0.520902710501 18:0.594427361696 19:0.3333333333333333 20:0.3333333333333333 21:0.3333333333333333 22:0.0 23:0.0 24:0.0 25:0.0 26:0.0 27:0.0 28:0.0 29:0.0 30:0.0 31:0.0 32:0.0 33:0.0 34:0.0 35:0.0 36:0.0 37:0.0 38:0.0 39:0.0 40:0.0 41:0.0 42:0.0 43:0.0 44:0.0 
1.0 1:0.9998726213519307 2:8.986178824673843E-5 3:3.751685982246614E-5 4:0.762547311417 5:0.71137774996 6:0.810166975116 7:0.7873162925781867 8:0.14207888021087878 9:0.0 10:0.0 11:0.0 12:0.0 13:0.7930104361118593 14:0.2066799923802582 15:3.0957150788257304E-4 16:0.448313231648 17:0.59032124889 18:0.668362176781 19:0.3333333333333333 20:0.3333333333333333 21:0.3333333333333333 22:0.0 23:0.0 24:0.0 25:0.0 26:0.0 27:0.0 28:0.0 29:0.0 30:0.0 31:5.0 32:7.0 33:0.0 34:0.0 35:0.0 36:0.0 37:0.0 38:0.0 39:0.0 40:0.0 41:0.0 42:0.0 43:0.0 44:0.0 
1.0 1:0.02426622037314734 2:0.975729489749959 3:4.289876893552402E-6 4:0.603896109163 5:0.722877781919 6:0.466706527851 7:0.3333333333333333 8:0.3333333333333333 9:0.0 10:0.0 11:0.0 12:0.0 13:0.006485219109262668 14:0.9935105570914103 15:4.223799326960155E-6 16:0.568594764342 17:0.722877781919 18:0.466501953305 19:1.4844959083884216E-5 20:0.9999850068550249 21:1.4818589120497512E-7 22:0.12750590869 23:0.813328625794 24:0.0591654655164 25:0.0 26:0.0 27:0.0 28:0.0 29:0.0 30:0.0 31:0.0 32:0.0 33:0.0 34:0.0 35:0.0 36:0.0 37:0.0 38:0.0 39:0.0 40:0.0 41:0.0 42:0.0 43:0.0 44:0.0 
1.0 1:0.04284411292649554 2:0.9554278436614423 3:0.001728043412062101 4:0.780834882107 5:0.600696581191 6:0.698338520186 7:0.8956312526866764 8:0.06326737381377452 9:0.0 10:0.0 11:0.0 12:0.0 13:0.030492849474648857 14:0.9573217300690028 15:0.012185420456348274 16:0.470923802882 17:0.534739513576 18:0.686803195127 19:0.3333333333333333 20:0.3333333333333333 21:0.3333333333333333 22:0.0 23:0.0 24:0.0 25:0.0 26:0.0 27:0.0 28:0.0 29:0.0 30:0.0 31:0.0 32:1.0 33:0.0 34:0.0 35:0.0 36:0.0 37:0.0 38:0.0 39:0.0 40:0.0 41:0.0 42:0.0 43:0.0 44:0.0 
1.0 1:2.0209257384575796E-4 2:0.9997318654710341 3:6.604195512013093E-5 4:0.806102832537 5:0.616605579671 6:0.660987618452 7:0.8734874735412572 8:0.0928094787284669 9:0.0 10:0.0 11:0.0 12:0.0 13:3.066900158669812E-4 14:0.9996522984046569 15:4.101157947619412E-5 16:0.411628137477 17:0.531430034602 18:0.57138240934 19:0.3333333333333333 20:0.3333333333333333 21:0.3333333333333333 22:0.0 23:0.0 24:0.0 25:0.0 26:0.0 27:0.0 28:0.0 29:0.0 30:0.0 31:0.0 32:3.0 33:0.0 34:0.0 35:0.0 36:0.0 37:0.0 38:0.0 39:0.0 40:0.0 41:0.0 42:0.0 43:0.0 44:0.0 
1.0 1:0.5601669604211958 2:0.10961210885832046 3:0.3302209307204837 4:0.411628137477 5:0.57327211165 6:0.699079665578 7:0.3333333333333333 8:0.3333333333333333 9:0.0 10:0.0 11:0.0 12:0.0 13:0.4116281374765884 14:0.37106813455262894 15:0.21730372797078268 16:0.411628137477 17:0.371068134553 18:0.217303727971 19:0.3333333333333333 20:0.3333333333333333 21:0.3333333333333333 22:0.0 23:0.0 24:0.0 25:0.0 26:0.0 27:0.0 28:0.0 29:0.0 30:0.0 31:1.0 32:0.0 33:0.0 34:0.0 35:0.0 36:0.0 37:1.0 38:0.0 39:0.0 40:0.0 41:0.0 42:0.0 43:0.0 44:0.0 
1.0 1:2.662290721889697E-4 2:3.93560950391945E-8 3:0.9997337315717161 4:0.47920252245 5:0.702687113606 6:0.713418839626 7:0.15531219241192526 8:0.020221571364740343 9:0.0 10:0.0 11:0.0 12:0.0 13:0.1075229938042421 14:0.8434245877033343 15:0.04905241849242364 16:0.424017903081 17:0.702687113606 18:0.625828077201 19:0.3333333333333333 20:0.3333333333333333 21:0.3333333333333333 22:0.0 23:0.0 24:0.0 25:0.0 26:0.0 27:0.0 28:0.0 29:0.0 30:0.0 31:0.0 32:0.0 33:0.0 34:0.0 35:0.0 36:0.0 37:0.0 38:0.0 39:0.0 40:0.0 41:0.0 42:0.0 43:0.0 44:0.0 
1.0 1:0.01551913897105915 2:0.8720053085931833 3:0.11247555243575752 4:0.675973136536 5:0.829417909525 6:0.681906192896 7:0.09393523720569305 8:0.8095341605744325 9:0.0 10:0.0 11:0.0 12:0.0 13:0.06419711242652659 14:0.9356591467612966 15:1.4374081217680566E-4 16:0.411628137477 17:0.717847545587 18:0.681906192896 19:0.3333333333333333 20:0.3333333333333333 21:0.3333333333333333 22:0.0 23:0.0 24:0.0 25:0.0 26:0.0 27:0.0 28:0.0 29:0.0 30:0.0 31:0.0 32:0.0 33:0.0 34:0.0 35:0.0 36:0.0 37:0.0 38:0.0 39:0.0 40:0.0 41:0.0 42:0.0 43:1.0 44:0.0 
1.0 1:0.0018999551379817897 2:0.9980988651440665 3:1.179717951771831E-6 4:0.623841675231 5:0.80131598426 6:0.840737648282 7:0.46480264081146483 8:0.2656199324932656 9:0.0 10:0.0 11:0.0 12:0.0 13:6.40532904731388E-5 14:0.9999359088810738 15:3.7828453233951415E-8 16:0.595804102947 17:0.760459727434 18:0.658299304046 19:0.3333333333333333 20:0.3333333333333333 21:0.3333333333333333 22:0.0 23:0.0 24:0.0 25:0.0 26:0.0 27:0.0 28:0.0 29:0.0 30:0.0 31:0.0 32:0.0 33:0.0 34:0.0 35:0.0 36:0.0 37:0.0 38:0.0 39:0.0 40:0.0 41:0.0 42:0.0 43:0.0 44:0.0 
1.0 1:0.42664054309555366 2:0.5733496771003975 3:9.779804048728494E-6 4:0.671979420204 5:0.692072768104 6:0.586666744051 7:0.6004833195091797 8:0.14068732466632702 9:0.0 10:0.0 11:0.0 12:0.0 13:0.08763854178423021 14:0.9114411915973065 15:9.202666184631442E-4 16:0.411628137477 17:0.626559819067 18:0.526208822979 19:0.3333333333333333 20:0.3333333333333333 21:0.3333333333333333 22:0.0 23:0.0 24:0.0 25:0.0 26:0.0 27:0.0 28:0.0 29:0.0 30:0.0 31:1.0 32:0.0 33:0.0 34:0.0 35:0.0 36:0.0 37:0.0 38:0.0 39:0.0 40:0.0 41:0.0 42:0.0 43:0.0 44:0.0 
1.0 1:0.014601961414371742 2:0.9830436274984496 3:0.0023544110871786144 4:0.703376360611 5:0.616605579671 6:0.705249730078 7:0.3544938510030562 8:0.5284199179186375 9:0.0 10:0.0 11:0.0 12:0.0 13:0.03251877074414954 14:0.967381051376819 15:1.001778790314144E-4 16:0.411628137477 17:0.51519302917 18:0.380836646906 19:0.3333333333333333 20:0.3333333333333333 21:0.3333333333333333 22:0.0 23:0.0 24:0.0 25:0.0 26:0.0 27:0.0 28:0.0 29:0.0 30:0.0 31:1.0 32:0.0 33:0.0 34:0.0 35:0.0 36:0.0 37:0.0 38:0.0 39:0.0 40:0.0 41:0.0 42:0.0 43:0.0 44:0.0 
1.0 1:0.03259650695089934 2:0.9673397357169494 3:6.375733215118513E-5 4:0.441826525147 5:0.531663155652 6:0.612774072971 7:0.36275491424932127 8:0.5793803786351032 9:0.0 10:0.0 11:0.0 12:0.0 13:0.005588139892027234 14:0.9944095848805119 15:2.2752274608536063E-6 16:0.411628137477 17:0.531663155652 18:0.609748333355 19:0.3333333333333333 20:0.3333333333333333 21:0.3333333333333333 22:0.0 23:0.0 24:0.0 25:0.0 26:0.0 27:0.0 28:0.0 29:0.0 30:0.0 31:0.0 32:0.0 33:0.0 34:0.0 35:0.0 36:0.0 37:0.0 38:0.0 39:0.0 40:0.0 41:0.0 42:0.0 43:0.0 44:0.0 
1.0 1:0.1745970049603383 2:0.8254029950396474 3:1.4185147682256444E-14 4:0.834793113623 5:0.839279285022 6:0.498587636302 7:0.9730129116694735 8:0.02481304347815305 9:0.0 10:0.0 11:0.0 12:0.0 13:5.8318925259033555E-6 14:0.9999941570520041 15:1.105546993756783E-8 16:0.41269052995 17:0.59032124889 18:0.498587636302 19:0.661988754884331 20:0.2604587451011302 21:0.07755250001453877 22:0.661988754884 23:0.260458745101 24:0.0775525000145 25:0.0 26:0.0 27:0.0 28:0.0 29:0.0 30:0.0 31:3.0 32:3.0 33:0.0 34:0.0 35:0.0 36:0.0 37:0.0 38:0.0 39:0.0 40:0.0 41:0.0 42:6.0 43:0.0 44:0.0 
1.0 1:0.05434280142722704 2:1.4348432059058995E-5 3:0.9456428501407139 4:0.566034172082 5:0.680251668082 6:0.846341967365 7:0.5078167979221699 8:0.05357608626403279 9:0.0 10:0.0 11:0.0 12:0.0 13:0.0018639140484028674 14:0.9979431343913913 15:1.929515602058247E-4 16:0.484124123049 17:0.51519302917 18:0.691314241486 19:0.3333333333333333 20:0.3333333333333333 21:0.3333333333333333 22:0.0 23:0.0 24:0.0 25:0.0 26:0.0 27:0.0 28:0.0 29:0.0 30:0.0 31:0.0 32:0.0 33:0.0 34:0.0 35:0.0 36:0.0 37:0.0 38:0.0 39:0.0 40:0.0 41:0.0 42:0.0 43:0.0 44:0.0 
1.0 1:6.044222287410426E-7 2:3.502694733209986E-14 3:0.9999993955777362 4:0.632370843397 5:0.680251668082 6:0.752291920268 7:0.046366650950330594 8:2.02495953690129E-6 9:0.0 10:0.0 11:0.0 12:0.0 13:0.2279600595953957 14:0.551583928083748 15:0.22045601232085632 16:0.411628137477 17:0.531663155652 18:0.752291920268 19:0.3333333333333333 20:0.3333333333333333 21:0.3333333333333333 22:0.0 23:0.0 24:0.0 25:0.0 26:0.0 27:0.0 28:0.0 29:0.0 30:0.0 31:1.0 32:0.0 33:3.0 34:0.0 35:0.0 36:0.0 37:0.0 38:0.0 39:0.0 40:0.0 41:0.0 42:0.0 43:0.0 44:0.0 
1.0 1:0.040615057534678596 2:0.6424344036489262 3:0.3169505388163952 4:0.729992445481 5:0.577631142764 6:0.720826062248 7:0.06433261132402043 8:0.8413441506059695 9:0.0 10:0.0 11:0.0 12:0.0 13:0.10432157055169614 14:0.8752499221574338 15:0.02042850729086999 16:0.729992445481 17:0.520902710501 18:0.57138240934 19:0.714808504856 20:0.18319928945 21:0.101992205694 22:0.714808504856 23:0.18319928945 24:0.101992205694 25:0.0 26:0.0 27:0.0 28:0.0 29:0.0 30:0.0 31:2.0 32:1.0 33:0.0 34:0.0 35:0.0 36:0.0 37:0.0 38:0.0 39:0.0 40:0.0 41:0.0 42:1.0 43:0.0 44:0.0 
1.0 1:0.81375633294129 2:0.16333495422873426 3:0.022908712829975617 4:0.803918134457 5:0.71137774996 6:0.720826062248 7:0.8659820334121278 8:0.020772673644438053 9:0.0 10:0.0 11:0.0 12:0.0 13:0.29139802420170247 14:0.7085779385682228 15:2.4037230074682247E-5 16:0.597563469902 17:0.520902710501 18:0.693899081196 19:0.3333333333333333 20:0.3333333333333333 21:0.3333333333333333 22:0.0 23:0.0 24:0.0 25:0.0 26:0.0 27:0.0 28:0.0 29:0.0 30:0.0 31:0.0 32:0.0 33:1.0 34:0.0 35:0.0 36:0.0 37:0.0 38:0.0 39:0.0 40:0.0 41:0.0 42:0.0 43:0.0 44:0.0 
1.0 1:0.3600754807472977 2:0.639178651779676 3:7.458674730263158E-4 4:0.608201381117 5:0.558288536426 6:0.658988090183 7:0.3324903700709691 8:0.47718218126494927 9:0.0 10:0.0 11:0.0 12:0.0 13:0.10068143108052094 14:0.8990716330356265 15:2.4693588385253645E-4 16:0.424017903081 17:0.531663155652 18:0.508929951796 19:0.3333333333333333 20:0.3333333333333333 21:0.3333333333333333 22:0.0 23:0.0 24:0.0 25:0.0 26:0.0 27:0.0 28:0.0 29:0.0 30:0.0 31:1.0 32:0.0 33:0.0 34:0.0 35:0.0 36:0.0 37:0.0 38:0.0 39:0.0 40:0.0 41:0.0 42:0.0 43:0.0 44:0.0 
1.0 1:0.9999814114707359 2:1.8464405711351316E-5 3:1.2412355271330685E-7 4:0.795935856362 5:0.674179871587 6:0.638110870787 7:0.9877856023054272 8:0.006758578630633681 9:0.0 10:0.0 11:0.0 12:0.0 13:0.0013569407754809434 14:0.9986418958850497 15:1.1633394694025633E-6 16:0.411628137477 17:0.674179871587 18:0.638110870787 19:0.20452253868999998 20:0.467635544135 21:0.327841917175 22:0.20452253869 23:0.467635544135 24:0.327841917175 25:0.0 26:0.0 27:0.0 28:0.0 29:0.0 30:0.0 31:1.0 32:0.0 33:0.0 34:0.0 35:0.0 36:0.0 37:0.0 38:0.0 39:0.0 40:0.0 41:0.0 42:0.0 43:0.0 44:0.0 
1.0 1:0.9999987302728504 2:1.2691030347678344E-6 3:6.2411481138101E-10 4:0.93665253102 5:0.8121071581 6:0.750724631336 7:0.35223604116400004 8:0.4485844400580001 9:0.0 10:0.0 11:0.0 12:0.0 13:0.0793965056850543 14:0.9204512628829842 15:1.5223143196160016E-4 16:0.424017903081 17:0.591777430796 18:0.462968894018 19:0.3333333333333333 20:0.3333333333333333 21:0.3333333333333333 22:0.0 23:0.0 24:0.0 25:0.0 26:0.0 27:0.0 28:0.0 29:0.0 30:0.0 31:1.0 32:0.0 33:0.0 34:0.0 35:0.0 36:0.0 37:0.0 38:0.0 39:0.0 40:0.0 41:0.0 42:0.0 43:0.0 44:0.0 
1.0 1:0.8418539503354785 2:0.13963203274591052 3:0.018514016918611008 4:0.587649851264 5:0.552092139211 6:0.68953570522 7:0.40489004692551034 8:0.40930551616775607 9:0.0 10:0.0 11:0.0 12:0.0 13:0.38441824921297996 14:0.6138341789838121 15:0.001747571803207988 16:0.587649851264 17:0.514024313272 18:0.68953570522 19:0.3333333333333333 20:0.3333333333333333 21:0.3333333333333333 22:0.0 23:0.0 24:0.0 25:0.0 26:0.0 27:0.0 28:0.0 29:0.0 30:0.0 31:0.0 32:0.0 33:0.0 34:0.0 35:0.0 36:0.0 37:0.0 38:0.0 39:0.0 40:0.0 41:0.0 42:0.0 43:0.0 44:0.0 
1.0 1:0.8587850424678405 2:0.14121486974073486 3:8.779142475918249E-8 4:0.80316287575 5:0.657918749192 6:0.720867023502 7:0.4393923737113714 8:0.5224866676889544 9:0.0 10:0.0 11:0.0 12:0.0 13:0.013687145218901095 14:0.9862898813781238 15:2.2973402975131022E-5 16:0.737558837447 17:0.657918749192 18:0.546939888788 19:0.3333333333333333 20:0.3333333333333333 21:0.3333333333333333 22:0.0 23:0.0 24:0.0 25:0.0 26:0.0 27:0.0 28:0.0 29:0.0 30:0.0 31:0.0 32:0.0 33:0.0 34:0.0 35:0.0 36:0.0 37:0.0 38:0.0 39:0.0 40:0.0 41:0.0 42:0.0 43:0.0 44:0.0 
1.0 1:0.6367531728378028 2:0.3632421239758673 3:4.703186329937202E-6 4:0.78359108061 5:0.590657036864 6:0.436610469445 7:0.3333333333333333 8:0.3333333333333333 9:0.0 10:0.0 11:0.0 12:0.0 13:0.7666233673301861 14:0.21952388835468145 15:0.013852744315132486 16:0.580202557558 17:0.531314941065 18:0.436610469445 19:0.6199181083968139 20:0.3183992137449045 21:0.061682677858281486 22:0.619918108397 23:0.318399213745 24:0.0616826778583 25:0.0 26:0.0 27:0.0 28:0.0 29:0.0 30:0.0 31:0.0 32:0.0 33:0.0 34:0.0 35:0.0 36:0.0 37:0.0 38:0.0 39:0.0 40:0.0 41:0.0 42:0.0 43:0.0 44:0.0 
1.0 1:0.5902820020998624 2:0.4097137250730523 3:4.272827085293973E-6 4:0.792785757638 5:0.568087616444 6:0.683833883476 7:0.8441990046269605 8:0.12097414661965127 9:0.0 10:0.0 11:0.0 12:0.0 13:0.044354473563973665 14:0.9556152251701181 15:3.0301265908236585E-5 16:0.411628137477 17:0.531663155652 18:0.380836646906 19:0.3333333333333333 20:0.3333333333333333 21:0.3333333333333333 22:0.0 23:0.0 24:0.0 25:0.0 26:0.0 27:0.0 28:0.0 29:0.0 30:0.0 31:0.0 32:0.0 33:1.0 34:0.0 35:0.0 36:0.0 37:0.0 38:0.0 39:0.0 40:0.0 41:0.0 42:0.0 43:0.0 44:0.0 
1.0 1:0.3184818261801488 2:0.5240414015530303 3:0.157476772266821 4:0.41269052995 5:0.508865512749 6:0.450480581284 7:0.3333333333333333 8:0.3333333333333333 9:0.0 10:0.0 11:0.0 12:0.0 13:0.2681083763772613 14:0.6363845455221786 15:0.0955070781005599 16:0.41269052995 17:0.508865512749 18:0.430201919206 19:0.3333333333333333 20:0.3333333333333333 21:0.3333333333333333 22:0.0 23:0.0 24:0.0 25:0.0 26:0.0 27:0.0 28:0.0 29:0.0 30:0.0 31:0.0 32:0.0 33:0.0 34:0.0 35:0.0 36:0.0 37:0.0 38:0.0 39:0.0 40:0.0 41:0.0 42:0.0 43:0.0 44:0.0 
1.0 1:0.7661253872086902 2:0.11107924217352198 3:0.12279537061778796 4:0.699949424164 5:0.858639385729 6:0.748667233489 7:0.5950130142066212 8:0.3048561445557287 9:0.0 10:0.0 11:0.0 12:0.0 13:0.2889717129100692 14:0.37792783579834943 15:0.33310045129158133 16:0.411628137477 17:0.51519302917 18:0.710764527599 19:0.3333333333333333 20:0.3333333333333333 21:0.3333333333333333 22:0.0 23:0.0 24:0.0 25:0.0 26:0.0 27:0.0 28:0.0 29:0.0 30:0.0 31:5.0 32:0.0 33:0.0 34:0.0 35:0.0 36:0.0 37:0.0 38:0.0 39:0.0 40:0.0 41:0.0 42:0.0 43:0.0 44:0.0 
1.0 1:0.18588323864668785 2:0.8141167486296548 3:1.2723657369321043E-8 4:0.689693708067 5:0.814409091624 6:0.652387963508 7:0.9236325175665772 8:0.017367231721488144 9:0.0 10:0.0 11:0.0 12:0.0 13:0.13421094801322977 14:0.8657884015766723 15:6.504100979989291E-7 16:0.610130889717 17:0.608336247228 18:0.57138240934 19:0.3333333333333333 20:0.3333333333333333 21:0.3333333333333333 22:0.0 23:0.0 24:0.0 25:0.0 26:0.0 27:0.0 28:0.0 29:0.0 30:0.0 31:0.0 32:4.0 33:0.0 34:0.0 35:0.0 36:0.0 37:1.0 38:0.0 39:0.0 40:0.0 41:0.0 42:0.0 43:0.0 44:0.0 
1.0 1:0.752239090384422 2:0.24744747094645902 3:3.1343866911888094E-4 4:0.872584862823 5:0.602516677038 6:0.312979394997 7:0.3333333333333333 8:0.3333333333333333 9:0.0 10:0.0 11:0.0 12:0.0 13:0.5466264038670029 14:0.4437831136079635 15:0.009590482525033686 16:0.534148143359 17:0.445716040481 18:0.312979394997 19:0.3333333333333333 20:0.3333333333333333 21:0.3333333333333333 22:0.0 23:0.0 24:0.0 25:0.0 26:1.0 27:0.0 28:0.0 29:0.0 30:0.0 31:1.0 32:0.0 33:0.0 34:0.0 35:0.0 36:0.0 37:0.0 38:0.0 39:0.0 40:0.0 41:0.0 42:0.0 43:0.0 44:0.0 
1.0 1:0.9998893020657026 2:9.566699129602532E-5 3:1.5030943001320688E-5 4:0.820741627396 5:0.718906153271 6:0.826031574324 7:0.9866021711282675 8:0.012132437470814461 9:0.0 10:0.0 11:0.0 12:0.0 13:0.08740971496989412 14:0.9012541579814224 15:0.011336127048683468 16:0.424017903081 17:0.531663155652 18:0.402847491266 19:0.29232403472600005 20:0.10350214003500001 21:0.6041738252390001 22:0.292324034726 23:0.103502140035 24:0.604173825239 25:0.0 26:0.0 27:0.0 28:0.0 29:0.0 30:0.0 31:0.0 32:0.0 33:0.0 34:0.0 35:0.0 36:0.0 37:0.0 38:0.0 39:0.0 40:0.0 41:0.0 42:0.0 43:0.0 44:0.0 
1.0 1:0.021061958058443762 2:0.9789380419328886 3:8.667681432275208E-12 4:0.718404455953 5:0.907692392737 6:0.57138240934 7:0.3515293357314455 8:0.5670107426886771 9:0.0 10:0.0 11:0.0 12:0.0 13:0.028427677707479487 14:0.9715722933865539 15:2.8905966514158727E-8 16:0.577241911055 17:0.631551084504 18:0.57138240934 19:0.3333333333333333 20:0.3333333333333333 21:0.3333333333333333 22:0.0 23:0.0 24:0.0 25:0.0 26:0.0 27:0.0 28:0.0 29:0.0 30:0.0 31:8.0 32:9.0 33:0.0 34:0.0 35:0.0 36:0.0 37:0.0 38:0.0 39:0.0 40:0.0 41:0.0 42:0.0 43:0.0 44:0.0 
1.0 1:0.12067013900337334 2:0.8793177889467866 3:1.207204984016364E-5 4:0.534631701603 5:0.74487445084 6:0.747166763002 7:0.7185194112276129 8:0.273083259236184 9:0.0 10:0.0 11:0.0 12:0.0 13:0.45921101435294237 14:0.5237625208811284 15:0.01702646476592917 16:0.534148143359 17:0.445716040481 18:0.463644449559 19:0.10748790611110748 20:0.46208589677646206 21:0.4304261971124304 22:0.107487906111 23:0.462085896776 24:0.430426197112 25:0.0 26:0.0 27:0.0 28:0.0 29:0.0 30:0.0 31:0.0 32:2.0 33:0.0 34:0.0 35:0.0 36:0.0 37:0.0 38:0.0 39:0.0 40:0.0 41:0.0 42:0.0 43:0.0 44:0.0 
1.0 1:0.046908783335578894 2:0.055334806073054923 3:0.8977564105913662 4:0.659692578679 5:0.797751615571 6:0.778134372087 7:0.5017974491381016 8:0.0565498420423568 9:0.0 10:0.0 11:0.0 12:0.0 13:0.008892959545530156 14:0.9867275639157852 15:0.004379476538684656 16:0.434097617925 17:0.608336247228 18:0.612618876451 19:0.3333333333333333 20:0.3333333333333333 21:0.3333333333333333 22:0.0 23:0.0 24:0.0 25:0.0 26:0.0 27:0.0 28:0.0 29:0.0 30:0.0 31:0.0 32:0.0 33:0.0 34:0.0 35:0.0 36:0.0 37:0.0 38:0.0 39:0.0 40:0.0 41:0.0 42:0.0 43:0.0 44:0.0 
1.0 1:2.0298262102225635E-19 2:6.069137182231693E-22 3:1.0 4:0.597563469902 5:0.600945505552 6:0.888017519798 7:0.33292497461950943 8:0.10281729563009862 9:0.0 10:0.0 11:0.0 12:0.0 13:1.3899800470617684E-5 14:2.8385092053941073E-6 15:0.9999832616903239 16:0.597563469902 17:0.4297921056 18:0.87480699819 19:0.127505908689949 20:0.8133286257936746 21:0.05916546551637633 22:0.12750590869 23:0.813328625794 24:0.0591654655164 25:0.0 26:0.0 27:0.0 28:0.0 29:0.0 30:0.0 31:2.0 32:0.0 33:0.0 34:1.0 35:0.0 36:0.0 37:3.0 38:0.0 39:0.0 40:0.0 41:0.0 42:0.0 43:0.0 44:0.0 
1.0 1:0.005014136763738406 2:1.0965275998350783E-4 3:0.9948762104762781 4:0.597563469902 5:0.554822217525 6:0.81817348658 7:0.5970588745429207 8:0.15390134613007195 9:0.0 10:0.0 11:0.0 12:0.0 13:0.13948866930098278 14:0.3633203978676907 15:0.4971909328313266 16:0.597563469902 17:0.531663155652 18:0.81817348658 19:0.3333333333333333 20:0.3333333333333333 21:0.3333333333333333 22:0.0 23:0.0 24:0.0 25:0.0 26:0.0 27:0.0 28:0.0 29:0.0 30:0.0 31:12.0 32:1.0 33:0.0 34:0.0 35:0.0 36:0.0 37:0.0 38:0.0 39:0.0 40:0.0 41:0.0 42:0.0 43:0.0 44:0.0 
1.0 1:0.9566507866401744 2:0.0433491441287141 3:6.92311114929614E-8 4:0.615564171287 5:0.611496946345 6:0.714928742773 7:0.6200363135966597 8:0.1878972689009237 9:0.0 10:0.0 11:0.0 12:0.0 13:0.11922405912137622 14:0.8807746850951468 15:1.255783476943155E-6 16:0.614045615247 17:0.608336247228 18:0.388005295438 19:0.3333333333333333 20:0.3333333333333333 21:0.3333333333333333 22:0.0 23:0.0 24:0.0 25:0.0 26:0.0 27:0.0 28:0.0 29:0.0 30:0.0 31:0.0 32:0.0 33:0.0 34:0.0 35:0.0 36:0.0 37:0.0 38:0.0 39:0.0 40:0.0 41:0.0 42:0.0 43:0.0 44:0.0 
1.0 1:0.9194308988299865 2:0.08056892350950984 3:1.7766050361540384E-7 4:0.834793113623 5:0.731381314167 6:0.652387963508 7:0.8922285275330195 8:0.10074241151459556 9:0.0 10:0.0 11:0.0 12:0.0 13:0.6690725050652702 14:0.3309263409053319 15:1.1540293977422583E-6 16:0.603387768261 17:0.550295492601 18:0.462968894018 19:0.3333333333333333 20:0.3333333333333333 21:0.3333333333333333 22:0.0 23:0.0 24:0.0 25:0.0 26:0.0 27:0.0 28:0.0 29:0.0 30:0.0 31:0.0 32:0.0 33:0.0 34:0.0 35:0.0 36:0.0 37:0.0 38:0.0 39:0.0 40:0.0 41:0.0 42:0.0 43:0.0 44:0.0 
1.0 1:0.05467015802010307 2:7.195120933818256E-10 3:0.9453298412603849 4:0.518444752726 5:0.760758737653 6:0.81440872888 7:0.6562359827796489 8:0.04569657807599071 9:0.0 10:0.0 11:0.0 12:0.0 13:0.01642687717916711 14:0.9831398669868283 15:4.3325583400467864E-4 16:0.424908534616 17:0.760758737653 18:0.81440872888 19:0.3333333333333333 20:0.3333333333333333 21:0.3333333333333333 22:0.0 23:0.0 24:0.0 25:0.0 26:0.0 27:0.0 28:0.0 29:0.0 30:0.0 31:0.0 32:0.0 33:0.0 34:0.0 35:0.0 36:0.0 37:0.0 38:0.0 39:0.0 40:0.0 41:0.0 42:0.0 43:0.0 44:0.0 
1.0 1:0.21186948651687934 2:0.2628912809479827 3:0.5252392325351378 4:0.746783743253 5:0.680251668082 6:0.898342175528 7:0.9364253026055146 8:0.041666421442919946 9:0.0 10:0.0 11:0.0 12:0.0 13:0.3787772690938162 14:0.6210330104923998 15:1.8972041378390682E-4 16:0.603387768261 17:0.550295492601 18:0.516697609358 19:0.3333333333333333 20:0.3333333333333333 21:0.3333333333333333 22:0.0 23:0.0 24:0.0 25:0.0 26:0.0 27:0.0 28:0.0 29:0.0 30:0.0 31:0.0 32:0.0 33:0.0 34:0.0 35:0.0 36:0.0 37:0.0 38:0.0 39:0.0 40:0.0 41:0.0 42:0.0 43:0.0 44:0.0 
1.0 1:9.020661880902521E-4 2:3.6716498255798566E-8 3:0.9990978970954115 4:0.449107503409 5:0.690571458754 6:0.711208537463 7:0.5208809912543465 8:0.06769486536166183 9:0.0 10:0.0 11:0.0 12:0.0 13:0.13727378045488392 14:0.8367175923715913 15:0.02600862717352473 16:0.411628137477 17:0.690571458754 18:0.462968894018 19:0.3333333333333333 20:0.3333333333333333 21:0.3333333333333333 22:0.0 23:0.0 24:0.0 25:0.0 26:0.0 27:0.0 28:0.0 29:0.0 30:0.0 31:0.0 32:0.0 33:0.0 34:0.0 35:0.0 36:0.0 37:0.0 38:0.0 39:0.0 40:0.0 41:0.0 42:0.0 43:0.0 44:0.0 
1.0 1:0.38796979370230084 2:0.10535827162606475 3:0.5066719346716343 4:0.689693708067 5:0.615225349427 6:0.81817348658 7:0.9035155366232505 8:0.014985502867482185 9:0.0 10:0.0 11:0.0 12:0.0 13:0.07603881641059575 14:0.9171164202526096 15:0.006844763336794538 16:0.411628137477 17:0.550295492601 18:0.81817348658 19:0.3333333333333333 20:0.3333333333333333 21:0.3333333333333333 22:0.0 23:0.0 24:0.0 25:0.0 26:0.0 27:0.0 28:0.0 29:0.0 30:0.0 31:0.0 32:2.0 33:0.0 34:0.0 35:0.0 36:0.0 37:0.0 38:0.0 39:0.0 40:0.0 41:0.0 42:0.0 43:0.0 44:0.0 
1.0 1:0.37620897993924524 2:5.9966984543483E-8 3:0.6237909600937701 4:0.924905814535 5:0.59176585476 6:0.729099975685 7:0.9506763982487162 8:1.3566192750161948E-4 9:0.0 10:0.0 11:0.0 12:0.0 13:0.11270706215433088 14:0.8715671416683192 15:0.015725796177349927 16:0.424908534616 17:0.571199005887 18:0.634258854246 19:0.3333333333333333 20:0.3333333333333333 21:0.3333333333333333 22:0.0 23:0.0 24:0.0 25:0.0 26:0.0 27:0.0 28:0.0 29:0.0 30:0.0 31:3.0 32:6.0 33:0.0 34:0.0 35:0.0 36:0.0 37:0.0 38:0.0 39:0.0 40:0.0 41:0.0 42:0.0 43:0.0 44:0.0 
1.0 1:0.8118468893469968 2:0.17664683491040348 3:0.01150627574259956 4:0.616244732653 5:0.457116123604 6:0.355100951348 7:0.3333333333333333 8:0.3333333333333333 9:0.0 10:0.0 11:0.0 12:0.0 13:0.6061429374601576 14:0.3288007915874235 15:0.06505627095241892 16:0.603387768261 17:0.457116123604 18:0.176586444447 19:0.3333333333333333 20:0.3333333333333333 21:0.3333333333333333 22:0.0 23:0.0 24:0.0 25:0.0 26:0.0 27:0.0 28:0.0 29:0.0 30:0.0 31:0.0 32:0.0 33:0.0 34:0.0 35:0.0 36:0.0 37:0.0 38:0.0 39:0.0 40:0.0 41:0.0 42:0.0 43:0.0 44:0.0 
1.0 1:0.8537132546401736 2:0.14628595554436694 3:7.898154594626948E-7 4:0.765118044954 5:0.556516293 6:0.649410771497 7:0.8049036696902636 8:0.13340795559143198 9:0.0 10:0.0 11:0.0 12:0.0 13:0.25562530060331473 14:0.7441207238310021 15:2.539755656831276E-4 16:0.765118044954 17:0.556516293 18:0.649410771497 19:0.3333333333333333 20:0.3333333333333333 21:0.3333333333333333 22:0.0 23:0.0 24:0.0 25:0.0 26:0.0 27:0.0 28:0.0 29:0.0 30:0.0 31:0.0 32:0.0 33:0.0 34:0.0 35:0.0 36:0.0 37:0.0 38:0.0 39:0.0 40:0.0 41:0.0 42:0.0 43:0.0 44:0.0 
1.0 1:0.07252318138073549 2:0.9274706153376012 3:6.203281663237102E-6 4:0.710633557704 5:0.634267464131 6:0.414269038297 7:0.3333333333333333 8:0.3333333333333333 9:0.0 10:0.0 11:0.0 12:0.0 13:0.16007429675925317 14:0.839391261013049 15:5.344422276977713E-4 16:0.694012719359 17:0.551895970274 18:0.36090622479 19:0.23918599418990433 20:0.6895892971897241 21:0.07122470862037152 22:0.23918599419 23:0.68958929719 24:0.0712247086204 25:0.0 26:0.0 27:0.0 28:0.0 29:0.0 30:0.0 31:0.0 32:0.0 33:0.0 34:0.0 35:0.0 36:0.0 37:0.0 38:0.0 39:0.0 40:0.0 41:0.0 42:0.0 43:0.0 44:0.0 
1.0 1:0.3274446654457115 2:7.647644748201273E-5 3:0.6724788581068065 4:0.727071317195 5:0.686096460742 6:0.759523831204 7:0.43059523676112677 8:0.38436280584631227 9:0.0 10:0.0 11:0.0 12:0.0 13:0.2959955947341102 14:0.6608332518417371 15:0.04317115342415259 16:0.424017903081 17:0.508816041006 18:0.744723481066 19:0.3333333333333333 20:0.3333333333333333 21:0.3333333333333333 22:0.0 23:0.0 24:0.0 25:0.0 26:0.0 27:0.0 28:0.0 29:0.0 30:0.0 31:0.0 32:0.0 33:0.0 34:0.0 35:0.0 36:0.0 37:1.0 38:0.0 39:0.0 40:0.0 41:0.0 42:0.0 43:0.0 44:0.0 
1.0 1:0.23043162208607437 2:0.7695683778356752 3:7.825028964866853E-11 4:0.739116336941 5:0.772846920417 6:0.613143637254 7:0.8431028248789723 8:0.12112574026358736 9:0.0 10:0.0 11:0.0 12:0.0 13:0.009215997319259893 14:0.9907839918767984 15:1.0803941584347936E-8 16:0.534148143359 17:0.659646369564 18:0.422428887938 19:0.3333333333333333 20:0.3333333333333333 21:0.3333333333333333 22:0.0 23:0.0 24:0.0 25:0.0 26:0.0 27:0.0 28:0.0 29:0.0 30:0.0 31:2.0 32:0.0 33:0.0 34:0.0 35:0.0 36:0.0 37:0.0 38:0.0 39:0.0 40:0.0 41:0.0 42:0.0 43:0.0 44:0.0 
1.0 1:0.8897410493863316 2:0.11025648003523979 3:2.4705784284903243E-6 4:0.740687457882 5:0.552540946877 6:0.605368212294 7:0.2429225854687382 8:0.05855165670005447 9:0.0 10:0.0 11:0.0 12:0.0 13:0.0697523308414665 14:0.9301554319811995 15:9.223717733400794E-5 16:0.521270564503 17:0.531663155652 18:0.349015014511 19:0.3333333333333333 20:0.3333333333333333 21:0.3333333333333333 22:0.0 23:0.0 24:0.0 25:0.0 26:0.0 27:0.0 28:0.0 29:0.0 30:0.0 31:0.0 32:0.0 33:0.0 34:0.0 35:0.0 36:0.0 37:0.0 38:0.0 39:0.0 40:0.0 41:0.0 42:0.0 43:0.0 44:0.0 
1.0 1:0.041211283800551765 2:0.36834939795063043 3:0.5904393182488178 4:0.507210382328 5:0.773746587822 6:0.772517914962 7:0.2163180096034688 8:0.07293148633313173 9:0.0 10:0.0 11:0.0 12:0.0 13:0.07482610379906897 14:0.2954008209974592 15:0.6297730752034719 16:0.411628137477 17:0.510529128604 18:0.772517914962 19:0.3333333333333333 20:0.3333333333333333 21:0.3333333333333333 22:0.0 23:0.0 24:0.0 25:0.0 26:0.0 27:0.0 28:0.0 29:0.0 30:0.0 31:4.0 32:0.0 33:0.0 34:0.0 35:0.0 36:0.0 37:0.0 38:0.0 39:0.0 40:0.0 41:0.0 42:0.0 43:0.0 44:0.0 
1.0 1:0.9916920586750433 2:0.006573195706442738 3:0.001734745618513916 4:0.711465448301 5:0.780824205958 6:0.782006184552 7:0.6024737421171857 8:0.20243445960434756 9:0.0 10:0.0 11:0.0 12:0.0 13:0.3068243774861013 14:0.6921122600344741 15:0.0010633624794245888 16:0.603387768261 17:0.780824205958 18:0.640406171696 19:0.3333333333333333 20:0.3333333333333333 21:0.3333333333333333 22:0.0 23:0.0 24:0.0 25:0.0 26:0.0 27:0.0 28:0.0 29:0.0 30:0.0 31:2.0 32:0.0 33:0.0 34:0.0 35:0.0 36:0.0 37:0.0 38:0.0 39:0.0 40:0.0 41:0.0 42:0.0 43:0.0 44:0.0 
1.0 1:0.17840502295909857 2:0.8070507977784356 3:0.014544179262465866 4:0.597563469902 5:0.862139642121 6:0.330989544045 7:0.3333333333333333 8:0.3333333333333333 9:0.0 10:0.0 11:0.0 12:0.0 13:0.2356472890947787 14:0.7483371155900562 15:0.01601559531516521 16:0.597563469902 17:0.862139642121 18:0.160323101462 19:0.723242064567 20:0.127244642652 21:0.149513292781 22:0.723242064567 23:0.127244642652 24:0.149513292781 25:0.0 26:0.0 27:0.0 28:0.0 29:0.0 30:0.0 31:0.0 32:0.0 33:0.0 34:0.0 35:0.0 36:0.0 37:0.0 38:0.0 39:0.0 40:0.0 41:0.0 42:0.0 43:0.0 44:0.0 
1.0 1:2.3937196903260407E-4 2:0.999378187059224 3:3.8244097174348766E-4 4:0.514908462568 5:0.636945763135 6:0.697551844 7:0.32809570468267185 8:0.5517036576734483 9:0.0 10:0.0 11:0.0 12:0.0 13:0.0044325758018730075 14:0.9917523885169749 15:0.0038150356811520398 16:0.498140284152 17:0.636945763135 18:0.697551844 19:0.3333333333333333 20:0.3333333333333333 21:0.3333333333333333 22:0.0 23:0.0 24:0.0 25:0.0 26:0.0 27:0.0 28:0.0 29:0.0 30:0.0 31:0.0 32:2.0 33:4.0 34:0.0 35:0.0 36:0.0 37:0.0 38:0.0 39:0.0 40:0.0 41:0.0 42:1.0 43:0.0 44:0.0 
1.0 1:5.213112599950743E-5 2:1.4387219145671065E-9 3:0.9999478674352786 4:0.60675531421 5:0.655867966705 6:0.783629918569 7:0.5678792517885908 8:0.11629291936247141 9:0.0 10:0.0 11:0.0 12:0.0 13:0.019892445556227493 14:0.9791462548140635 15:9.612996297089581E-4 16:0.411628137477 17:0.51519302917 18:0.693899081196 19:0.3333333333333333 20:0.3333333333333333 21:0.3333333333333333 22:0.0 23:0.0 24:0.0 25:0.0 26:0.0 27:0.0 28:0.0 29:0.0 30:0.0 31:0.0 32:0.0 33:1.0 34:0.0 35:0.0 36:0.0 37:0.0 38:0.0 39:0.0 40:0.0 41:0.0 42:0.0 43:0.0 44:0.0 
1.0 1:4.305011801804618E-4 2:2.661810206954215E-6 3:0.9995668370096126 4:0.522243798427 5:0.755380912612 6:0.760375235354 7:0.3333333333333333 8:0.3333333333333333 9:0.0 10:0.0 11:0.0 12:0.0 13:0.09667695052217047 14:0.19996758364321635 15:0.7033554658346132 16:0.52095809611 17:0.755380912612 18:0.632755811284 19:0.3333333333333333 20:0.3333333333333333 21:0.3333333333333333 22:0.0 23:0.0 24:0.0 25:0.0 26:0.0 27:0.0 28:0.0 29:0.0 30:0.0 31:0.0 32:1.0 33:0.0 34:0.0 35:0.0 36:0.0 37:0.0 38:0.0 39:0.0 40:0.0 41:0.0 42:0.0 43:0.0 44:0.0 
1.0 1:0.005667112733287314 2:0.0075832454604225575 3:0.9867496418062901 4:0.795518303013 5:0.798231565586 6:0.76462242529 7:0.9416436022919504 8:0.048718932034420744 9:0.0 10:0.0 11:0.0 12:0.0 13:0.43036619058051456 14:0.5510684249681004 15:0.01856538445138509 16:0.470923802882 17:0.550295492601 18:0.752291920268 19:0.3333333333333333 20:0.3333333333333333 21:0.3333333333333333 22:0.0 23:0.0 24:0.0 25:0.0 26:0.0 27:0.0 28:0.0 29:0.0 30:0.0 31:0.0 32:1.0 33:4.0 34:0.0 35:0.0 36:0.0 37:1.0 38:0.0 39:0.0 40:0.0 41:0.0 42:0.0 43:0.0 44:0.0 
1.0 1:0.8886840502352786 2:0.014107505830700853 3:0.09720844393402057 4:0.70093708941 5:0.552092139211 6:0.795920745547 7:0.8345067412024852 8:0.08364774967413893 9:0.0 10:0.0 11:0.0 12:0.0 13:0.24223967753014988 14:0.3728937109730001 15:0.38486661149685 16:0.534148143359 17:0.520902710501 18:0.736625088209 19:0.3333333333333333 20:0.3333333333333333 21:0.3333333333333333 22:0.0 23:0.0 24:0.0 25:0.0 26:0.0 27:0.0 28:0.0 29:0.0 30:0.0 31:35.0 32:0.0 33:0.0 34:0.0 35:0.0 36:0.0 37:0.0 38:0.0 39:0.0 40:0.0 41:0.0 42:0.0 43:0.0 44:0.0 
1.0 1:0.22351461047381568 2:1.2011739570260546E-4 3:0.7763652721304817 4:0.708260496272 5:0.819706910599 6:0.757899372689 7:0.8807225628358576 8:0.0011468722135218976 9:0.0 10:0.0 11:0.0 12:0.0 13:0.16064865354322855 14:0.4507207822629115 15:0.38863056419386005 16:0.632109677449 17:0.520902710501 18:0.697919410374 19:0.3333333333333333 20:0.3333333333333333 21:0.3333333333333333 22:0.0 23:0.0 24:0.0 25:0.0 26:0.0 27:0.0 28:0.0 29:0.0 30:0.0 31:0.0 32:0.0 33:0.0 34:0.0 35:0.0 36:0.0 37:0.0 38:0.0 39:0.0 40:0.0 41:0.0 42:0.0 43:0.0 44:0.0 
1.0 1:0.11493308661020445 2:0.8850480030043189 3:1.8910385476614736E-5 4:0.606032664703 5:0.722211320406 6:0.714684972173 7:0.9654123375434406 8:0.003843670166046106 9:0.0 10:0.0 11:0.0 12:0.0 13:3.613231740610575E-4 14:0.9991276204195283 15:5.110564064105794E-4 16:0.41269052995 17:0.722211320406 18:0.714684972173 19:0.3333333333333333 20:0.3333333333333333 21:0.3333333333333333 22:0.0 23:0.0 24:0.0 25:0.0 26:0.0 27:0.0 28:0.0 29:0.0 30:0.0 31:1.0 32:1.0 33:0.0 34:0.0 35:0.0 36:0.0 37:8.0 38:0.0 39:0.0 40:0.0 41:0.0 42:0.0 43:0.0 44:0.0 
1.0 1:1.2629801153020456E-5 2:0.999987370198847 3:1.3902076873606723E-22 4:0.853109976935 5:0.842608634407 6:0.647829706199 7:0.5211964038051378 8:0.47467953999244106 9:0.0 10:0.0 11:0.0 12:0.0 13:1.1701837820593721E-4 14:0.9998829816217938 15:2.056108141851485E-16 16:0.694012719359 17:0.842608634407 18:0.499837664408 19:0.3333333333333333 20:0.3333333333333333 21:0.3333333333333333 22:0.0 23:0.0 24:0.0 25:0.0 26:0.0 27:0.0 28:0.0 29:0.0 30:0.0 31:0.0 32:0.0 33:0.0 34:0.0 35:0.0 36:0.0 37:1.0 38:0.0 39:0.0 40:0.0 41:0.0 42:0.0 43:0.0 44:0.0 
